tree
version=v4
num_class=1
num_tree_per_iteration=1
label_index=0
max_feature_idx=3
objective=binary sigmoid:1
feature_names=Column_0 Column_1 Column_2 Column_3
feature_infos=[-436.13999999999999:155.61000000000001] [-1242.5641025641025:7000] [-0.99771240334904154:65] [0:436.13999999999999]
tree_sizes=6637 6702 6703 6727 6712 6720 6706 6733 6723 6717 6718 6721 6734 6715 6728 6742 6715 6713 6730 6725 6715 6725 6716 6736 6733 6707 6726 6716 6725 6710 6713 6724 6728 6732 6728 6725 6714 6727 6731 6744 6744 6737 6746 6742 6742 6743 6748 6738 6745 6743 6756 6744 6760 6762 6755 6764 6755 6766 6757 6754 6766 6763 6763 6768 6786 6767 6798 6797 6788 6792 6792 6801 6793 6780 6807 6786 6820 6813 6789 6815 6810 6823

Tree=0
num_leaves=63
num_cat=0
split_feature=2 0 0 3 0 1 0 0 2 1 2 0 1 0 2 0 2 2 0 2 1 1 0 3 3 0 0 0 3 2 2 1 2 0 2 3 1 3 1 0 3 0 0 1 2 1 0 0 0 0 0 0 2 3 1 0 0 3 0 0 0 2
split_gain=39090.3 13317.2 104.002 30.2674 179.314 72.9158 47.7418 14.2381 42.7012 34.2196 13.5994 17.3546 11.4488 13.1544 14.2869 10.072 12.6682 8.88117 13.3422 5.83185 5.28626 8.24412 3.73203 73.257 15.818 18.3822 3.85866 3.60248 3.3918 3.19157 3.48629 1.97997 3.38623 1.71873 1.64924 1.38757 1.27862 1.0298 1.02874 6.34534 5.88232 1.02848 1.00608 0.972864 0.798042 0.737978 0.623192 1.49853 1.23477 0.701575 0.363605 0.362058 0.308617 0.25153 0.249329 0.20258 0.20258 0.181848 0.648418 0.166672 0.0647004 1.28518
threshold=3.6676913681716541 40.275000000000013 39.965000000000011 0.56195616883116895 24.625000000000004 0.6309831857270648 32.785000000000004 17.815000000000005 0.41749456890407793 0.69669043104325423 0.62502477209671037 29.995000000000005 0.30632064547309651 32.345000000000006 0.64150050435960171 29.995000000000005 0.4769351505350487 0.56661109946905952 27.815000000000005 0.50375939849624074 3.9304817411408743 5.8154154904377284 35.815000000000005 0.50394102990033229 0.54275252525252538 36.965000000000011 38.355000000000011 20.775000000000006 0.47070714642678663 2.5531355343065889 2.3601075268817207 1.1751504607733894 1.8335734870317004 21.345000000000006 3.6857046809773499 0.63462912087912093 2.3578512504691287 0.62639610389610401 0.80991787844400231 10.855000000000002 0.75060000000000016 21.975000000000005 24.375000000000004 1.6902644233825448 0.85574368823447189 5.0983110875373763 30.475000000000005 24.225000000000005 25.865000000000006 29.035000000000004 20.435000000000006 31.775000000000006 0.96502649885876279 0.88994444444444454 1.6499882629572737 34.25500000000001 34.25500000000001 0.88994444444444454 -1.0000000180025095e-35 15.565000000000003 35.25500000000001 0.88366760154118873
decision_type=2 2 2 2 2 2 2 2 2 2 2 2 2 2 2 2 2 2 2 2 2 2 2 2 2 2 2 2 2 2 2 2 2 2 2 2 2 2 2 2 2 2 2 2 2 2 2 2 2 2 2 2 2 2 2 2 2 2 2 2 2 2
left_child=1 2 3 22 7 12 10 38 9 27 11 17 37 14 15 16 -14 18 19 -7 28 -22 60 52 25 44 -27 -9 29 30 31 -4 -33 54 45 -18 -34 -6 39 57 -41 -29 -10 -31 -25 59 47 50 -49 -50 -47 -12 -24 -40 -11 -8 -15 -5 -59 -2 -1 -62
right_child=34 -3 20 4 5 6 55 8 42 33 51 -13 13 56 -16 -17 35 -19 -20 -21 21 -23 23 24 -26 26 -28 41 -30 43 -32 32 36 -35 -36 -37 -38 -39 53 40 -42 -43 -44 -45 -46 46 -48 48 49 -51 -52 -53 -54 -55 -56 -57 -58 58 -60 -61 61 -63
leaf_value=-0.31652526702549033 -0.12460747363416896 -0.11394537400131768 -0.18147200500937541 -0.31652526702549033 -0.1459316728998713 -0.22444349746904824 -0.13420336330373495 -0.20602714355775983 -0.31652526702549033 -0.2962672777230731 -0.31652526702549033 -0.13420336330373495 -0.1323617279126062 -0.13420336330373495 -0.31652526702549033 -0.11394537400131768 -0.28535912963715609 -0.31652526702549033 -0.16069458008381909 -0.31652526702549033 -0.31652526702549033 -0.19497733121098676 -0.30094219833132319 -0.27969255920291347 -0.11394537400131768 -0.21523532051340402 -0.14288535871905667 -0.11394537400131774 -0.15446135260615224 -0.20602714355775981 -0.27969255920291347 -0.26025307451877572 -0.22444349746904824 -0.26127620529162504 -0.11394537400131768 -0.23549330981582128 -0.1747193419085695 -0.11394537400131771 -0.31652526702549033 -0.31652526702549033 -0.22198798361420977 -0.15446135260615224 -0.28951461462226735 -0.16459034725736088 -0.31652526702549033 -0.13082703175333218 -0.11394537400131768 -0.17182534343679556 -0.11394537400131774 -0.15077808182389457 -0.11394537400131771 -0.2962672777230731 -0.31652526702549033 -0.30386402371147958 -0.31652526702549033 -0.11394537400131774 -0.11394537400131774 -0.31652526702549033 -0.30717542580899004 -0.11394537400131768 -0.28276195152146155 -0.31652526702549033
leaf_weight=6112.1564510464668 4.6895078569650677 929.75663669407368 2.9617944359779456 47.388710975646973 4.6895078569650668 2.7149782329797798 2.4681620299816123 2.7149782329797763 50.103689208626747 2.4681620299816114 20.732561051845554 2.4681620299816123 2.7149782329797763 2.4681620299816123 2.9617944359779349 2.9617944359779349 3.2086106389760971 7.6513022929429999 3.2086106389760971 4.689507856965065 3.2086106389760962 2.4681620299816132 3.2086106389760962 2.7149782329797763 3.4554268419742575 3.9490592479705811 3.4554268419742584 2.7149782329797745 2.4681620299816123 2.7149782329797736 2.7149782329797736 4.4426916539669019 2.7149782329797745 2.7149782329797745 4818.099098727107 2.4681620299816132 2.4681620299816132 5.429956465959549 585.94166591763496 2.9617944359779349 3.7022430449724197 3.7022430449724197 3.7022430449724189 2.9617944359779358 3.2086106389760971 5.9235888719558769 5.6767726689577094 3.4554268419742566 2.4681620299816132 2.7149782329797745 6.9108536839485168 2.4681620299816123 325.30375555157661 3.9490592479705802 3.9490592479705811 2.4681620299816132 2.4681620299816132 43.933284133672714 32.086106389760971 16.783501803874969 2.9617944359779349 58.248623907566071
leaf_count=24764 19 3767 12 192 19 11 10 11 203 10 84 10 11 10 12 12 13 31 13 19 13 10 13 11 14 16 14 11 10 11 11 18 11 11 19521 10 10 22 2374 12 15 15 15 12 13 24 23 14 10 11 28 10 1318 16 16 10 10 178 130 68 12 236
internal_value=-0.226666 -0.292327 -0.314685 -0.315057 -0.306299 -0.234087 -0.271508 -0.313432 -0.292243 -0.226186 -0.288073 -0.258645 -0.171825 -0.194458 -0.218728 -0.193216 -0.221194 -0.275462 -0.245858 -0.282762 -0.220386 -0.263678 -0.316226 -0.311168 -0.209277 -0.233993 -0.181472 -0.157746 -0.209904 -0.216427 -0.228305 -0.217221 -0.228221 -0.294625 -0.114038 -0.263678 -0.200765 -0.128768 -0.315553 -0.311528 -0.264005 -0.13732 -0.314667 -0.184408 -0.299644 -0.1232 -0.128678 -0.132573 -0.148673 -0.133239 -0.121737 -0.31437 -0.316373 -0.316441 -0.308734 -0.124074 -0.124074 -0.314094 -0.312579 -0.116274 -0.316509 -0.314892
internal_weight=13214.5 8347.82 7418.06 7388.94 870.274 78.2407 48.8696 792.033 72.0703 18.2644 43.9333 20.7326 29.3711 19.2517 14.3153 11.3535 8.39175 18.2644 10.6131 7.40449 29.1243 5.67677 6518.66 345.296 16.7835 13.3281 7.40449 9.1322 23.4475 20.9794 15.3026 12.5876 9.62583 9.1322 4866.72 5.67677 5.18314 10.1195 719.963 130.072 6.66404 6.41722 53.8059 5.67677 5.92359 48.6228 27.1498 21.473 8.63857 5.18314 12.8344 23.2007 328.512 589.891 6.41722 4.93632 4.93632 123.408 76.0194 21.473 6173.37 61.2104
internal_count=53540 33822 30055 29937 3526 317 198 3209 292 74 178 84 119 78 58 46 34 74 43 30 118 23 26411 1399 68 54 30 37 95 85 62 51 39 37 19718 23 21 41 2917 527 27 26 218 23 24 197 110 87 35 21 52 94 1331 2390 26 20 20 500 308 87 25012 248
is_linear=0
shrinkage=1


Tree=1
num_leaves=63
num_cat=0
split_feature=2 0 0 3 0 1 0 0 2 1 2 0 1 0 2 0 2 2 0 2 1 1 0 3 3 0 0 0 3 2 2 1 2 0 2 3 1 1 0 3 0 0 3 1 0 1 0 0 0 0 0 0 2 2 3 3 0 3 0 0 0 2
split_gain=35189.2 12102.2 96.0196 28.2061 165.377 65.9178 43.1942 13.2495 39.3096 30.9224 12.5596 15.6699 10.1496 11.7158 12.9911 8.96739 11.37 8.18435 12.0697 5.36924 4.78462 7.53933 3.48109 67.4637 14.1218 16.6792 3.43649 3.19915 3.03118 2.86541 3.16504 1.77704 3.06017 1.5924 1.45187 1.26972 1.14442 0.964179 5.89226 5.40011 0.942986 0.941019 0.909073 0.867259 0.806205 0.650097 0.549403 1.32257 1.0935 0.619585 0.339071 0.320741 0.289379 0.251594 0.235989 0.209951 0.178734 0.170807 0.608397 0.146964 0.0607443 1.20056
threshold=3.6676913681716541 40.275000000000013 39.965000000000011 0.56195616883116895 24.625000000000004 0.6309831857270648 32.785000000000004 17.815000000000005 0.41749456890407793 0.69669043104325423 0.62502477209671037 29.995000000000005 0.30632064547309651 32.345000000000006 0.64150050435960171 29.995000000000005 0.4769351505350487 0.56661109946905952 27.815000000000005 0.50375939849624074 3.9304817411408743 5.8154154904377284 35.815000000000005 0.50394102990033229 0.54275252525252538 36.965000000000011 38.355000000000011 20.775000000000006 0.47070714642678663 2.5531355343065889 2.3601075268817207 1.1751504607733894 1.8335734870317004 21.345000000000006 3.6857046809773499 0.63462912087912093 2.3578512504691287 0.80991787844400231 10.855000000000002 0.75060000000000016 22.935000000000006 24.375000000000004 0.62639610389610401 1.6902644233825448 36.345000000000006 5.0983110875373763 30.475000000000005 24.225000000000005 25.865000000000006 29.035000000000004 31.775000000000006 20.435000000000006 0.96502649885876279 0.34545027248821764 0.88994444444444454 0.57918333333333349 34.25500000000001 0.88994444444444454 -1.0000000180025095e-35 15.565000000000003 35.25500000000001 0.88366760154118873
decision_type=2 2 2 2 2 2 2 2 2 2 2 2 2 2 2 2 2 2 2 2 2 2 2 2 2 2 2 2 2 2 2 2 2 2 2 2 2 2 2 2 2 2 2 2 2 2 2 2 2 2 2 2 2 2 2 2 2 2 2 2 2 2
left_child=1 2 3 22 7 12 10 37 9 27 11 17 42 14 15 16 -14 18 19 -7 28 -22 60 52 25 44 -27 -9 29 30 31 -4 -33 53 45 -18 -34 38 57 -40 -29 -10 -6 -31 -25 59 47 51 -49 -50 -12 -47 -24 -11 -39 -8 -15 -5 -59 -2 -1 -62
right_child=34 -3 20 4 5 6 55 8 41 33 50 -13 13 56 -16 -17 35 -19 -20 -21 21 -23 23 24 -26 26 -28 40 -30 43 -32 32 36 -35 -36 -37 -38 54 39 -41 -42 -43 -44 -45 -46 46 -48 48 49 -51 -52 -53 -54 -55 -56 -57 -58 58 -60 -61 61 -63
leaf_value=-0.086433827112888328 0.09606795416340462 0.1060345417836895 0.042732009751133518 -0.086433827112888328 0.076108484909248375 0.0021107501737088557 0.086305716444853312 0.019562111395655227 -0.086433827112888328 -0.066252748350165966 -0.086433827112888328 0.08709107885929146 0.088814488521240381 0.08709107885929146 -0.086433827112888328 0.1060345417836895 -0.056187336599796078 -0.086433827112888328 0.062263867944339871 -0.086433827112888315 -0.086433827112888328 0.030001433319072342 -0.071270445379424729 -0.08706659289699735 0.1060345417836895 0.010845050167627407 0.078962367704561123 0.069103477753053852 0.068112400722792274 0.019562111395655248 -0.050721360524394382 -0.032041230849373041 0.0021107501737088596 -0.033021757228515303 0.1060345417836895 -0.0083947700892229842 0.04908652318648854 -0.086433827112888328 -0.086433827112888328 0.004441648867795479 0.10835145750477404 -0.060201971438334917 0.10603454178368948 0.058606117292961994 -0.049867336502573981 0.090250445678040303 0.1060345417836895 0.051807857627940407 0.10603454178368946 0.071566229512697407 -0.066737341269543921 0.10603454178368948 -0.086433827112888328 -0.086713967580896598 -0.074107292557709051 0.10683694695867499 0.10603454178368946 -0.086433827112888328 -0.077325845318824415 0.1060345417836895 -0.053680890712360811 -0.086433827112888328
leaf_weight=6038.4868243336678 4.7316092401742962 938.69980661571026 2.9754357933998206 46.817536354064941 4.7248004376888293 2.715656012296682 2.4909651130437842 2.721022844314577 49.499791041016579 2.4414214789867383 20.482672154903415 2.4887770414352408 2.7379902750253695 2.4887770414352408 2.9260960221290579 2.9902834296226493 3.1847259551286697 7.5590813905000678 3.229108989238739 4.6329853683710098 3.1699373573064795 2.4763897061347961 3.1775116175413123 3.1779321283102053 3.4886640012264243 3.9540290832519531 3.4821964800357819 3.9836670011281967 2.4851477146148673 2.7210228443145743 2.6969117671251288 4.4246537983417493 2.7156560122966766 2.7035964578390121 4864.4435691386461 2.4656571447849274 2.4810174107551575 578.87932971119881 2.9260960221290579 3.7041780352592468 2.4851477146148682 3.6725047230720511 5.4821862876415253 2.9797738194465637 2.6889169961214066 5.974399566650396 5.7313765734434119 3.4742930531501752 2.4919028580188751 2.7344294339418411 2.4459336698055258 6.9773280024528503 321.38287976384163 3.9059735536575317 3.9090692996978751 2.4897147864103317 2.4919028580188751 43.403757661581039 31.745249181985855 16.944939434528351 2.9408243894577017 57.54655510187149
leaf_count=24764 19 3767 12 192 19 11 10 11 203 10 84 10 11 10 12 12 13 31 13 19 13 10 13 13 14 16 14 16 10 11 11 18 11 11 19521 10 10 2374 12 15 10 15 22 12 11 24 23 14 10 11 10 28 1318 16 16 10 10 178 130 68 12 236
internal_value=-2.75128e-05 -0.0629993 -0.0846454 -0.0850068 -0.0765064 -0.00709176 -0.0429159 -0.0834254 -0.0628945 0.000441467 -0.0588668 -0.0305575 0.0518631 0.0305241 0.00752847 0.0316915 0.00518972 -0.0467015 -0.018308 -0.0537126 0.00595817 -0.0353672 -0.086143 -0.0812294 0.0164951 -0.00698611 0.0427427 0.0650483 0.015896 0.00971506 -0.0015627 0.00896195 -0.00148158 -0.0651565 0.105948 -0.0353321 0.0245381 -0.0854865 -0.0815678 -0.0356638 0.0841815 -0.084622 0.0921818 0.0399702 -0.0700173 0.0973899 0.092269 0.0886253 0.0735483 0.0880006 -0.0843327 0.0987536 -0.0862854 -0.0788439 -0.0863511 0.0965688 0.0965688 -0.0840632 -0.0825863 0.103859 -0.086418 -0.0848414
internal_weight=13182.5 8268.98 7330.28 7301.15 860.826 78.0273 48.5349 782.798 71.4131 18.2408 43.5542 20.6256 29.4924 19.2854 14.3048 11.3787 8.38837 18.1368 10.5778 7.34864 29.1259 5.64633 6440.33 341.352 16.7917 13.3031 7.43623 9.18984 23.4796 20.9945 15.2937 12.5968 9.62133 9.05099 4913.5 5.65038 5.19667 711.385 128.597 6.63027 6.46881 53.1723 10.207 5.7008 5.86685 49.0603 27.3837 21.6524 8.70063 5.22633 22.9286 12.9517 324.56 6.3474 582.788 4.98068 4.98068 121.967 75.149 21.6765 6098.97 60.4874
internal_count=53540 33822 30055 29937 3526 317 198 3209 292 74 178 84 119 78 58 46 34 74 43 30 118 23 26411 1399 68 54 30 37 95 85 62 51 39 37 19718 23 21 2917 527 27 26 218 41 23 24 197 110 87 35 21 94 52 1331 26 2390 20 20 500 308 87 25012 248
is_linear=0
shrinkage=0.05


Tree=2
num_leaves=63
num_cat=0
split_feature=2 0 0 3 0 1 0 0 2 1 2 0 1 0 2 0 2 2 0 1 1 2 0 3 3 0 0 0 3 2 2 1 2 0 2 3 1 0 1 0 3 0 2 1 2 1 0 0 0 0 0 0 2 1 3 2 0 3 0 0 0 0
split_gain=31856.8 11046.3 89.1083 26.3967 152.988 59.8231 39.2401 12.3924 36.3275 28.0171 11.6434 14.1999 9.06028 10.5031 11.8541 8.05006 10.244 7.57594 11.0357 4.33856 6.91934 4.16107 3.26196 62.3656 12.6966 15.1665 3.08082 2.86669 2.71904 2.57622 2.87637 1.59705 2.76702 1.48672 1.31227 1.16476 1.02682 0.978184 0.914881 5.51056 4.97974 0.891732 0.821675 0.776958 0.756067 0.586543 0.496069 1.19067 0.983281 0.559549 0.322006 0.290706 0.275372 0.237448 0.224796 0.21494 0.187886 0.163007 0.579694 0.161886 0.133386 0.0578526
threshold=3.6676913681716541 40.275000000000013 39.965000000000011 0.56195616883116895 24.625000000000004 0.6309831857270648 32.785000000000004 17.815000000000005 0.41749456890407793 0.69669043104325423 0.62502477209671037 29.995000000000005 0.30632064547309651 32.345000000000006 0.64150050435960171 29.995000000000005 0.4769351505350487 0.56661109946905952 28.105000000000004 3.9304817411408743 5.8154154904377284 0.50375939849624074 35.815000000000005 0.50394102990033229 0.54275252525252538 36.965000000000011 38.355000000000011 20.775000000000006 0.47070714642678663 2.5531355343065889 2.3601075268817207 1.1751504607733894 1.8335734870317004 21.345000000000006 3.6857046809773499 0.63462912087912093 2.3578512504691287 21.975000000000005 0.80991787844400231 10.855000000000002 0.75060000000000016 24.375000000000004 0.56661109946905952 1.6902644233825448 0.85574368823447189 5.0983110875373763 30.475000000000005 24.225000000000005 25.865000000000006 29.035000000000004 31.775000000000006 20.435000000000006 0.96502649885876279 1.6499882629572737 0.88994444444444454 0.52548837089038003 34.25500000000001 0.88994444444444454 -1.0000000180025095e-35 34.25500000000001 15.565000000000003 35.25500000000001
decision_type=2 2 2 2 2 2 2 2 2 2 2 2 2 2 2 2 2 2 2 2 2 2 2 2 2 2 2 2 2 2 2 2 2 2 2 2 2 2 2 2 2 2 2 2 2 2 2 2 2 2 2 2 2 2 2 2 2 2 2 2 2 2
left_child=1 2 3 22 7 12 10 38 9 27 11 17 42 14 15 16 -14 18 21 28 -21 -7 61 52 25 44 -27 -9 29 30 31 -4 -33 53 45 -18 -34 -29 39 57 -41 -10 -6 -31 -25 60 47 51 -49 -50 -12 -47 -24 -11 -40 -23 -8 -5 -59 -15 -2 -1
right_child=34 -3 19 4 5 6 56 8 41 33 50 -13 13 59 -16 -17 35 -19 -20 20 -22 55 23 24 -26 26 -28 37 -30 43 -32 32 36 -35 -36 -37 -38 -39 54 40 -42 -43 -44 -45 -46 46 -48 48 49 -51 -52 -53 -54 -55 -56 -57 -58 58 -60 -61 -62 -63
leaf_value=-0.083416969826199019 0.090919072099282586 0.10039710426576838 0.04045327254222103 -0.083416969826199019 0.10039710426576834 0.0020047334050223289 0.081700853098481532 0.018547534319796628 -0.083416969826199019 -0.06366272477515543 -0.083416969826199006 0.082400887767169556 0.08403503075418027 0.082400887767169556 -0.083416969826199019 0.10039710426576838 -0.05385819737602842 -0.083416969826199019 0.068720107068270614 -0.083416969826199019 0.028422659603356416 -0.063904964735501765 -0.068536733578434678 -0.047757170385942876 0.10039710426576838 0.010290817257626686 0.074699888015425875 0.1022931238011579 0.0644347297420199 0.018547534319796648 -0.048566125118466363 -0.030576800830999701 0.0020047334050223328 -0.031517656945691398 0.10039710426576838 -0.0079832326145634399 0.046456218046483692 0.063019033079333805 -0.083416969826199019 -0.083416969826199019 0.0042174640903515637 -0.057754035146426921 0.071998480075136637 0.055449673288248763 -0.083982226525130738 0.085397023820029824 0.10039710426576838 0.049026946695617635 0.10039710426576837 0.067700974750996928 -0.064113032673792134 0.10039710426576838 -0.083416969826199019 -0.08366723053578709 -0.071310719521106486 -0.084536264024150182 0.10108785206210587 -0.083416969826199019 -0.074463337191991316 0.10039710426576837 0.10039710426576838 -0.081851199772779493
leaf_weight=5946.3307856321335 4.7490328550338772 941.73529323935509 2.9856095910072424 46.103033065795898 5.4999141097068804 2.7162936329841667 2.4992423653602591 2.7262339591979998 48.744352668523788 2.4141654372215253 20.170076966285709 2.4986132979392996 2.7486967295408267 2.4986132979392996 2.8814395666122428 2.9999531507492057 3.1570314764976501 7.4437188804149619 2.7433498948812485 3.1215595304965964 2.4830661714076996 2.4104751199483871 3.1399835795164099 2.6673320978879946 3.4999453425407401 3.9585137367248535 3.4964270293712616 2.7486180514097214 2.4953456223011008 2.7262339591979972 2.6762882620096198 4.405236750841139 2.7162936329841614 2.6913038194179535 4880.1737879812717 2.4631896615028381 2.4901612102985382 3.7463976442813873 570.04479426145554 2.8814395666122428 3.7059791386127472 3.6376393586397162 4.7442152500152588 2.9915912747383118 3.1313920468091965 5.9975309371948295 5.749910205602645 3.4874264895915967 2.4999609589576721 2.7456907331943512 2.4194177985191336 6.9998906850814819 316.47811239957809 3.8474355936050415 3.8604717254638663 2.6505950838327408 2.4996563196182251 42.741353571414948 31.327779591083527 2.4999609589576721 16.99973452091217 59.584992408752441
leaf_count=24764 19 3767 12 192 22 11 10 11 203 10 84 10 11 10 12 12 13 31 11 13 10 10 13 11 14 16 14 11 10 11 11 18 11 11 19521 10 10 15 2374 12 15 15 19 12 13 24 23 14 10 11 10 28 1318 16 16 11 10 178 130 10 68 248
internal_value=-4.88275e-05 -0.0606641 -0.0816716 -0.0820249 -0.073744 -0.00679883 -0.0412049 -0.0804751 -0.060502 0.00040738 -0.0566013 -0.0292815 0.0492572 0.0290403 0.00716589 0.0301241 0.0049338 -0.044815 -0.017503 0.00565977 -0.0338677 -0.0479169 -0.0831331 -0.0783416 0.0156944 -0.00667336 0.0404992 0.0615778 0.0150922 0.00922659 -0.0014907 0.00851044 -0.00141173 -0.0625965 0.100315 -0.0337525 0.0232651 0.0796394 -0.0824864 -0.078642 -0.0341152 -0.0816348 0.0872453 0.0378549 -0.0673192 0.0921927 0.0873374 0.0838818 0.0696035 0.0832832 -0.0813494 0.0934755 -0.0832708 -0.0759545 -0.0833355 -0.07471 0.0913952 -0.0810828 -0.07963 0.0914014 0.0983275 -0.0834014
internal_weight=13091.3 8161.88 7220.14 7191.05 848.765 77.5445 48.0514 771.221 70.5561 18.1742 43.0525 20.463 29.493 19.2489 14.2503 11.3689 8.36892 17.9644 10.5207 29.0914 5.60463 7.77736 6342.29 336.372 16.7536 13.2537 7.45494 9.22125 23.4868 20.9914 15.2736 12.5973 9.61169 8.9529 4929.4 5.62022 5.20645 6.49502 700.665 126.76 6.58742 52.382 10.2441 5.71783 5.79872 49.2292 27.4804 21.7305 8.73308 5.24565 22.5895 12.9974 319.618 6.2616 573.905 5.06107 4.9989 120.172 74.0691 4.99857 21.7488 6005.92
internal_count=53540 33822 30055 29937 3526 317 198 3209 292 74 178 84 119 78 58 46 34 74 43 118 23 32 26411 1399 68 54 30 37 95 85 62 51 39 37 19718 23 21 26 2917 527 27 218 41 23 24 197 110 87 35 21 94 52 1331 26 2390 21 20 500 308 20 87 25012
is_linear=0
shrinkage=0.05


Tree=3
num_leaves=63
num_cat=0
split_feature=2 0 0 3 0 1 0 0 2 1 2 0 1 0 3 2 0 0 2 2 1 1 0 3 3 0 0 0 3 2 2 1 2 0 2 1 0 1 0 3 0 0 2 3 1 1 0 0 3 0 0 2 0 2 3 3 3 0 0 0 0 2
split_gain=28978.4 10120.2 83.0744 24.8002 141.931 54.4686 35.7696 11.6413 33.6843 25.4458 10.8362 12.9046 8.13499 9.46797 10.878 7.04478 10.1052 5.94271 8.22113 4.65445 3.94035 6.3704 3.06905 57.8473 11.4832 13.8184 2.77752 2.59047 2.44682 2.31903 2.61633 1.43694 2.50311 1.39742 1.21251 0.923244 0.900099 0.877455 5.18576 4.61018 0.854557 0.769475 0.757451 0.747046 0.699016 0.539901 0.503316 3.31655 0.424214 0.910163 0.30948 0.265379 0.244893 0.242014 0.216938 0.195832 0.157698 0.559666 0.149859 0.123999 0.0561436 1.16797
threshold=3.6676913681716541 40.275000000000013 39.965000000000011 0.56195616883116895 24.625000000000004 0.6309831857270648 32.785000000000004 17.815000000000005 0.41749456890407793 0.69669043104325423 0.62502477209671037 29.995000000000005 0.30632064547309651 32.345000000000006 0.60010204081632668 0.56661109946905952 27.815000000000005 29.995000000000005 0.4769351505350487 0.50375939849624074 3.9304817411408743 5.8154154904377284 35.815000000000005 0.50394102990033229 0.54275252525252538 36.965000000000011 38.355000000000011 20.775000000000006 0.47070714642678663 2.5531355343065889 2.3601075268817207 1.1751504607733894 1.8335734870317004 21.345000000000006 3.6857046809773499 2.3578512504691287 22.935000000000006 0.80991787844400231 10.855000000000002 0.75060000000000016 24.375000000000004 36.345000000000006 0.56661109946905952 0.63462912087912093 1.6902644233825448 5.0983110875373763 24.375000000000004 22.805000000000003 0.18762531328320806 32.155000000000008 31.775000000000006 0.96502649885876279 20.435000000000006 0.34545027248821764 0.88994444444444454 0.57918333333333349 0.88994444444444454 -1.0000000180025095e-35 34.25500000000001 15.565000000000003 35.25500000000001 0.88366760154118873
decision_type=2 2 2 2 2 2 2 2 2 2 2 2 2 2 2 2 2 2 2 2 2 2 2 2 2 2 2 2 2 2 2 2 2 2 2 2 2 2 2 2 2 2 2 2 2 2 2 2 2 2 2 2 2 2 2 2 2 2 2 2 2 2
left_child=1 2 3 22 7 12 10 37 9 27 11 15 42 14 -14 16 19 18 -16 -7 28 -22 60 51 25 41 -27 -9 29 30 31 -4 -33 53 45 -34 -29 38 56 -40 -10 -25 -6 -20 -31 59 47 52 -48 -50 -12 -24 -47 -11 -39 -8 -5 -58 -15 -2 -1 -62
right_child=34 -3 20 4 5 6 55 8 40 33 50 -13 13 58 17 -17 -18 -19 43 -21 21 -23 23 24 -26 26 -28 36 -30 44 -32 32 35 -35 -36 -37 -38 54 39 -41 -42 -43 -44 -45 -46 46 48 -49 49 -51 -52 -53 -54 -55 -56 -57 57 -59 -60 -61 61 -63
leaf_value=-0.080742524752015335 0.08643975011349557 0.095583084797618359 0.038336154567841528 -0.080742524752015335 0.095583084797618317 0.0019040632463109147 0.077002696701880022 0.017590530322720562 -0.080742524752015335 -0.060846480555518737 -0.080742524752015321 0.078260109084226967 -0.068781321060360709 0.078260109084226967 0.079826774498153327 -0.080742524752015335 0.05650304351102723 0.095583084797618331 -0.045866805655759478 -0.081012128036967848 -0.080742524752015335 0.026942276682159573 -0.066033759161849045 -0.081789215776535196 0.095583084797618359 0.0097660290644195017 0.070891791327652207 0.060911598211067203 0.061102999534670292 0.017590530322720583 -0.046542935676200631 -0.029187323285536321 0.0019040632463109186 -0.030091029060644637 0.095583084797618359 0.044025686304358845 0.099161648441343342 -0.080742524752015335 -0.080742524752015335 0.0040047259703807963 -0.055477603979000881 -0.044996554964745854 0.068312367510480795 -0.0075917354818398342 0.052559730830073197 0.081133420475363538 0.099574202666107198 0.027152555145953952 0.057532076933792101 0.095583084797618345 -0.061693240341012312 -0.080742524752015335 0.095583084797618345 -0.081202343035238031 -0.068762829948891074 0.096804124048472773 -0.080742524752015335 -0.07187140456770276 0.095583084797618331 0.095583084797618359 -0.048095632316479377 -0.080790704106634303
leaf_weight=5838.828261077404 4.7453822791576412 939.73899081349373 2.9927664399147131 45.269545555114746 5.4882553219795245 2.7168938815593773 2.4974277913570395 2.7307058274745959 47.863113269209862 2.3772128224372846 19.805426180362705 2.4992218613624564 3.5597678422927883 2.4992218613624564 2.7488732635974866 7.3091453760862342 3.2456726580858231 2.7441276609897614 2.6452530175447464 4.4888751208782196 3.0651254802942267 2.4883818626403809 3.0971367061138144 3.0873474627733248 3.4925261139869681 3.9625606536865234 3.4998984038829803 3.9975761622190475 2.499699890613555 2.7307058274745932 2.6535737216472617 4.3847315311431867 2.7168938815593719 2.6782899647951126 4869.8287336528301 2.496086061000824 2.4998213350772858 559.73906847834587 2.8293465971946707 3.7076566368341446 3.5985528677701941 2.6329801231622696 4.7499943375587463 2.4607659876346588 2.9980854392051697 5.9969877004623431 6.2420858144760114 2.7454424798488608 2.4967637658119202 4.2409245669841766 2.3893608152866355 310.75656792521477 5.7377214729785919 3.7851000428199768 3.8047473430633536 2.4970555007457733 41.968641191720963 30.846823751926422 2.4946615099906921 16.963698267936707 2.8725065588951102 55.664564788341522
leaf_count=24764 19 3767 12 192 22 11 10 11 203 10 84 10 15 10 11 31 13 11 11 19 13 10 13 13 14 16 14 16 10 11 11 18 11 11 19521 10 10 2374 12 15 15 11 19 10 12 24 25 11 10 17 10 1318 23 16 16 10 178 130 10 68 12 236
internal_value=-6.55796e-05 -0.0586008 -0.0790328 -0.0793797 -0.0712856 -0.00653564 -0.0396672 -0.0778521 -0.0583544 0.000377625 -0.0545573 -0.0281177 0.0469524 0.0277197 0.00684166 -0.0430869 -0.0167527 0.0322403 0.0101113 -0.0497491 0.00538211 -0.0324918 -0.0804643 -0.0757759 0.0149714 -0.00638516 0.0384341 0.058454 0.0143429 0.0087697 -0.00142269 0.00808687 -0.00134548 -0.0602444 0.0955042 0.0220728 0.075628 -0.079822 -0.0760254 -0.0326756 -0.0789758 -0.0648541 0.0829309 -0.0274207 0.0358912 0.0876918 0.0830332 0.0766243 0.090183 0.0814826 -0.0786918 -0.0805974 0.0881986 -0.0733497 -0.0806616 0.0869027 -0.0784252 -0.0769845 0.0869137 0.0935844 -0.0807271 -0.0791863
internal_weight=12950.2 8031.2 7091.46 7062.43 834.536 76.84 47.4491 757.696 69.5304 18.0687 42.4546 20.2598 29.3909 19.1527 14.1588 17.7606 10.4514 10.599 7.85489 7.20577 29.0261 5.55351 6227.89 330.529 16.6753 13.1828 7.46246 9.2281 23.4725 20.9728 15.2441 12.5905 9.59771 8.8406 4919 5.21298 6.4974 688.166 124.622 6.537 51.4617 5.72033 10.2382 5.10602 5.72879 49.169 27.4599 14.4802 12.9798 6.73769 22.1948 313.854 11.7347 6.16231 563.544 4.99448 118.085 72.8155 4.99388 21.7091 5897.37 58.5371
internal_count=53540 33822 30055 29937 3526 317 198 3209 292 74 178 84 119 78 58 74 43 43 32 30 118 23 26411 1399 68 54 30 37 95 85 62 51 39 37 19718 21 26 2917 527 27 218 24 41 21 23 197 110 58 52 27 94 1331 47 26 2390 20 500 308 20 87 25012 248
is_linear=0
shrinkage=0.05


Tree=4
num_leaves=63
num_cat=0
split_feature=2 0 0 3 0 1 0 0 1 3 2 0 1 0 2 0 2 2 0 2 1 1 0 3 0 3 3 0 0 3 2 2 0 1 1 2 2 1 0 3 2 3 1 1 2 0 0 0 0 3 0 0 2 3 2 0 3 0 0 0 0 2
split_gain=26468.5 9301.91 77.7677 23.387 132.017 49.7299 32.7062 10.9811 31.4544 21.8921 10.1118 11.7602 7.34661 8.57804 10.075 6.72318 8.43839 6.57096 9.19587 3.60509 3.58363 5.88158 3.45761 2.94394 2.89861 53.8213 11.0084 17.99 2.61124 2.20785 2.08971 2.38157 1.31195 1.29416 2.32908 1.14553 0.986718 0.849464 4.9069 4.28283 0.836081 0.709814 0.631173 0.507784 0.475921 0.460205 1.11298 0.851674 0.506371 0.324916 0.300502 0.274038 0.258533 0.211699 0.20755 0.181112 0.154353 0.546438 0.141265 0.117591 0.0548181 1.12168
threshold=3.6676913681716541 40.275000000000013 39.965000000000011 0.56195616883116895 24.625000000000004 0.6309831857270648 32.785000000000004 17.815000000000005 0.55832653994895087 0.67191836734693899 0.62502477209671037 29.995000000000005 0.30632064547309651 32.345000000000006 0.64150050435960171 29.995000000000005 0.52548837089038003 0.56661109946905952 28.105000000000004 0.50375939849624074 3.9304817411408743 5.8154154904377284 20.775000000000006 0.71189041095890426 35.815000000000005 0.50394102990033229 0.53336477987421393 37.965000000000011 36.655000000000008 0.47070714642678663 2.5531355343065889 2.3601075268817207 19.985000000000003 1.1751504607733894 1.889443856422949 3.6857046809773499 0.38252595726308669 0.80991787844400231 10.855000000000002 0.75060000000000016 2.0308498190129378 0.62639610389610401 1.6902644233825448 5.0983110875373763 0.41749456890407793 30.475000000000005 24.225000000000005 25.865000000000006 29.035000000000004 0.51528594771241842 31.775000000000006 20.435000000000006 0.96502649885876279 0.88994444444444454 0.52548837089038003 34.25500000000001 0.88994444444444454 -1.0000000180025095e-35 34.25500000000001 15.565000000000003 35.25500000000001 0.88366760154118873
decision_type=2 2 2 2 2 2 2 2 2 2 2 2 2 2 2 2 2 2 2 2 2 2 2 2 2 2 2 2 2 2 2 2 2 2 2 2 2 2 2 2 2 2 2 2 2 2 2 2 2 2 2 2 2 2 2 2 2 2 2 2 2 2
left_child=1 2 3 24 7 12 10 37 9 -9 11 17 41 14 15 16 -14 18 19 -7 29 -22 -11 44 60 52 27 -27 -28 30 31 33 -25 -4 -35 43 -24 38 56 -40 -36 -6 -32 59 -10 46 51 -48 -49 -29 -12 -45 -26 -39 -21 -8 -5 -58 -15 -2 -1 -62
right_child=35 -3 20 4 5 6 55 8 23 22 50 -13 13 58 -16 -17 -18 -19 -20 54 21 -23 36 32 25 26 28 49 -30 -31 42 -33 -34 34 40 -37 -38 53 39 -41 -42 -43 -44 45 -46 -47 47 48 -50 -51 -52 -53 -54 -55 -56 -57 57 -59 -60 -61 61 -63
leaf_value=-0.078357868021287219 0.082501533223127657 0.091427865979568049 0.036362620546886756 -0.078357868021287219 0.064978771371504013 0.0018084727497111666 0.073419658172583585 -0.078693368349268544 -0.061087170878729571 0.007544689173056689 -0.078357868021287205 0.07456849486349966 0.054050336525952918 0.07456849486349966 -0.078699100201400224 0.092049531701552681 -0.046837311142584187 -0.078357868021287219 0.062307999447593403 -0.059241255755267563 -0.078357868021287219 0.025551662696620122 0.094961699203718802 -0.063179215362711441 -0.063727776409532935 -0.082750501489229744 0.03826767021192666 0.037333515952872202 0.10302006290496153 0.058063099763541064 0.016687054400564876 -0.044636683238789124 -0.015106010331874359 -0.032609790073822593 -0.00090290087409037191 0.091427865979568049 0.055628724354206731 -0.078357868021287219 -0.078357868021287219 0.003802845514982531 0.036692604999070816 0.091427865979568035 0.049898794190853898 0.077349918583843935 -0.078521551185278857 0.09184801155879814 0.042993623124332983 0.091262846463964181 0.0600851540580618 0.062872646075123925 -0.059449111159957824 0.091954090488533161 -0.078357868021287219 -0.066426619562681408 -0.079851213515470851 0.092507095218178653 -0.078357868021287219 -0.06950919654015876 0.091427865979568021 0.091427865979568049 -0.046184047706905103 -0.078400937004942065
leaf_weight=5718.7239645719528 4.7237970530986813 933.47138480842113 2.9973059892654517 44.338354110717773 4.7441048324108142 2.7174590528011375 2.4877468049526206 4.3999303281307212 4.2864697426557532 2.4859291315078718 19.398029923439029 2.491959035396575 4.215107128024103 2.491959035396575 2.780225157737731 2.9757905304431906 4.0777189880609512 7.1587967574596396 2.7495066225528717 2.3385579586029053 3.0020760595798484 2.4925059080123901 3.4893981218338013 2.8204331845045081 3.0499440282583228 5.2192995101213473 3.6454758197069159 2.4941407144069672 2.7176295071840286 2.4990403652191153 2.73452204465866 2.6291771084070197 2.8567050248384476 3.6639465987682325 2.9228214025497437 4837.349323824048 2.9361627995967865 548.22527426481247 2.77114713191986 3.7092201411724091 2.9933114349842072 5.4516513049602509 2.9999969601631165 5.9762663841247612 45.092544406652451 5.7042316347360602 3.4988711476325971 2.4770864844322205 2.7460822612047195 2.487359493970871 2.3564165830612174 6.944991335272789 304.36432665586472 3.7431924343109122 2.5574057400226593 2.4833507388830185 41.105349123477936 30.313867032527924 2.4780233204364777 16.850558578968048 2.8425976037979117 54.522046625614166
leaf_count=24764 19 3767 12 192 19 11 10 19 18 10 84 10 17 10 12 12 17 31 11 10 13 10 14 12 13 22 15 10 11 10 11 11 12 15 12 19521 12 2374 12 15 12 22 12 24 195 23 14 10 11 10 10 28 1318 16 11 10 178 130 10 68 12 236
internal_value=-7.89196e-05 -0.056766 -0.0766773 -0.0770194 -0.0690835 -0.00629733 -0.0382836 -0.0755055 -0.0564116 0.012561 -0.052713 -0.0270638 0.0448762 0.0265179 0.00654556 0.0275774 0.00444222 -0.0415181 -0.0160688 -0.0443738 0.00512277 -0.0312214 0.0576166 -0.0730878 -0.0780843 -0.0734822 0.0143128 -0.0178807 0.0659229 0.0136422 0.00834113 -0.0013583 -0.038989 0.00768862 -0.00128257 0.0913509 0.0769885 -0.0774418 -0.0736704 -0.0313309 0.0181188 0.0791211 0.0340617 0.0837382 -0.0770081 0.0792137 0.0758839 0.0620834 0.0748712 0.0500857 -0.0763097 0.0851995 -0.0782127 -0.078277 -0.0700069 0.0829549 -0.0760406 -0.0746021 0.0829745 0.0894734 -0.0783424 -0.0768045
internal_weight=12767.3 7881 6947.53 6918.59 818.528 75.9538 46.7392 742.574 68.3676 13.3114 41.7681 20.0137 29.2146 19.0188 14.0488 11.2686 8.29283 17.5217 10.3629 7.61342 28.9347 5.49458 8.91149 55.0562 6100.07 323.978 16.5639 10.2008 6.36311 23.4401 20.9411 15.2066 5.67714 12.5774 9.58008 4886.27 6.42556 674.206 122.238 6.48037 5.91613 10.1958 5.73452 48.9219 49.379 27.3475 21.6433 8.72204 5.22317 4.9815 21.7544 12.9213 307.414 551.968 4.89596 4.9711 115.758 71.4192 4.96998 21.5744 5776.09 57.3646
internal_count=53540 33822 30055 29937 3526 317 198 3209 292 55 178 84 119 78 58 46 34 74 43 32 118 23 36 237 26411 1399 68 42 26 95 85 62 24 51 39 19718 26 2917 527 27 24 41 23 197 213 110 87 35 21 20 94 52 1331 2390 21 20 500 308 20 87 25012 248
is_linear=0
shrinkage=0.05


Tree=5
num_leaves=63
num_cat=0
split_feature=2 0 0 3 0 1 0 0 2 1 2 0 1 0 2 2 0 0 2 2 1 1 0 3 3 0 0 0 3 2 2 0 1 2 2 0 3 1 0 3 2 1 2 1 1 0 0 3 0 0 3 2 2 0 3 3 3 0 0 0 0 2
split_gain=24262.3 8573.98 73.0782 22.1399 123.078 45.5086 29.9801 10.4248 29.3317 21.4698 9.46687 10.739 6.66502 7.80492 9.26142 6.15207 8.5213 6.14461 7.86625 4.09664 3.26286 5.44407 2.7573 50.2826 9.94186 16.4862 2.36516 2.12742 1.99705 1.88487 2.16912 1.34776 1.16667 2.1398 1.09603 0.875792 0.873716 0.829116 4.66554 3.99089 0.80056 0.733694 0.674342 0.571673 0.482634 0.470948 2.98586 0.411605 0.833576 0.294347 0.290994 0.254203 0.24759 0.221167 0.20856 0.189289 0.152593 0.538655 0.135185 0.11337 0.0540058 1.08579
threshold=3.6676913681716541 40.275000000000013 39.965000000000011 0.56195616883116895 24.625000000000004 0.6309831857270648 32.785000000000004 17.815000000000005 0.41749456890407793 0.69669043104325423 0.62502477209671037 29.995000000000005 0.30632064547309651 32.345000000000006 0.64150050435960171 0.56661109946905952 27.815000000000005 29.995000000000005 0.4769351505350487 0.50375939849624074 3.9304817411408743 5.8154154904377284 35.815000000000005 0.50394102990033229 0.53336477987421393 37.965000000000011 36.655000000000008 20.775000000000006 0.47070714642678663 2.5531355343065889 2.3601075268817207 21.345000000000006 1.1751504607733894 1.8335734870317004 3.6857046809773499 21.975000000000005 0.63462912087912093 0.80991787844400231 10.855000000000002 0.75060000000000016 0.4498936538556661 2.3578512504691287 0.56661109946905952 1.6902644233825448 5.0983110875373763 24.375000000000004 22.805000000000003 0.18762531328320806 32.155000000000008 31.775000000000006 0.51528594771241842 0.96502649885876279 0.34545027248821764 20.435000000000006 0.88994444444444454 0.57918333333333349 0.88994444444444454 -1.0000000180025095e-35 34.25500000000001 15.565000000000003 35.25500000000001 0.88366760154118873
decision_type=2 2 2 2 2 2 2 2 2 2 2 2 2 2 2 2 2 2 2 2 2 2 2 2 2 2 2 2 2 2 2 2 2 2 2 2 2 2 2 2 2 2 2 2 2 2 2 2 2 2 2 2 2 2 2 2 2 2 2 2 2 2
left_child=1 2 3 22 7 12 10 37 9 27 11 15 42 14 17 16 19 18 -14 -7 28 -22 60 51 25 -25 -26 -9 29 30 32 52 -4 -34 44 -29 -20 38 56 -40 -10 -35 -6 -31 59 46 53 -47 -49 -12 -27 -24 -11 -46 -39 -8 -5 -58 -15 -2 -1 -62
right_child=34 -3 20 4 5 6 55 8 40 31 49 -13 13 58 -16 -17 -18 -19 36 -21 21 -23 23 24 26 50 -28 35 -30 43 -32 -33 33 41 -36 -37 -38 54 39 -41 -42 -43 -44 -45 45 47 -48 48 -50 -51 -52 -53 -54 -55 -56 -57 57 -59 -60 -61 61 -63
leaf_value=-0.076220634410828769 0.079006484479433994 0.08780818902304649 0.034517472739849488 -0.076220634410828769 0.087808189023046462 0.0017177034932678551 0.069671487950375005 0.01663071716899181 -0.053353577731015227 -0.056637260772570364 -0.076220634410828755 0.071248417060145383 0.073679155066506935 0.071248417060145383 -0.076527090013003007 -0.076220634410828769 0.051658765636565809 0.088355607197295224 -0.047916149856984003 -0.076670042837708702 -0.076220634410828769 0.024243269518869966 -0.061591030958415109 -0.080177074761162495 0.036317162402940369 0.035516913822197009 0.09794334988121399 0.090825362931398312 0.055271720112472458 0.015833463553126384 -0.042834652108574095 -0.02656489468388459 -0.027114057945128507 0.0023777018964697139 0.08780818902304649 0.053518005884015056 -0.0079033134376688893 -0.076220634410828769 -0.076220634410828769 0.0036112456220528523 -0.076393539747487402 0.039922938896977234 0.061941380064966294 0.047436343013350951 0.073962032698941693 0.092063966169839306 0.022618915518531516 0.051161121493544848 0.08779231233355056 -0.057356755730297207 0.059690684572922995 -0.076220634410828769 -0.077547896600955873 0.087788302842265797 -0.064271759399058853 0.089263472038437625 -0.076220634410828769 -0.067343331530600528 0.087808189023046476 0.08780818902304649 -0.044376479531506113 -0.076259326231021579
leaf_weight=5588.4175834655762 4.6870200634002712 923.59478464722633 2.9995828270912268 43.32806396484375 5.3939700722694415 2.7179916054010445 2.4680992513895026 2.7344738245010394 4.1132452338933936 2.3073572963476163 18.956027984619144 2.4780122935771933 2.7292032390832919 2.4780122935771933 2.7177559733390799 6.9956769943237296 3.2402122467756271 2.9459163695573798 3.0612210929393768 4.3094069957733154 2.933670997619628 2.4955889582633972 2.99925673007965 5.1199810951948184 3.6490960866212836 2.4907071739435196 2.7155614048242569 2.7211070954799652 2.4940980970859519 2.7377580106258383 2.6034565716981879 2.6402882933616638 4.3501300960779172 2.7135608941316605 4786.167717307806 3.7286084443330765 2.4611946642398834 535.73345756530762 2.7080039978027335 3.7106781452894211 45.213426738977432 2.4999985098838806 4.7282743453979492 2.9979788661003113 5.9384261369705218 6.1883669048547727 2.7361123710870734 2.4754655659198761 4.1678243428468704 2.3211580514907828 2.488894909620285 297.42910575866699 3.6627289056777954 5.6387378871440887 3.6769411563873282 2.4632739871740341 40.168725967407227 29.73895937204361 2.4518045783042908 16.672271132469177 2.8112690448760977 53.281891524791718
leaf_count=24764 19 3767 12 192 22 11 10 11 18 10 84 10 11 10 12 31 13 12 13 19 13 10 13 22 15 10 11 11 10 11 11 11 18 11 19521 15 10 2374 12 15 200 10 19 12 24 25 11 10 17 10 10 1318 16 23 16 10 178 130 10 68 12 236
internal_value=-8.96708e-05 -0.0551247 -0.074563 -0.0749016 -0.0670973 -0.00608051 -0.0370218 -0.0733921 -0.05462 0.000410866 -0.0510254 -0.0260879 0.0430005 0.0254231 0.00627067 -0.0400598 -0.0154221 0.0263665 0.00423576 -0.046352 0.00487892 -0.0300419 -0.0759504 -0.071412 0.013667 -0.0171769 0.0626108 0.0535888 0.0129824 0.00793643 -0.00129695 -0.0563109 0.00731081 -0.00122237 0.0877324 0.0692578 -0.0300835 -0.0753039 -0.0715385 -0.0300694 -0.0744723 0.0203813 0.0757254 0.0323518 0.0802541 0.0758299 0.0695942 0.0827856 0.0741426 -0.0741627 0.0475994 -0.0760746 -0.0694662 0.0806962 -0.0761392 0.0794579 -0.0738892 -0.0724442 0.0794843 0.0858768 -0.0762051 -0.0746614
internal_weight=12549.6 7714.93 6791.33 6762.51 801.103 74.9172 45.9499 726.186 67.1212 17.7946 41.0185 19.7413 28.9674 18.8451 13.9153 17.2633 10.2676 11.1975 8.25162 7.0274 28.8258 5.42926 5961.4 316.893 16.4642 10.0996 6.36466 9.18419 23.3966 20.9025 15.1667 8.61037 12.5633 9.56369 4834.67 6.44972 5.52242 659.065 119.654 6.41868 49.3267 5.21356 10.1222 5.73574 48.5042 27.1449 14.3133 12.8317 6.64329 21.2772 4.9796 300.428 5.97009 11.5772 539.41 4.93137 113.236 69.9077 4.92982 21.3593 5644.51 56.0932
internal_count=53540 33822 30055 29937 3526 317 198 3209 292 74 178 84 119 78 58 74 43 46 34 30 118 23 26411 1399 68 42 26 37 95 85 62 37 51 39 19718 26 23 2917 527 27 218 21 41 23 197 110 58 52 27 94 20 1331 26 47 2390 20 500 308 20 87 25012 248
is_linear=0
shrinkage=0.05


Tree=6
num_leaves=63
num_cat=0
split_feature=2 0 0 3 0 0 1 3 1 0 2 3 0 0 2 0 1 1 3 0 1 0 3 3 2 2 3 0 3 3 0 1 2 1 1 0 0 1 3 0 0 2 1 1 0 0 0 0 1 2 0 2 0 3 2 0 3 3 0 0 0 0
split_gain=22309.5 7922.84 68.8966 21.0154 119.325 27.8377 51.4963 30.874 18.3434 14.756 11.446 7.74358 12.1431 7.0434 3.91422 14.6402 2.97408 5.05071 2.73389 2.59348 1.89697 8.37187 13.6792 1.80984 1.70134 1.97673 1.6407 1.62965 35.9451 8.0125 12.3086 1.50998 1.06479 1.05244 2.01752 1.00581 0.797849 0.772883 1.20856 0.767873 0.661179 0.644324 0.519138 0.465491 0.442975 1.06886 0.761906 0.477837 0.37508 0.304256 0.298814 0.272491 0.269133 0.262272 0.251439 0.226392 0.207741 0.152631 0.535317 0.127312 0.110807 0.0602861
threshold=3.6676913681716541 40.275000000000013 39.965000000000011 0.54758098223615481 29.325000000000003 20.775000000000006 0.55832653994895087 0.64587121212121235 0.6309831857270648 34.75500000000001 0.62502477209671037 0.63462912087912093 25.865000000000006 32.785000000000004 0.64150050435960171 32.345000000000006 3.9304817411408743 5.8154154904377284 0.69018518518518535 29.995000000000005 0.80991787844400231 10.855000000000002 0.75060000000000016 0.47070714642678663 2.5531355343065889 2.3601075268817207 0.62639610389610401 36.345000000000006 0.50394102990033229 0.53336477987421393 37.965000000000011 1.3470994199898838 3.6857046809773499 1.1751504607733894 1.889443856422949 16.275000000000002 30.475000000000005 0.30632064547309651 0.69018518518518535 22.195000000000004 34.995000000000012 2.0308498190129378 1.6902644233825448 5.0983110875373763 30.475000000000005 24.225000000000005 25.865000000000006 29.035000000000004 0.6309831857270648 0.65951245641996881 29.035000000000004 0.4498936538556661 20.435000000000006 0.51528594771241842 0.96502649885876279 27.225000000000005 0.88994444444444454 0.88994444444444454 -1.0000000180025095e-35 24.375000000000004 15.565000000000003 25.105000000000004
decision_type=2 2 2 2 2 2 2 2 2 2 2 2 2 2 2 2 2 2 2 2 2 2 2 2 2 2 2 2 2 2 2 2 2 2 2 2 2 2 2 2 2 2 2 2 2 2 2 2 2 2 2 2 2 2 2 2 2 2 2 2 2 2
left_child=1 2 3 27 5 20 7 26 14 10 19 50 18 49 36 -16 23 -18 51 -10 21 57 48 24 25 33 -7 -1 54 30 -30 -11 43 -4 -35 -24 -6 59 -39 -20 -17 -36 -26 60 45 52 -47 -48 -23 -12 -8 -13 -45 -32 -29 -14 -22 -5 -59 -9 -2 -53
right_child=32 -3 16 4 8 6 11 37 9 31 13 12 55 -15 15 40 17 -19 39 -21 56 22 35 -25 42 -27 -28 28 29 -31 53 -33 -34 34 41 -37 -38 38 -40 -41 -42 -43 -44 44 -46 46 47 -49 -50 -51 -52 61 -54 -55 -56 -57 -58 58 -60 -61 -62 -63
leaf_value=-0.074300024041093302 0.075878559244583199 0.084629903141267351 0.032787841163580876 -0.074296346475917902 0.055951039410598348 -0.077147976512544791 -0.074855353637821295 0.073102813451667456 -0.0022164178823052558 0.039779983310694655 -0.055681007223313088 -0.058481407396930057 0.018413426951636575 0.003648397789471982 -0.078570769940617805 0.053112988035368139 -0.074296346475917902 0.023010482264339951 -0.048215738118673766 0.069890180521667247 -0.074306477579886926 -0.079043717766655766 0.010164237836686929 0.052693846451853571 0.015026442203910662 -0.041126052616827773 -0.027128200033282004 -0.059600462808203684 -0.079826750009177799 0.098570881370315236 0.033808669333742283 0.095871470850332097 0.084629903141267351 -0.030477504923503124 0.00012188192342289367 0.054177604002109005 0.087564447642501153 0.03228748811354433 0.075857435666534079 -0.010629571265512769 0.087750546378828329 0.033152577218026509 0.045147311081893765 0.07090361209707105 0.085322472076929654 0.037871664778313163 0.084351159787211916 0.053785727555684795 -0.055954995122879853 -0.074988790249349277 -0.056202319650573762 -0.074616547621208396 0.08551039806932989 0.056776673047362225 -0.074296346475917902 0.039691286051198843 -0.062273123837440304 -0.074296346475917902 -0.065346288742850117 0.087361995142030954 0.084629903141267351 -0.083700853235118708
leaf_weight=5438.3324958384037 4.6374510526657131 910.68718847632408 2.9999104142189124 42.474997714161873 2.9094349592924136 4.4705078899860409 50.567872926592827 2.4447100311517698 2.3155292570591035 2.389963597059249 2.6492633521556845 2.464072570204741 2.3704746514558783 4.4263970255851737 2.2351342588663092 2.4303078353404999 2.8610102087259284 2.4977651238441467 2.8034311383962622 2.7023673206567764 635.88674888014793 5.207800939679144 2.474692314863205 2.485516518354415 2.7404806017875663 2.5767246931791297 2.5887413322925568 2.9458184838294974 3.25088222324848 2.4667549282312384 2.4858477115631104 2.409407451748848 4719.2791627943516 3.634302690625189 2.9119035601615906 2.7299792170524597 6.3556037396192551 2.6744528114795685 3.9309857785701752 2.6370789259672165 3.1810602843761444 2.9949262738227844 2.9926078319549561 5.8861470222473198 5.5777713358402243 3.4864925146102888 2.4139556288719177 2.7188383191823959 2.6561269015073776 8.8780860006809217 2.2422559559345236 6.1869027614593488 6.7928427904844284 2.4858639389276505 243.40594545006752 2.6449461728334427 3.6069853305816642 39.173832088708878 29.130881875753403 4.3521115481853485 16.439269661903381 2.5911986380815506
leaf_count=24710 19 3767 12 193 12 20 229 10 10 10 12 11 10 19 10 10 13 10 12 11 2889 23 10 10 11 11 11 13 14 10 10 10 19521 15 12 11 26 11 16 11 13 12 12 24 23 14 10 11 12 40 10 28 28 10 1106 11 16 178 130 18 68 11
internal_value=-9.84093e-05 -0.0536498 -0.0726573 -0.0729935 -0.0658989 -0.0699656 -0.0444368 0.0258217 0.0154981 -0.0111489 -0.0292483 -0.0637312 -0.0385842 -0.0499645 0.05563 0.0296444 0.00465032 -0.0289409 -0.0590932 0.0366163 -0.0731417 -0.0674778 -0.0296291 0.0123639 0.00755642 -0.00123894 -0.0588049 -0.0741161 -0.0702258 0.0195358 -0.00417448 0.0679393 0.0845546 0.0069564 -0.00116548 0.0332503 0.0776371 0.0703963 0.0582166 -0.0299973 0.0727489 0.0168694 0.0307492 0.0771415 0.072779 0.069494 0.0559088 0.0681607 -0.0712453 -0.0705514 -0.0740634 -0.0731739 0.0787293 0.0452927 -0.0741206 0.0296346 -0.0742386 -0.0719428 -0.0704793 0.0822332 0.0827044 -0.0772981
internal_weight=12303.2 7535.95 6625.26 6596.57 901.194 858.312 94.9697 20.4615 42.8826 25.771 20.9716 74.5082 21.6981 15.9537 17.1115 7.8465 28.6951 5.35878 16.6827 5.0179 763.342 123.848 13.0686 23.3364 20.8509 15.1178 7.05925 5695.37 257.041 10.6893 8.22259 4.79937 4767.23 12.541 9.54113 5.20467 9.26504 13.4023 6.60544 5.44051 5.61137 5.90683 5.73309 47.9528 26.876 21.2983 8.61929 5.13279 7.86393 11.5273 52.8101 11.2422 12.679 4.97171 246.352 5.01542 639.494 110.78 68.3047 6.79682 21.0767 8.7781
internal_count=53540 33822 30055 29937 4064 3881 419 86 183 112 92 333 94 71 71 33 118 23 73 21 3462 557 56 95 85 62 31 25873 1163 44 34 20 19718 51 39 21 38 55 27 23 23 24 23 197 110 87 35 21 35 52 239 50 52 20 1119 21 2905 501 308 28 87 39
is_linear=0
shrinkage=0.05


Tree=7
num_leaves=63
num_cat=0
split_feature=2 0 0 3 0 1 0 0 2 1 2 0 2 0 1 0 2 0 2 2 1 1 0 3 3 0 0 0 3 2 2 0 2 1 2 2 3 0 0 0 3 2 1 1 1 0 0 3 0 0 2 2 0 3 0 3 0 3 0 0 0 0
split_gain=20570.2 7337.23 65.1582 20.1192 108.504 38.2482 25.9675 9.46067 25.9667 18.134 8.43708 8.94841 5.67966 7.56207 5.52011 6.50505 7.8912 5.21743 6.7948 3.92688 2.7131 4.69557 2.5143 44.2612 8.73023 9.99949 2.33567 1.93726 1.64312 1.53678 1.80208 1.2213 1.04408 0.950082 1.83418 0.945039 0.796135 7.01627 0.792547 0.776481 0.704529 0.649567 0.584544 0.472474 0.452487 0.452181 2.75392 0.405607 0.78986 0.306314 0.253355 0.251342 0.210187 0.187699 0.178831 0.775714 0.146565 0.403947 0.239109 0.125528 0.109536 0.0516802
threshold=3.6676913681716541 40.275000000000013 39.965000000000011 0.56195616883116895 24.625000000000004 0.6309831857270648 32.785000000000004 17.815000000000005 0.41749456890407793 0.69669043104325423 0.62502477209671037 29.995000000000005 0.56661109946905952 27.815000000000005 0.30632064547309651 32.345000000000006 0.64150050435960171 29.995000000000005 0.4769351505350487 0.50375939849624074 3.9304817411408743 5.8154154904377284 35.815000000000005 0.50394102990033229 0.54275252525252538 36.965000000000011 38.355000000000011 22.935000000000006 0.47070714642678663 2.5531355343065889 2.3601075268817207 21.345000000000006 3.6857046809773499 1.1751504607733894 1.8335734870317004 0.34545027248821764 0.80050632911392416 8.6450000000000014 24.375000000000004 36.345000000000006 0.63462912087912093 0.56661109946905952 2.3578512504691287 1.6902644233825448 5.0983110875373763 24.375000000000004 22.805000000000003 0.18762531328320806 32.155000000000008 31.775000000000006 0.34545027248821764 0.96502649885876279 20.435000000000006 0.57918333333333349 16.275000000000002 0.75060000000000016 -1.0000000180025095e-35 0.88994444444444454 1.0000000180025095e-35 34.25500000000001 15.565000000000003 35.25500000000001
decision_type=2 2 2 2 2 2 2 2 2 2 2 2 2 2 2 2 2 2 2 2 2 2 2 2 2 2 2 2 2 2 2 2 2 2 2 2 2 2 2 2 2 2 2 2 2 2 2 2 2 2 2 2 2 2 2 2 2 2 2 2 2 2
left_child=1 2 3 22 7 14 10 36 9 27 11 12 13 19 41 16 17 18 -16 -7 28 -22 61 51 25 39 -27 35 29 30 33 50 44 -4 -35 -9 54 56 -10 -25 -20 -6 -36 -31 60 46 52 -47 -49 -12 -11 -24 -46 -8 -5 -56 -38 -58 -59 -17 -2 -1
right_child=32 -3 20 4 5 6 53 8 38 31 49 -13 -14 -15 15 59 -18 -19 40 -21 21 -23 23 24 -26 26 -28 -29 -30 43 -32 -33 -34 34 42 -37 37 -39 -40 -41 -42 -43 -44 -45 45 47 -48 48 -50 -51 -52 -53 -54 -55 55 -57 57 58 -60 -61 -62 -63
leaf_value=-0.072557488509463863 0.073057798515217098 0.081819766995667675 0.03116269933417214 -0.072584205110978059 0.082096132598464544 0.0036348989193479633 0.064972861568160623 0.04998806418155835 -0.072655702488236343 -0.052339771126542339 -0.072605949065323222 0.065425988198232712 -0.072934346181599524 0.049546344640794507 0.069008280932411251 0.065684616824287098 -0.072726767669621634 0.082513359686785526 -0.044399984707880868 -0.073815983271992194 -0.072556643546728652 0.021847464766939932 -0.057736775370465093 -0.075756550221707894 0.084248371411166076 0.0051736238454807432 0.06147651378222433 0.087565288188491838 0.050300889499451544 0.014262995259782085 -0.039501722660007045 -0.024295718989113774 0.081819766995667675 -0.025219948524376049 0.0027854927020525191 0.01091162835690334 -0.072556643546728652 0.00024675683680360882 -0.047581291695303063 -0.0376200956669673 -0.0082736810522771702 0.056444362331782509 0.036321380981187333 0.043010929103190515 0.068122082734679054 0.086216268696710341 0.018663560756727714 0.045738914553989679 0.081784882116942376 -0.05297225896614554 -0.073939878619800989 -0.072556629574464487 0.081775664738894638 0.084665914438506282 -0.072567760452291699 -0.040401299165792375 -0.072556533719640409 -0.062712096471988277 -0.074357642783499323 0.081836120417064104 0.081819766995667675 -0.070993375510165491
leaf_weight=5305.3782436996698 4.5771902203559902 895.25373423099518 2.9985669851303198 507.19536267220974 5.2371207177639025 2.7043133378028923 2.4257571101188651 4.1752225607633608 43.548685997724533 2.2177048772573453 18.010189279913906 2.4334497749805442 6.6801962852478018 3.2325283735990524 2.6933659315109271 2.4358444511890402 2.5781028270721427 2.8631172329187384 2.9860556274652481 4.1450008451938629 2.7850529700517646 2.4991534650325775 2.8902792036533347 2.8889404833316821 3.3726186007261267 3.9401652812957764 3.4591171145439148 2.4461240619421005 2.4738623201847068 2.7427501380443564 2.5492545515298835 2.6120008826255798 4639.301339507103 4.3141776323318464 2.7097480893135071 2.4582069665193558 38.562271893024445 3.66877257823944 3.397239923477172 2.4809420853853226 2.4624882191419601 4.6673023551702499 2.4965234100818634 2.9843925833702087 5.8217786550521868 6.0649739652872068 2.7172586768865576 2.4365207552909851 4.0391824990510941 2.2328514903783789 3.5001736581325531 282.36146101355553 5.4644233137369156 2.4141671508550644 9.8565646857023221 2.3143745958805075 32.777871280908585 26.524406254291538 5.2861927896738043 2.3767448961734772 16.160672664642334 53.342419445514679
leaf_count=24764 19 3767 12 2367 22 11 10 17 203 10 84 10 31 13 11 10 12 12 13 19 13 10 13 13 14 16 14 10 10 11 11 11 19521 18 11 10 180 16 15 11 10 19 10 12 24 25 11 10 17 10 16 1318 23 10 46 10 153 121 24 10 68 248
internal_value=-0.000105571 -0.0523166 -0.0709295 -0.0712645 -0.0636434 -0.00548857 -0.0345067 -0.0697558 -0.0515002 0.000654408 -0.0479204 -0.0241714 -0.0371788 -0.0134874 0.0399132 0.0237098 0.00601174 0.0244575 0.00404204 -0.0432361 0.00443414 -0.0279084 -0.072292 -0.0678485 0.0126992 -0.00619853 0.0314949 0.0495322 0.0117788 0.00719614 -0.00118359 -0.0526223 0.0817444 0.00661915 -0.0011111 0.0355072 -0.0716319 -0.0677008 -0.0708412 -0.0581371 -0.0280726 0.0700081 0.0188667 0.0292434 0.074352 0.0700286 0.0638529 0.0769247 0.0682224 -0.0704403 -0.0655622 -0.0724065 0.0747327 0.0747958 -0.0724405 -0.0664511 -0.0701175 -0.0686612 -0.0646473 0.0736612 0.0798859 -0.0725419
internal_weight=12033.6 7347.04 6451.79 6423.23 763.12 72.5786 44.2785 690.541 64.3554 17.4094 39.4385 19.1955 16.762 10.0818 28.3001 18.3957 13.5831 11.005 8.14191 6.84931 28.5535 5.28421 5660.11 301.394 16.1418 12.7692 7.39928 9.07955 23.2693 20.7954 15.0683 8.32988 4686.58 12.519 9.52045 6.63343 626.186 106.82 46.9459 5.36988 5.44854 9.90442 5.20627 5.72714 47.282 26.5441 14.0035 12.5407 6.4757 20.243 5.71788 285.252 11.2862 4.83992 519.366 12.1709 103.151 64.5885 31.8106 4.81259 20.7379 5358.72
internal_count=53540 33822 30055 29937 3526 317 198 3209 292 74 178 84 74 43 119 78 58 46 34 30 118 23 26411 1399 68 54 30 37 95 85 62 37 19718 51 39 27 2917 494 218 24 23 41 21 23 197 110 58 52 27 94 26 1331 47 20 2423 56 478 298 145 20 87 25012
is_linear=0
shrinkage=0.05


Tree=8
num_leaves=63
num_cat=0
split_feature=2 0 0 3 0 1 0 0 2 1 2 0 2 0 1 0 2 0 2 2 1 1 0 3 2 0 0 0 3 1 2 2 1 2 0 2 2 1 0 3 0 0 3 3 1 0 0 0 0 2 0 2 0 2 3 2 3 3 0 0 0 0
split_gain=19012.9 6808.5 61.7929 19.2188 101.722 35.2036 23.9341 9.05694 24.3941 16.5723 7.9531 8.21242 5.35133 6.91585 5.05178 5.97114 7.29792 4.82265 6.19831 3.04968 2.47711 4.37376 2.40769 41.7655 7.28511 10.3071 1.81194 1.56444 1.49381 1.42542 2.5616 2.14177 1.94572 1.25315 1.16925 1.03437 0.856492 0.806212 4.14613 3.33307 0.786325 0.729952 0.652567 0.633234 0.444121 0.437286 1.04551 0.696413 0.463902 0.357892 0.304534 0.290637 0.271627 0.247382 0.216608 0.187552 0.178926 0.155064 0.539199 0.124168 0.109298 0.0528094
threshold=3.6676913681716541 40.275000000000013 39.965000000000011 0.56195616883116895 24.625000000000004 0.6309831857270648 32.785000000000004 17.815000000000005 0.41749456890407793 0.69669043104325423 0.62502477209671037 29.995000000000005 0.56661109946905952 28.105000000000004 0.30632064547309651 32.345000000000006 0.64150050435960171 29.995000000000005 0.4769351505350487 0.50375939849624074 3.9304817411408743 5.8154154904377284 35.815000000000005 0.50753048780487819 0.79917143700876847 36.965000000000011 22.935000000000006 38.355000000000011 0.47070714642678663 1.4722492649065424 1.6672635377567067 1.8335734870317004 2.0532847215782604 0.95227765726681146 21.345000000000006 3.6857046809773499 0.34545027248821764 0.80991787844400231 10.855000000000002 0.75060000000000016 24.375000000000004 36.345000000000006 0.63462912087912093 0.62639610389610401 5.0983110875373763 30.475000000000005 24.225000000000005 25.865000000000006 29.035000000000004 2.5291312519285261 31.775000000000006 2.3601075268817207 20.435000000000006 0.34545027248821764 0.88994444444444454 0.52548837089038003 0.57918333333333349 0.88994444444444454 -1.0000000180025095e-35 34.25500000000001 15.565000000000003 35.25500000000001
decision_type=2 2 2 2 2 2 2 2 2 2 2 2 2 2 2 2 2 2 2 2 2 2 2 2 2 2 2 2 2 2 2 2 2 2 2 2 2 2 2 2 2 2 2 2 2 2 2 2 2 2 2 2 2 2 2 2 2 2 2 2 2 2
left_child=1 2 3 22 7 14 10 37 9 26 11 12 13 19 43 16 17 18 -16 -7 28 -22 61 33 -25 41 36 -27 29 30 -4 -31 -33 -24 53 44 -9 38 57 -40 -10 -26 -20 -6 60 46 52 -48 -49 -32 -12 -34 -46 -11 -39 -21 -8 -5 -59 -17 -2 -1
right_child=35 -3 20 4 5 6 56 8 40 34 50 -13 -14 -15 15 59 -18 -19 42 55 21 -23 23 24 25 27 -28 -29 -30 31 49 32 51 -35 -36 -37 -38 54 39 -41 -42 -43 -44 -45 45 -47 47 48 -50 -51 -52 -53 -54 -55 -56 -57 -58 58 -60 -61 -62 -63
leaf_value=-0.070978745116862738 0.070496228259951471 0.079319947058262272 0.025838223900989138 -0.070986134424597322 0.054068669724714802 0.0034515373099310437 0.062489403972068883 0.047606525375720743 -0.071068490101442935 -0.050658089964573931 -0.071022816313959458 0.062905686024863003 -0.071321731711082179 0.054898934228865416 0.06629976513594453 0.063144207087596674 -0.071132591694714017 0.07994082308160827 -0.042749242094928065 -0.053116786294554387 -0.070977973047425591 0.020749052918650961 -0.040425549346183427 0.081486453434025552 -0.074150011250797274 0.018324952058519313 0.084422730966348211 0.069160000270055866 0.048069290291405886 -0.018367024848133445 -0.045261233358630887 0.058110284455271256 0.021100350069779429 -0.070986363633946475 -0.023213351797123701 0.079319947058262272 0.010377009669374489 -0.070983476631432049 -0.071082488083878861 0.0035804928120159452 -0.045894477758502916 -0.036156198473071818 -0.0078680291306818095 0.079567230238840048 0.065575165884826064 0.080200790701895175 0.033427239813570458 0.078964426916015615 0.048413048633503687 -0.018723558251662761 -0.051258274766496172 -0.0017524077879060296 0.080457267557864559 -0.072234945739251682 -0.058406442149519101 -0.073473637520957105 0.081857396677598337 -0.070977973047425591 -0.06177011184457476 0.079334656052869129 0.079319947058262272 -0.069375710687900841
leaf_weight=5156.000042334199 4.5080778598785427 877.73607379198074 3.2069706171751111 39.980711981654167 4.6297084391117114 2.7055484503507667 2.3967869579792014 4.1651291400194186 42.326202899217606 2.1777821034193021 17.503894433379177 2.4051144719123831 6.4943854659795752 2.7253155559301376 2.6639664173126238 2.4078581482172003 2.5059168934822074 2.8088565170764914 2.9472899734973907 2.1896673291921616 2.7066349685192099 2.4998602271080017 3.395760476589202 3.314053699374198 2.608445540070532 3.4522676914930344 2.4111888408660889 2.6948966234922409 2.4596339464187613 3.1074217408895484 2.3964316248893738 3.6388511359691602 3.235359251499176 275.28283405303955 2.5974779278039932 4548.5229350924492 2.4556760489940643 494.32171824574471 2.5033408701419821 3.7101081758737564 3.3472810089588156 2.4530416876077652 2.4600387066602707 5.135942131280899 5.7473798990249687 5.3945428729057303 3.4568731486797315 2.3225867748260498 2.6719408333301544 2.7040135115385056 2.1931549161672583 2.4409360885620117 6.5721644312143326 3.4060327708721161 3.4472835063934317 2.3412463068962097 2.3731746971607208 37.060078799724579 27.844597265124321 2.3302712142467499 15.844452619552611 51.893674105405807
leaf_count=24764 19 3767 13 192 19 11 10 17 203 10 84 10 31 11 11 10 12 12 13 10 13 10 15 14 12 14 10 11 10 13 10 15 13 1322 11 19521 10 2374 12 15 15 11 10 22 24 23 14 10 11 11 10 10 28 16 16 11 10 178 130 10 68 248
internal_value=-0.000111469 -0.0511089 -0.0693605 -0.0696951 -0.062147 -0.00532697 -0.0335307 -0.068171 -0.050106 0.000620219 -0.0466011 -0.0233955 -0.0360086 -0.0129869 0.0384889 0.0228685 0.0057941 0.0235119 0.00387426 -0.0385533 0.0042305 -0.0269359 -0.0707146 -0.066306 0.0163594 -0.00289662 0.0473128 0.0406109 0.0112279 0.00685666 -0.00917635 0.0175785 0.0295695 -0.070614 -0.0509275 0.0792441 0.033798 -0.0700368 -0.0661857 -0.0265005 -0.0692236 -0.0557364 -0.0268802 0.0674788 0.0718261 0.0675173 0.0642232 0.0506794 0.0626202 -0.0311922 -0.0688221 0.0112731 0.0735144 -0.0638196 -0.0708964 -0.0636357 0.0721255 -0.0685366 -0.0670277 0.0711069 0.0773655 -0.0709628
internal_weight=11745.2 7150.2 6272.46 6244.07 742.973 71.2181 43.3283 671.755 62.8868 17.2133 38.5583 18.8613 16.4562 9.96178 27.8898 18.1242 13.3861 10.8802 8.0713 7.23646 28.3961 5.2065 5501.1 293.201 14.5227 11.2087 9.03199 6.14716 23.1896 20.73 8.30742 12.4226 9.31515 278.679 8.18129 4595.04 6.62081 608.868 111.099 6.21345 45.6735 5.06149 5.40733 9.76565 46.518 26.1655 20.7709 8.4514 4.99453 5.10045 19.697 5.6763 12.3195 5.58381 497.769 4.53091 4.76996 104.885 64.9047 4.73813 20.3525 5207.89
internal_count=53540 33822 30055 29937 3526 317 198 3209 292 74 178 84 74 43 119 78 58 46 34 32 118 23 26411 1399 62 48 37 25 95 85 34 51 38 1337 37 19718 27 2917 527 27 218 23 23 41 197 110 87 35 21 21 94 23 52 26 2390 21 20 500 308 20 87 25012
is_linear=0
shrinkage=0.05


Tree=9
num_leaves=63
num_cat=0
split_feature=2 0 0 3 0 1 0 0 2 1 2 0 1 0 2 0 2 2 0 3 0 3 3 0 1 1 0 0 3 2 2 2 0 2 0 0 1 1 2 1 0 3 3 1 0 0 3 0 1 0 1 3 0 3 3 0 0 0 0 2 1 0
split_gain=17611.8 6329.49 58.4488 18.3932 95.613 35.2514 22.8008 7.59652 22.7308 14.6684 6.90519 8.07048 5.81916 5.91049 6.34807 4.92702 6.22426 4.59092 7.26002 4.73039 2.314 39.2563 6.9755 12.8903 2.26095 4.08114 1.84943 1.71852 1.36134 1.389 1.63544 1.25863 1.12241 1.03199 1.02921 0.889346 0.833585 1.72943 1.05779 0.805797 3.99916 3.13297 0.776567 0.438565 0.442289 2.58274 0.404693 0.766453 0.397407 0.31064 0.252107 0.218268 0.20697 0.172362 0.157441 0.545347 0.123665 0.109906 0.0542423 1.10337 0.0201749 0.0200489
threshold=3.6676913681716541 39.965000000000011 40.275000000000013 0.56195616883116895 24.375000000000004 0.6309831857270648 32.785000000000004 17.815000000000005 0.41749456890407793 0.69669043104325423 0.62502477209671037 29.995000000000005 0.30632064547309651 32.345000000000006 0.64150050435960171 29.995000000000005 0.4769351505350487 0.56661109946905952 27.815000000000005 0.65953463203463214 35.815000000000005 0.50753048780487819 0.53336477987421393 37.965000000000011 3.9304817411408743 5.8154154904377284 36.655000000000008 20.775000000000006 0.47070714642678663 2.5531355343065889 2.3601075268817207 0.95227765726681146 21.345000000000006 3.6857046809773499 21.975000000000005 28.105000000000004 1.1751504607733894 2.268424914681344 1.8335734870317004 0.80991787844400231 10.855000000000002 0.75060000000000016 0.62639610389610401 5.0983110875373763 24.375000000000004 22.805000000000003 0.18762531328320806 32.155000000000008 1.6902644233825448 31.775000000000006 1.6499882629572737 0.88994444444444454 20.435000000000006 0.57918333333333349 0.88994444444444454 -1.0000000180025095e-35 34.25500000000001 15.565000000000003 35.25500000000001 0.88366760154118873 5.8635526450524269 36.655000000000008
decision_type=2 2 2 2 2 2 2 2 2 2 2 2 2 2 2 2 2 2 2 2 2 2 2 2 2 2 2 2 2 2 2 2 2 2 2 2 2 2 2 2 2 2 2 2 2 2 2 2 2 2 2 2 2 2 2 2 2 2 2 2 2 2
left_child=1 3 24 20 7 12 10 39 9 27 11 17 42 14 15 16 -14 18 19 -7 58 31 23 61 28 -26 -24 -9 29 30 36 -22 50 43 -29 -18 -3 38 -38 40 54 -42 -6 57 45 52 -46 -48 -31 -12 -11 -41 60 -8 -5 -56 -15 -2 -1 -60 -45 -23
right_child=33 2 -4 4 5 6 53 8 -10 32 49 -13 13 56 -16 -17 35 -19 -20 -21 21 22 26 -25 25 -27 -28 34 -30 48 -32 -33 -34 -35 -36 -37 37 -39 -40 51 41 -43 -44 44 46 -47 47 -49 -50 -51 -52 -53 -54 -55 55 -57 -58 -59 59 -61 -62 -63
leaf_value=-0.069541324608142815 0.068155025445688272 0.02895562572816204 0.077084130461674949 -0.069548070406457357 0.051852231631800687 -0.073358126640101648 0.060190184689115994 0.011524021705442186 -0.069623583175979983 -0.048771597004516484 -0.069735622558463231 0.060575100404934502 0.058300993584078468 0.060796323379361632 -0.069681598461339728 0.077642748363716874 -0.049377783029647869 -0.07004122517296181 0.045636519298350393 0.0099561283141295885 -0.038773546356636261 -0.070475294885991954 0.032331570590970159 0.051320342572214565 -0.069540614468538181 0.019710618209670034 0.087894607628327737 0.082781496149676934 0.045979502464793119 0.013783166981812653 -0.038177861471401557 -0.069548294303637612 -0.022179482627213518 0.077084130461674949 0.041015757249971731 -0.010239394651082137 -0.042962501139223508 0.022828719075625961 0.0016413717277524841 -0.069545646485115228 -0.069635989023037068 0.0034002017799430757 0.079715625977668403 0.059697856090760663 0.081555350563331963 0.01516559414859674 0.041003036242828257 0.077031560340293237 0.040181984467464765 -0.049629884201214107 -0.070817185433373106 -0.056777780538715496 0.077017044411733127 0.079358475823178939 -0.069540614468538181 -0.060155898601853178 0.077097434046845506 0.077084130461674949 -0.036404688928635409 -0.069630660938608133 0.065750318088822535 -0.077307108464613042
leaf_weight=5003.3170016109943 4.4317238032817867 2.9935609400272467 858.52028769254684 38.797042474150658 4.5873051136732119 4.880077421665197 2.3647398352622977 2.7446768730878848 41.076067999005318 2.1292038261890394 17.846366524696354 2.3735685646533957 3.0977514982223529 2.3765982538461676 2.4320655465126029 2.7489069104194632 2.8525641411542892 6.7341327071189871 3.2051890641450882 2.6175514459609985 3.3642329871654502 2.0547436326742154 3.485375076532363 3.9156450778245926 2.626482442021369 2.4999789893627167 2.6259980350732803 2.6231738328933716 2.4432700872421256 2.7434278428554526 2.524080663919448 267.1328093111515 2.5830047577619553 4448.9446604847908 3.3700592368841171 2.9550801962614059 2.6045756042003614 4.1629416793584824 2.7145510017871857 479.68563878536224 2.4294472634792319 3.7114521265029907 5.4973812252283096 2.3603145778179186 5.8922961056232435 2.6920699775218955 2.3856048583984375 3.8721543550491333 2.9679112434387207 2.1528903543949118 3.3172583729028702 3.3708123713731757 5.2379577308893204 2.3266797363758087 35.962605744600296 27.179145500063896 2.2792845517396927 15.497578859329222 2.636530637741088 47.776671946048737 3.3044404089450836 2.249635636806488
leaf_count=24764 19 12 3767 192 19 23 10 11 203 10 88 10 13 10 12 12 12 33 13 11 15 10 15 16 13 10 11 11 10 11 11 1322 11 19521 14 13 11 17 11 2374 12 15 24 10 25 11 10 17 12 10 16 16 23 10 178 130 10 68 12 236 14 10
internal_value=-0.000116371 -0.0500096 0.0747543 -0.0682646 -0.0607763 -0.00665759 -0.0345597 -0.0668912 -0.0495979 -0.000539606 -0.0468458 -0.0259229 0.0364159 0.0199372 0.00379466 0.019128 0.0010657 -0.0376973 -0.0173467 -0.0442717 -0.0692778 -0.0648929 0.0157507 -0.0143271 0.00402912 -0.0260162 0.0562065 0.0442904 0.0106813 0.00651716 -0.00147286 -0.0691655 -0.049325 0.0770074 0.0592962 -0.0294632 0.00595333 -0.00130867 -0.0201995 -0.0685834 -0.0646806 -0.0254942 0.0670412 0.0695299 0.0652191 0.0590236 0.0721514 0.0632966 0.0275014 -0.0675713 -0.0621988 -0.0694566 0.0698529 0.0696966 -0.0670413 -0.065501 0.0687765 0.0750985 -0.0695249 -0.067893 0.0632285 -0.0740459
internal_weight=11442.3 6947.67 886.801 6060.87 722.308 73.3281 44.5012 648.98 57.8434 16.7674 39.8098 19.8105 28.8269 18.7423 14.0864 11.6543 8.9054 17.437 10.7028 7.49763 5338.56 284.828 14.3314 8.22002 28.2808 5.12646 6.11137 8.73791 23.1543 20.711 14.9997 270.497 8.02947 4494.62 5.99323 5.80764 12.4756 9.48207 5.31913 591.136 108.08 6.1409 10.0847 45.6741 25.7448 13.5948 12.1501 6.25776 5.71134 19.9993 5.44646 483.056 10.9027 4.69142 101.939 63.1418 4.65588 19.9293 5053.73 50.4132 5.66475 4.30438
internal_count=53540 33822 3885 29937 3526 333 208 3193 276 73 188 90 125 82 62 50 38 80 47 34 26411 1399 62 36 118 23 26 36 95 85 62 1337 37 19718 25 25 51 39 22 2917 527 27 43 197 110 58 52 27 23 98 26 2390 47 20 500 308 20 87 25012 248 24 20
is_linear=0
shrinkage=0.05


Tree=10
num_leaves=63
num_cat=0
split_feature=2 0 0 3 0 0 3 1 0 3 0 0 2 3 0 1 2 2 1 1 3 1 0 3 0 0 3 3 0 3 2 1 3 2 1 2 3 0 0 1 1 0 0 0 0 2 3 0 3 1 3 3 0 3 0 3 0 0 0 3 2 0
split_gain=16345.8 5893.82 55.2054 17.659 92.7737 21.2772 40.7853 25.0307 14.7059 26.1322 8.95634 5.96937 9.9827 3.90651 9.5592 3.75029 2.88594 2.66347 2.06646 3.81425 2.03014 1.81534 7.1627 11.3112 1.66958 1.41198 28.4364 6.72989 9.60989 1.27177 2.98194 2.21488 2.06394 1.26138 1.19014 1.03657 0.893642 0.777312 0.569594 0.46108 0.435707 0.439228 1.03547 0.645382 0.459017 0.399226 0.387823 0.279132 0.221541 0.210218 0.208852 0.161084 0.553817 0.124288 0.111221 0.0940396 0.0839717 0.0765949 0.0370814 0.0203029 0.00549342 0.00445843
threshold=3.6676913681716541 39.965000000000011 40.275000000000013 0.54758098223615481 29.035000000000004 20.775000000000006 0.63462912087912093 0.69669043104325423 32.785000000000004 0.59189903846153868 25.865000000000006 30.315000000000005 0.56661109946905952 0.56195616883116895 35.25500000000001 0.30632064547309651 0.58570309668228915 0.4769351505350487 3.9304817411408743 5.8154154904377284 0.69018518518518535 0.80991787844400231 10.855000000000002 0.75060000000000016 23.515000000000004 36.345000000000006 0.50394102990033229 0.53336477987421393 37.965000000000011 0.38459166666666672 1.2264348844351614 1.4722492649065424 0.29040833333333338 0.62502477209671037 2.0532847215782604 3.6857046809773499 0.27778719397363472 16.275000000000002 33.595000000000006 0.6309831857270648 5.0983110875373763 30.475000000000005 24.225000000000005 25.865000000000006 29.035000000000004 2.0308498190129378 0.5001000000000001 20.435000000000006 0.88994444444444454 0.55832653994895087 0.51528594771241842 0.88994444444444454 -1.0000000180025095e-35 0.69018518518518535 15.565000000000003 0.62639610389610401 24.375000000000004 25.105000000000004 28.725000000000005 0.17010000000000003 0.69209355765891589 31.775000000000006
decision_type=2 2 2 2 2 2 2 2 2 2 2 2 2 2 2 2 2 2 2 2 2 2 2 2 2 2 2 2 2 2 2 2 2 2 2 2 2 2 2 2 2 2 2 2 2 2 2 2 2 2 2 2 2 2 2 2 2 2 2 2 2 2
left_child=1 3 18 25 5 21 55 15 9 49 20 12 -11 14 -10 56 -14 24 29 -20 57 22 51 39 -17 -1 46 28 -28 31 -31 36 34 -13 -33 40 -3 -25 -15 53 54 42 47 -44 -45 -34 -27 59 -23 -6 -30 -5 -53 -24 -2 58 -8 -9 -7 -42 -40 -51
right_child=35 2 -4 4 8 6 7 10 13 11 -12 33 16 38 -16 17 -18 -19 19 -21 -22 48 23 37 -26 26 27 -29 50 30 -32 32 45 -35 -36 -37 -38 -39 60 -41 41 -43 43 44 -46 -47 -48 -49 -50 61 -52 52 -54 -55 -56 -57 -58 -59 -60 -61 -62 -63
leaf_value=-0.068232112972787334 0.066002382191943501 -0.0053532309884805375 0.07507481287403088 -0.068234720676761063 -0.051222977360239258 -0.068353841804778104 0.066247600906341436 -0.068855832508306819 -0.069778991734439674 0.080695927742042428 0.033911094489909456 0.0783119037597097 0.0012158122906073265 0.053146811132514106 0.067115804367437082 0.014295015054045779 -0.075885035803621409 -0.011312419079364575 -0.068227915462745606 0.018728032788360938 -0.029946303617180915 -0.068242614421062997 -0.068160952705258612 0.010391574727453144 0.062944534487137868 -0.068236381415000449 -0.074853256346864669 0.090256878227065046 0.027857399565097554 0.0037139353674984507 0.072850481290769459 0.058541562121261971 -0.022519440607218073 0.035915221115312701 0.013323155433253728 0.07507481287403088 -0.046586717733758068 0.049059860349208395 0.07585665699777594 -0.048217065967513732 0.057484212345033397 0.076093400191678401 0.029504694381374597 0.074669030697828778 0.043715354246642461 0.0054110779009612303 -0.045571945018512743 0.076410885319658867 -0.055237179357713918 -0.068301202466405364 0.048540783471174541 -0.068227915462745606 -0.058638112830915648 -0.084495962652333445 0.07507481287403088 -0.077123456458788514 0.078039517625100627 -0.079105414742296376 -0.074648204336186297 0.063604151999032396 0.078867597757849295 -0.070686752862433075
leaf_weight=4838.2680697143078 4.3495374321937588 2.919119521975527 837.94362103939056 37.792794018983841 2.0120564848184612 43.571423649787903 2.3403040170669582 7.1422282904386538 2.0309455692768088 2.572753041982649 3.2155014574527732 5.0556167811155319 2.2196230590343475 3.7413802891969663 3.4270932972431183 3.0136997103691083 2.6780567318201065 3.3165503740310669 2.545224964618682 2.4995936453342438 4.2468228638172141 565.81333073973656 2.7362578958272916 2.4729064553976059 4.2514093369245529 217.36376202106476 3.0573834180831891 2.3967292159795761 2.4428721964359283 4.3785493075847617 2.4225501865148544 2.8960312604904157 2.404797151684761 2.6866897493600845 2.924704909324646 4342.3141561746597 2.3897606581449509 2.7392991334199905 2.46430604159832 2.394553929567337 2.3234257102012688 5.1729571670293799 3.4150312244892103 2.2122848033905029 2.6115120351314545 2.7338015884160995 1.9040198475122441 6.3050268888473511 3.2935588359832755 7.2573668956756574 2.439110279083252 34.850003361701965 26.505689918994904 2.027182474732399 15.126139163970945 3.5628692954778662 4.2540877163410187 2.4473293572664261 2.4726617336273184 3.2520485520362854 3.9319859892129898 2.6825528144836426
leaf_count=24710 19 12 3767 193 10 222 10 36 10 11 14 22 10 16 15 13 13 14 13 10 19 2889 14 10 18 1110 14 10 10 18 10 12 10 12 12 19521 10 11 11 12 10 23 14 10 11 11 9 28 16 37 10 178 130 9 68 17 19 11 12 14 17 13
internal_value=-0.000120483 -0.0490061 0.0727625 -0.0669563 -0.0600878 -0.0640967 -0.0403288 0.00165583 0.0115831 -0.0106343 -0.0412574 0.0328339 0.000948393 0.0502816 0.016177 0.0442588 -0.040943 0.025815 0.0038446 -0.0251432 -0.0587262 -0.0670243 -0.0611909 -0.0253162 0.0427638 -0.0680503 -0.0642192 0.0168259 -0.00534132 0.0101837 0.0283404 0.00259308 0.0154337 0.0635997 0.035821 0.0749968 -0.0239142 0.0307139 0.0686432 -0.0661153 0.0674274 0.0630989 0.0597579 0.0461366 0.0579113 -0.00766004 -0.0680396 0.0692039 -0.0681673 -0.0659616 0.0381911 -0.0656668 -0.0640851 -0.0751127 0.0730487 -0.0692974 0.0738546 -0.0714716 -0.0686919 0.0610538 0.0777076 -0.068945
internal_weight=11128.2 6741.15 866.058 5875.09 807.221 764.46 83.8349 34.2279 42.7604 27.1647 17.0519 15.2127 7.47043 15.5957 5.45804 17.1761 4.89768 10.5817 28.1141 5.04482 13.8364 680.626 111.519 12.3702 7.26511 5067.87 229.604 10.3361 7.93937 23.0693 6.8011 16.2682 10.9593 7.74231 5.82074 4387.08 5.30888 5.21221 10.1377 7.15799 44.768 25.2923 20.1193 8.23883 4.8238 5.1386 219.268 11.8805 569.107 11.952 4.88198 99.1485 61.3557 4.76344 19.4757 49.607 6.59439 9.58956 46.0441 5.57547 6.39629 9.93992
internal_count=53540 33822 3885 29937 4064 3867 405 154 197 128 80 68 34 69 25 74 23 45 118 23 66 3462 557 56 31 25873 1163 44 34 95 28 67 45 34 24 19718 22 21 44 35 197 110 87 35 21 21 1119 52 2905 60 20 501 308 23 87 251 29 47 234 24 28 50
is_linear=0
shrinkage=0.05


Tree=11
num_leaves=63
num_cat=0
split_feature=2 0 0 3 0 0 3 1 0 3 0 0 2 3 0 1 2 2 2 2 1 3 1 0 3 0 0 3 3 0 2 3 1 3 2 2 0 0 1 1 0 0 1 3 0 3 0 3 1 3 3 0 0 3 0 3 0 0 1 0 2 0
split_gain=15197.5 5495.93 52.5007 17.0128 87.1057 20.4096 38.4159 22.9513 13.5453 24.2444 8.30189 5.48931 9.10312 3.61739 8.79143 3.53226 2.72434 2.42786 2.03097 2.42655 2.15175 1.976 1.81115 6.91677 10.4657 1.54609 1.36209 26.8313 6.1622 8.86164 1.22786 1.06468 1.08259 1.64235 3.46215 1.04698 0.700705 0.553184 0.437591 0.435004 0.438441 3.46479 0.426588 0.407839 0.756065 0.389353 0.237247 0.225044 0.212855 0.191582 0.164903 0.56433 0.113139 0.101326 0.0891141 0.0796904 0.0625379 0.0317301 0.019364 0.00952875 0.00435037 0.00362726
threshold=3.6676913681716541 39.965000000000011 40.275000000000013 0.54758098223615481 29.035000000000004 20.775000000000006 0.63462912087912093 0.69669043104325423 32.785000000000004 0.59189903846153868 25.865000000000006 30.315000000000005 0.56661109946905952 0.56195616883116895 35.25500000000001 0.30632064547309651 0.58570309668228915 0.4769351505350487 3.1224187404455805 2.6509065456433878 3.2182244202984189 0.69018518518518535 0.80991787844400231 10.855000000000002 0.75060000000000016 23.515000000000004 36.345000000000006 0.50394102990033229 0.53336477987421393 37.965000000000011 0.62502477209671037 0.47070714642678663 1.889443856422949 0.37503623188405805 2.2511763016633903 3.6857046809773499 16.275000000000002 33.595000000000006 0.6309831857270648 5.0983110875373763 24.375000000000004 23.515000000000004 2.4367616672174708 0.18762531328320806 32.155000000000008 0.5001000000000001 20.435000000000006 0.88994444444444454 0.55832653994895087 0.51528594771241842 0.88994444444444454 -1.0000000180025095e-35 15.565000000000003 0.69018518518518535 24.375000000000004 0.62639610389610401 25.105000000000004 28.725000000000005 5.8635526450524269 27.375000000000004 0.69209355765891589 31.775000000000006
decision_type=2 2 2 2 2 2 2 2 2 2 2 2 2 2 2 2 2 2 2 2 2 2 2 2 2 2 2 2 2 2 2 2 2 2 2 2 2 2 2 2 2 2 2 2 2 2 2 2 2 2 2 2 2 2 2 2 2 2 2 2 2 2
left_child=1 3 18 26 5 22 55 15 9 48 21 12 -11 14 -10 54 -14 25 19 20 31 56 23 50 38 -17 -1 45 29 -29 -13 32 33 34 -3 39 -26 -15 53 52 41 46 -34 59 -45 -28 58 -24 -6 -31 -5 -52 -2 -25 -8 57 -9 -7 -41 -42 -39 -50
right_child=35 2 -4 4 8 6 7 10 13 11 -12 30 16 37 -16 17 -18 -19 -20 -21 -22 -23 47 24 36 -27 27 28 -30 49 -32 -33 42 -35 -36 -37 -38 60 -40 40 43 -43 -44 44 -46 -47 -48 -49 61 -51 51 -53 -54 -55 -56 -57 -58 -59 -60 -61 -62 -63
leaf_value=-0.067029613736385538 0.064012016711744724 -0.065176958921318889 0.0732612514037458 -0.067031991634257923 -0.049655569254497711 -0.067141934415508239 0.063781706406284042 -0.067603527958968179 -0.068445951791405932 0.077186656124359793 0.032053914028635132 0.076189466100365796 0.0011550344804658623 0.051223834854495436 0.064356574647279605 0.013602939681610469 -0.074250135853372798 -0.010768504799867266 0.04409498643212037 -0.036971440517181549 -0.028994205743340263 -0.028722512369029746 -0.067039264320662539 -0.066964343667887102 0.0098614545310974893 0.060561711525212891 -0.067033529099281397 -0.073087772522048067 0.086936423300346538 0.026565745471895316 0.034170029431178646 0.043857875173653436 0.038185965115172915 0.023121480376365858 0.015184968900674209 0.0732612514037458 0.046555522372778102 0.073973713220301995 -0.046854230242072942 0.05551483839264644 0.080036065555648156 -0.0024805232405920993 0.011735376115012696 0.036780451087144166 0.073193691998483065 -0.044114165176474804 0.073762827205252901 -0.053773959353409909 -0.06709297500795057 0.046426675436936599 -0.067025739249388747 -0.057204841217901592 0.0732612514037458 -0.081900532069856299 0.076033997187254648 -0.075329234160497832 -0.076984812728438129 -0.073049773195749929 0.061542020154442767 0.075921346030409786 0.076686056902486394 -0.069278295791751099
leaf_weight=4682.7551051676273 4.2627494782209423 2.3936883360147601 816.30048970878124 36.57814559340477 1.9727977663278604 42.175387471914291 2.3100134432315853 6.9165287464857119 1.9685567468404759 2.5556542575359327 3.2312910705804816 4.9395647197961807 2.2195990979671478 3.6890811473131162 3.3961087763309479 3.0088033825159055 2.6020993441343307 3.3100352436304092 2.7952829748392096 3.9210491329431525 3.6715873777866355 4.2074024379253379 547.63214783370495 2.6481297463178617 2.4754816442728043 4.1990785747766495 210.37804529070854 2.976718604564665 2.3646527379751205 2.4337989687919617 2.6828104257583618 2.4235896766185752 2.938264697790145 3.665077418088913 3.0453866273164749 4230.1571169644594 2.7422288209199905 2.4022526144981384 2.3423327207565308 2.2864311933517474 2.5557215213775617 2.1940599381923667 3.1676567792892456 2.3269703388214111 3.6799462288618088 1.8694799691438664 5.4460160136222839 3.2160019427537909 7.0245593637227994 2.4230773746967316 33.729724913835526 25.828574866056442 14.735448181629179 1.987845182418823 4.1506007611751556 3.4677564203739157 2.3904451578855515 2.4022153317928305 3.1944950819015503 3.1303696483373642 3.8438764661550522 2.6022712141275406
leaf_count=24710 19 10 3767 193 10 222 10 36 10 11 14 22 10 16 15 13 13 14 12 16 17 19 2889 14 10 18 1110 14 10 10 12 10 12 15 13 19521 11 11 12 10 11 9 13 10 17 9 25 16 37 10 178 130 68 9 19 17 11 12 14 14 17 13
internal_value=-0.000123961 -0.048086 0.0709512 -0.0657556 -0.0589107 -0.0628768 -0.0393155 0.00159025 0.011226 -0.010335 -0.0399435 0.0316429 0.000897326 0.0487106 0.0156249 0.0425544 -0.0395385 0.0246805 0.00365707 -0.000823791 0.00582887 -0.0571582 -0.0657995 -0.0598896 -0.0244183 0.0409596 -0.066848 -0.0630252 0.0161953 -0.00515863 0.0614001 0.0130796 0.0081753 -0.00274899 -0.0201816 0.0731816 0.0291465 0.0665758 -0.0644689 0.065492 0.0611326 0.0548584 0.0244638 0.068173 0.0590879 -0.0668317 0.0663717 -0.0669618 -0.0646176 0.0364743 -0.0643896 -0.0627667 0.0711859 -0.0733688 0.0716532 -0.0680283 -0.0700131 -0.0674603 0.0590277 0.0777708 0.0756429 -0.0676837
internal_weight=10806.3 6532.37 844.322 5688.05 782.849 740.95 81.7696 33.7242 41.8992 26.5994 16.7457 14.9997 7.37735 15.2999 5.36467 16.9785 4.8217 10.5179 28.0216 25.2263 21.3053 13.5144 659.181 108.332 12.196 7.20788 4905.2 222.446 10.1982 7.83359 7.62238 17.6337 15.2101 9.10415 5.43907 4273.97 5.21771 9.93521 6.97831 43.8122 24.814 13.121 6.10592 11.693 6.00692 212.248 10.9269 550.848 11.5996 4.85688 96.1364 59.5583 18.9982 4.63597 6.46061 48.0454 9.30697 44.5776 5.48093 5.68609 6.24613 9.62683
internal_count=53540 33822 3885 29937 4064 3867 405 154 197 128 80 68 34 69 25 74 23 45 118 106 90 66 3462 557 56 31 25873 1163 44 34 34 73 63 38 23 19718 21 44 35 197 110 58 25 52 27 1119 49 2905 60 20 501 308 87 23 29 251 47 234 24 25 28 50
is_linear=0
shrinkage=0.05


Tree=12
num_leaves=63
num_cat=0
split_feature=2 0 0 3 0 1 0 0 2 1 2 0 1 0 2 0 2 2 0 3 0 3 2 0 0 2 2 1 0 0 2 0 1 1 2 3 3 0 0 3 0 1 0 0 0 0 3 0 2 0 3 0 3 0 0 1 0 0 0 3 3 2
split_gain=14152.4 5131.6 50.1683 16.4208 80.3388 27.7462 18.0291 6.90762 19.8994 11.7316 6.02559 6.43285 4.56575 4.79254 5.16914 4.17656 4.68692 4.06284 5.9142 4.48327 2.06739 33.1524 6.14794 6.74859 1.92779 1.82894 2.19149 1.95183 1.29894 1.08627 1.05997 1.04904 0.994273 1.61944 2.24296 1.49908 0.854391 6.50307 0.812687 0.725016 0.708574 0.434804 0.445744 1.01807 0.593467 0.459084 0.392618 0.336331 0.286516 0.286437 0.192636 0.160576 0.432798 0.26332 0.143732 0.577558 0.115581 0.108007 0.0534688 1.39897 0.0195997 0.0147397
threshold=3.6676913681716541 39.965000000000011 40.275000000000013 0.56195616883116895 24.375000000000004 0.6309831857270648 32.785000000000004 17.815000000000005 0.41749456890407793 0.69669043104325423 0.62502477209671037 29.995000000000005 0.30632064547309651 32.345000000000006 0.64150050435960171 29.995000000000005 0.4769351505350487 0.56661109946905952 27.815000000000005 0.65953463203463214 35.815000000000005 0.50394102990033229 0.79917143700876847 36.965000000000011 38.355000000000011 3.1224187404455805 2.6509065456433878 3.2182244202984189 20.775000000000006 21.975000000000005 3.6857046809773499 21.345000000000006 0.99125071861593084 2.268424914681344 2.2511763016633903 0.39158947368421054 0.80050632911392416 8.6450000000000014 28.105000000000004 0.62639610389610401 36.345000000000006 5.0983110875373763 30.475000000000005 24.225000000000005 25.865000000000006 29.035000000000004 0.5001000000000001 31.775000000000006 0.34545027248821764 20.435000000000006 0.57918333333333349 -1.0000000180025095e-35 0.88994444444444454 1.0000000180025095e-35 16.275000000000002 0.90168150519880641 15.565000000000003 34.25500000000001 35.25500000000001 0.52006410256410274 0.17010000000000003 0.52548837089038003
decision_type=2 2 2 2 2 2 2 2 2 2 2 2 2 2 2 2 2 2 2 2 2 2 2 2 2 2 2 2 2 2 2 2 2 2 2 2 2 2 2 2 2 2 2 2 2 2 2 2 2 2 2 2 2 2 2 2 2 2 2 2 2 2
left_child=1 3 25 20 7 12 10 36 9 28 11 17 39 14 15 16 -14 18 19 61 58 46 -23 40 -25 26 27 32 -9 -30 41 48 -3 34 35 -34 54 51 -18 -6 -24 56 43 49 -45 -46 -22 -12 -11 60 -8 -38 -53 -54 -5 -56 -2 -15 -1 -60 -43 -7
right_child=30 2 -4 4 5 6 50 8 -10 31 47 -13 13 57 -16 -17 38 -19 -20 -21 21 22 23 24 -26 -27 -28 -29 29 -31 -32 -33 33 -35 -36 -37 37 -39 -40 -41 -42 42 -44 44 45 -47 -48 -49 -50 -51 -52 52 53 -55 55 -57 -58 -59 59 -61 -62 -63
leaf_value=-0.065922427205084025 0.062161985883006289 0.032457333067483128 0.07161803492208503 -0.065961802578302434 0.046074764701889329 -0.07260582156395505 0.053173954109887636 0.012198718552803519 -0.066088871225944673 -0.043159313760285208 -0.06619468404055566 0.055370171068790566 0.050970364408461616 0.055854222303847595 -0.066346525784888255 0.072913224624678155 -0.045622120131937879 -0.066508857689802137 0.041955537928365559 0.01251253342771467 -0.065927942265802453 0.074047213189586264 -0.069219718431154889 0.0011308289865361446 0.053129044255093308 0.041808178199029926 -0.035141998504666525 -0.027753448195473519 0.078630517356808607 0.034989534132668539 0.07161803492208503 -0.018572765434753762 -0.04450730222775677 0.031197684721556564 0.029722601602497425 0.0064659957623568525 -0.065921979207241715 0.0067042785051840293 -0.0077685588568157538 0.073730426193225215 -0.030784082296704197 0.05356511109630066 0.072742769765546611 0.026250183946621271 0.071194186896405331 0.039567465329876116 -0.042713384618359017 -0.044505892434553669 -0.06759093979254642 0.073016315250530206 0.074054915307476293 -0.065921374168674926 -0.054977735892175819 -0.067982409189560236 -0.03702735058381737 -0.065978430789017231 0.07161803492208503 0.071546617348630034 -0.066041619737477367 -0.022657569129005545 0.059683932080070924 -0.066896289581934387
leaf_weight=4536.623401299119 4.1724346727132824 4.5891559422016277 793.84736388921738 433.80037385225296 4.4266002625226992 2.5103590041399055 2.2326008677482596 2.7202024906873721 37.328957572579384 1.9701860398054112 16.23602153360844 2.2753921300172797 2.9989955574274081 2.2893271893262854 2.2277222722768775 2.5765825957059851 2.7791550755500793 6.1428226530551902 3.1492890864610672 2.5708322077989578 242.22040978074074 3.0562524050474158 2.5549311786890012 3.82408706843853 3.3386867642402649 2.8006187528371802 3.9189585149288169 3.6446442008018485 2.5349264889955521 3.2591969221830368 4113.8025990128517 2.5282494425773621 3.5926013737916929 4.1429436802864066 2.8660674393177032 2.4099436104297638 32.974562585353851 3.4609018564224234 2.8948579281568527 5.1004293411970139 2.259603351354599 2.2459151595830971 4.9270993024110785 3.3654803633689871 2.0907251089811325 2.543143555521965 1.8351329416036595 2.0085875689983359 3.0697314143180847 6.0020681619644165 2.1860015392303467 28.027829825878143 23.419269397854809 4.6683839410543433 2.1643624454736701 8.4417537450790388 14.330135583877562 2.1045112460851669 43.938955947756767 1.9402391761541355 3.1363852918148041 2.0563345700502396
leaf_count=24764 19 19 3767 2367 19 12 10 11 203 10 88 10 13 10 12 12 12 33 13 11 1322 14 13 16 14 12 16 17 11 14 19521 11 15 17 12 10 180 16 13 24 11 10 23 14 10 11 9 10 16 28 10 153 121 24 10 46 68 10 239 9 14 11
internal_value=-0.000126884 -0.0472405 0.0692994 -0.0646516 -0.0572476 -0.00610079 -0.0319478 -0.0632053 -0.0460568 0.000439537 -0.0433624 -0.0234212 0.0329254 0.0180226 0.00323843 0.0170181 0.000412784 -0.0343332 -0.0151194 -0.0403025 -0.0656596 -0.0613143 0.0107494 -0.00540237 0.0253681 0.00347907 -0.000786701 0.00555054 0.0407012 0.0540824 0.0715366 -0.0448556 0.0124469 0.00538928 -0.00666703 -0.0240422 -0.064911 -0.0605405 -0.0263094 0.0608806 -0.0511807 0.0637099 0.059314 0.0559006 0.0422306 0.0538369 -0.0657534 -0.0638069 -0.0580402 0.0655059 0.0635043 -0.0631528 -0.0615256 -0.0571392 -0.0658212 -0.0600705 0.0694856 0.0633704 -0.0659053 -0.0642069 0.0571307 -0.0700349
internal_weight=10479.2 6322.54 821.812 5500.73 659.135 68.7664 41.3682 590.369 53.4115 16.0825 36.9496 18.705 27.3982 17.8712 13.4773 11.2496 8.67301 16.4296 10.2868 7.13753 4841.59 259.089 15.0336 11.9773 7.16277 27.9649 25.1643 21.2454 8.51433 5.79412 4156.62 7.56817 17.6007 13.0116 8.86861 6.00254 536.957 92.5509 5.67401 9.52703 4.81453 42.8134 24.3108 19.3837 7.99935 4.63387 244.056 18.2446 5.03992 11.3844 4.4186 89.09 56.1155 28.0877 444.406 10.6061 18.5026 4.39384 4582.5 45.8792 5.3823 4.56669
internal_count=53540 33822 3885 29937 3526 333 208 3193 276 73 188 90 125 82 62 50 38 80 47 34 26411 1399 68 54 30 118 106 90 36 25 19718 37 73 54 37 25 2917 494 25 43 24 197 110 87 35 21 1331 98 26 52 20 478 298 145 2423 56 87 20 25012 248 24 23
is_linear=0
shrinkage=0.05


Tree=13
num_leaves=63
num_cat=0
split_feature=2 0 0 3 0 1 0 0 2 1 3 2 0 0 3 0 2 0 3 3 0 1 1 1 0 0 0 2 2 3 2 2 0 2 3 0 2 1 1 1 1 0 1 0 0 0 0 0 2 0 2 3 0 3 0 0 1 0 0 3 2 1
split_gain=13198.2 4797.14 48.0931 15.8644 75.989 23.6372 16.1475 7.55877 18.9895 11.1121 6.30448 3.67307 7.20794 3.58349 9.75108 2.93454 8.20933 2.00321 31.5428 5.26946 9.83228 1.65302 3.66872 1.61317 1.53731 1.4187 1.41374 1.36427 1.10457 1.08888 1.26979 1.07992 1.01187 0.909256 0.866798 6.23696 0.65344 1.89776 1.71139 1.15289 2.08372 0.643082 0.437369 0.440621 0.985615 0.567386 0.452062 0.333234 0.327539 0.286008 0.282851 0.18855 0.166308 0.446079 0.259648 0.150461 0.588866 0.118485 0.0549699 1.38146 0.0207687 0.018874
threshold=3.6676913681716541 39.965000000000011 40.275000000000013 0.56195616883116895 24.625000000000004 0.6309831857270648 32.785000000000004 17.815000000000005 0.41749456890407793 0.69669043104325423 0.65953463203463214 0.62502477209671037 28.895000000000003 32.345000000000006 0.60010204081632668 29.995000000000005 0.52548837089038003 35.815000000000005 0.50753048780487819 0.53336477987421393 37.965000000000011 3.9304817411408743 5.8154154904377284 0.45283171475867162 22.935000000000006 27.815000000000005 36.655000000000008 0.58570309668228915 0.95227765726681146 0.47070714642678663 2.9222204839382568 3.6857046809773499 21.345000000000006 0.34545027248821764 0.80050632911392416 8.6450000000000014 2.094348007348461 1.4722492649065424 2.0532847215782604 1.1751504607733894 2.0988716417929618 24.375000000000004 5.0983110875373763 30.475000000000005 24.225000000000005 25.865000000000006 29.035000000000004 31.775000000000006 0.69209355765891589 20.435000000000006 0.34545027248821764 0.57918333333333349 -1.0000000180025095e-35 0.88994444444444454 1.0000000180025095e-35 16.275000000000002 0.90168150519880641 15.565000000000003 35.25500000000001 0.52006410256410274 0.52548837089038003 5.8635526450524269
decision_type=2 2 2 2 2 2 2 2 2 2 2 2 2 2 2 2 2 2 2 2 2 2 2 2 2 2 2 2 2 2 2 2 2 2 2 2 2 2 2 2 2 2 2 2 2 2 2 2 2 2 2 2 2 2 2 2 2 2 2 2 2 2
left_child=1 3 21 17 7 13 10 34 9 24 11 12 25 14 -6 16 23 58 28 20 -20 29 -23 -16 33 60 -21 -14 -19 30 36 42 50 -9 55 52 39 -38 -39 -3 -41 -10 57 44 49 -46 -47 -13 -15 61 -11 -8 -36 -54 -55 -5 -57 -2 -1 -60 -7 -44
right_child=31 2 -4 4 5 6 51 8 41 32 -12 47 27 48 15 -17 -18 18 19 26 -22 22 -24 -25 -26 -27 -28 -29 -30 -31 -32 -33 -34 -35 35 -37 37 38 -40 40 -42 -43 43 -45 45 46 -48 -49 -50 -51 -52 -53 53 54 -56 56 -58 -59 59 -61 -62 -63
leaf_value=-0.064906630521613981 0.060433846318834285 0.036565415291908508 0.070123931255769878 -0.064943896112079277 -0.060217213877990443 -0.071055064352052749 0.051449741344498735 0.041920094021035914 -0.065061331608203363 -0.041859554315363319 0.041372352783309613 -0.065045416798822128 0.045614795535472812 0.074747113128438791 0.071417678872857993 0.073076553182434445 -0.030743261592435241 -0.035302872196789105 -0.068857807312448463 0.029043561070282387 0.044295003946514672 -0.066668534033531485 0.01960401265716738 0.02319808809944341 0.075621096189006462 -0.026415524130149012 0.079202124876154897 -0.0053019582386670981 -0.064911729925775971 0.040886568478555818 0.034167574455854208 0.070123931255769878 -0.017741234452405677 0.0029368865319031757 -0.064906217730472546 0.0063567836513831995 -0.045569971686864517 0.035505270527211377 -0.017887926372314868 -0.031658938771371985 0.027455337164397242 -0.041343038808112749 0.051817588763480006 0.071151732943938367 0.025058759556449307 0.069737745307430196 0.038016264249076559 -0.043159259053691938 0.050546767610214975 0.071406826135343882 -0.066443953929380226 0.072342763043383232 -0.064905659740002522 -0.05367950578360902 -0.066800681865627196 -0.035511975626478127 -0.064958263425446888 0.070123931255769878 -0.065016648930642976 -0.021704874667520305 -0.065226635851123635 0.057878433769765772
leaf_weight=4381.1811394393444 4.079528450965884 2.7227723747491961 770.80753935873508 418.94614991545677 3.0238451510667863 2.4387062191963214 2.193062648177146 4.0315422415733355 36.054880186915398 1.9308056980371464 2.1801472455263129 14.918209552764894 2.468657284975051 3.9485265910625449 5.219654783606531 4.282594382762908 4.2807470411062241 3.1928432434797278 3.8740883618593198 3.2749724090099335 3.8058515340089798 2.4323673993349066 2.4976167976856232 2.5977130085229874 2.234175443649292 3.1192556917667389 2.4600677341222763 2.816607803106308 233.92216169834137 2.3907310962676993 3.2027837783098212 3994.4077451080084 2.514762356877327 2.3781310021877289 31.844714164733887 3.4674156904220572 2.597735792398451 2.6671965420246124 3.4317682087421417 3.0429529547691345 2.9223447293043137 3.103875443339347 2.2064156085252815 4.7889139205217353 3.3496293127536765 2.029228538274765 2.5152855515480042 1.9687199741601933 2.1646853983402252 5.8347271531820297 2.9691369086503983 2.1273375898599625 27.06746219098568 22.802135512232784 4.5172528177499762 2.144400715827941 8.152935862541197 13.914232194423674 42.438104793429375 1.924540877342223 4.09479820728302 3.0742513388395309
leaf_count=24764 19 11 3767 2367 16 12 10 17 203 10 9 84 11 18 25 20 19 15 20 15 16 13 10 11 10 15 11 14 1322 10 13 19521 11 10 180 16 11 11 14 13 12 15 10 23 14 10 11 10 10 28 16 10 153 121 24 10 46 68 239 9 23 14
internal_value=-0.000129338 -0.0464614 0.0677894 -0.0636336 -0.0562376 -0.00448967 -0.0293146 -0.0619916 -0.0444043 0.00138362 -0.0408829 -0.0465177 -0.0284573 0.0327953 0.0222784 0.037507 0.0249157 -0.0646427 -0.0602931 0.0142958 -0.0127841 0.00330982 -0.0229613 0.0553943 0.0399056 -0.0541575 0.0505593 0.0184804 -0.064513 0.00894629 0.00523722 0.0700403 -0.0435242 0.0274565 -0.063863 -0.0593928 -9.25999e-05 -0.00978146 0.00546196 0.00960588 -0.0026994 -0.0631813 0.0620445 0.0575969 0.0541821 0.0406723 0.0521806 -0.0624939 0.0661778 0.0637767 -0.0567566 0.0617373 -0.0620366 -0.0603564 -0.0558491 -0.0647971 -0.0588261 0.067927 -0.0648889 -0.0631377 -0.0674022 0.055346
internal_weight=10149 6112.79 798.716 5314.08 638.003 63.8433 38.3255 574.16 55.2173 16.0586 34.0051 31.825 14.938 25.5178 19.4046 16.3807 12.0981 4676.07 250.53 13.415 7.67994 27.9083 4.92998 7.81737 8.64385 9.65276 5.73504 5.28527 237.115 22.9783 20.5876 4036.2 7.4147 6.40967 518.942 89.699 17.3848 8.6967 6.09896 8.68807 5.9653 39.1588 41.7922 23.7985 19.0095 7.89414 4.54451 16.8869 6.11321 11.1154 4.89994 4.3204 86.2316 54.3869 27.3194 429.243 10.2973 17.9938 4425.54 44.3626 6.5335 5.28067
internal_count=53540 33822 3885 29937 3526 317 198 3209 292 74 178 169 75 119 91 75 55 26411 1399 62 36 118 23 36 37 50 26 25 1337 95 85 19718 37 27 2917 494 72 36 25 36 25 218 197 110 87 35 21 94 28 52 26 20 478 298 145 2423 56 87 25012 248 35 24
is_linear=0
shrinkage=0.05


Tree=14
num_leaves=63
num_cat=0
split_feature=2 0 0 3 0 1 0 2 0 2 1 0 2 0 0 2 2 3 0 2 2 0 0 2 2 2 1 0 0 3 3 0 1 3 2 3 0 3 1 1 2 1 0 0 3 0 1 0 3 0 0 0 3 0 3 0 3 0 3 0 0 1
split_gain=12324.5 4489.33 46.0731 15.424 73.3931 26.6044 15.4922 7.36222 6.46458 19.0726 10.2729 5.33932 4.28595 4.52203 4.09917 9.19491 3.1896 3.12631 7.39278 2.94062 2.8607 5.64516 1.71225 2.27433 1.63241 2.01816 1.6522 1.46551 1.25611 22.9586 5.3438 7.31402 1.14485 1.13709 1.10362 0.910541 5.99129 0.837884 0.942338 1.37278 0.676269 0.441026 0.457097 3.26695 0.442518 0.771899 0.433916 0.397822 0.395313 0.242726 0.187795 0.172496 0.460318 0.257286 0.169527 0.143064 0.629575 0.1218 0.0191757 0.0109983 0.00982607 0.0044927
threshold=3.6676913681716541 39.965000000000011 40.275000000000013 0.54758098223615481 24.625000000000004 0.6309831857270648 32.785000000000004 0.62502477209671037 17.815000000000005 0.41749456890407793 0.80991787844400231 29.995000000000005 0.56661109946905952 27.815000000000005 33.195000000000007 0.69209355765891589 0.50375939849624074 0.64587121212121235 29.995000000000005 0.56661109946905952 0.73828808349096431 35.25500000000001 22.935000000000006 0.34545027248821764 3.1224187404455805 2.6509065456433878 3.2182244202984189 21.345000000000006 36.345000000000006 0.50394102990033229 0.53336477987421393 37.965000000000011 0.45283171475867162 0.60010204081632668 3.6857046809773499 0.80050632911392416 8.6450000000000014 0.47070714642678663 1.889443856422949 1.2159848430127962 0.4498936538556661 5.0983110875373763 24.375000000000004 23.515000000000004 0.18762531328320806 32.155000000000008 2.4367616672174708 31.975000000000005 0.5001000000000001 20.435000000000006 34.25500000000001 -1.0000000180025095e-35 0.88994444444444454 1.0000000180025095e-35 0.51528594771241842 16.275000000000002 0.75060000000000016 15.565000000000003 0.17010000000000003 24.375000000000004 27.375000000000004 0.55832653994895087
decision_type=2 2 2 2 2 2 2 2 2 2 2 2 2 2 2 2 2 2 2 2 2 2 2 2 2 2 2 2 2 2 2 2 2 2 2 2 2 2 2 2 2 2 2 2 2 2 2 2 2 2 2 2 2 2 2 2 2 2 2 2 2 2
left_child=1 3 24 28 8 14 7 11 35 10 22 12 13 16 15 17 -7 18 19 -6 50 -22 23 -10 25 26 37 -12 -1 48 31 -31 -19 -20 41 55 51 38 39 -3 -11 57 43 49 60 -46 -40 -9 -30 58 -8 -37 -53 -54 -33 61 -57 -2 -43 -42 -44 -5
right_child=34 2 -4 4 5 6 20 47 9 40 27 -13 -14 -15 -16 -17 -18 32 33 -21 21 -23 -24 -25 -26 -27 -28 -29 29 30 -32 54 -34 -35 -36 36 -38 -39 46 -41 59 42 44 -45 45 -47 -48 -49 -50 -51 -52 52 53 -55 -56 56 -58 -59 -60 -61 -62 -63
leaf_value=-0.063973536668305089 0.058811979806172567 0.015235270099381011 0.068761105900807931 -0.064756951263483103 0.0081946851238301581 0.0071515344531685177 0.049743381194298199 -0.064147119339713191 0.046689990387973231 -0.041068329035230278 -0.065750704504432309 0.053201104593305674 -0.064925405328791805 0.039934462815998745 0.071606274597868322 -0.072856008004058823 -0.065945727491465087 0.069777832222633951 0.028597784240005142 -0.065000048746934505 -0.065113358036281141 0.054713722321051886 0.073760294398951279 -0.010603729086253864 0.039518849231683341 -0.033888073657637012 -0.025788343943736733 -0.016945332154008962 -0.063975623199172202 -0.069876044584768066 0.081941764681914483 0.022711115266165694 0.027726506871777704 0.072193218650917684 0.068761105900807931 -0.06396944423138029 0.006028007088870046 0.039200245895324691 0.036276231053148464 -0.023832930363940363 -0.063984507306499933 0.050069241577724299 0.076017361350874571 -0.0064681460631339964 0.030692271865573845 0.068667648836478051 0.0095899473396974175 -0.040084514027224988 -0.040252624835750733 0.069115470969576751 0.070843148874247808 -0.063968926840674137 -0.052437158002808883 -0.06571515804076937 0.041586457893201846 -0.064056347640216407 -0.033686169242381887 0.068761105900807931 0.056238889240196405 -0.067211475856693612 0.071719651708257073 -0.063968512345754805
leaf_weight=4218.1816774457693 3.9848439395427731 4.809122741222394 747.37461771070957 18.811938613653183 2.9655252099037259 2.6422555893659609 2.1513499170541746 21.455772072076801 4.2106824964284879 3.4172290712594977 3.9937081634998313 2.2304068058729163 5.4602314233779898 3.1193558573722839 5.0199570208787909 2.3088066279888144 3.4291887432336807 5.4530539065599433 2.5644273310899734 2.5539903789758682 1.7822155356407168 2.1915149092674255 2.177448034286499 2.9426151663064957 2.7775410413742057 3.9080538153648368 3.5657291561365119 2.5015777796506882 189.50502079725266 2.78844505548477 2.2685274928808212 2.390211284160614 2.3017758578062057 3.5890850275754929 3872.9758195728064 30.723904818296432 3.4735455811023703 2.3694448173046103 2.930004969239234 4.2229203283786774 38.93269445002079 2.163954824209215 2.4385020136833173 2.1598556488752356 2.2214765250682831 3.3651483207941055 3.1726217865943909 1.867163524031638 1.7724975943565358 4.9879200607538223 2.0684816986322403 26.114780023694038 22.190859705209736 4.3661094903945914 2.3681677877902985 8.9038132429122907 2.1110335737466803 13.491232812404631 3.012970358133316 2.8325440734624854 2.9256682842969894 456.9145469814539
leaf_count=24710 19 20 3767 109 13 11 10 125 18 18 22 10 31 13 24 13 19 27 12 12 10 10 10 13 12 16 17 11 1110 14 10 10 10 17 19521 180 16 10 12 18 228 10 11 9 10 17 13 10 9 25 10 153 121 24 10 52 10 68 14 15 14 2677
