tree
version=v4
num_class=1
num_tree_per_iteration=1
label_index=0
max_feature_idx=3
objective=binary sigmoid:1
feature_names=Column_0 Column_1 Column_2 Column_3
feature_infos=[-436.13999999999999:156.38] [-1242.5641025641025:9000] [-0.99771240334904154:65] [0:436.13999999999999]
tree_sizes=3337 3374 3368 3378 3386 3392 3375 3380 3383 3378 3380 3381 3379 3371 3380 3384 3385 3383 3386 3379 3382 3380 3397 3389 3384 3384 3393 3384 3392 3389 3388 3388 3384 3391 3399 3399 3398 3394 3396 3391 3393 3394 3405 3401

Tree=0
num_leaves=31
num_cat=0
split_feature=2 0 0 2 3 0 1 0 2 0 3 1 2 0 3 0 3 0 2 0 0 3 2 0 3 0 2 2 3 3
split_gain=39044.2 13200.2 100.672 54.3673 29.7735 163.732 89.0097 29.7364 14.2428 14.0742 43.3835 18.2925 6.85614 23.2812 6.84472 11.7134 5.63719 5.24588 8.1106 4.87755 4.44892 88.6066 13.1606 19.1881 8.37348 4.07028 16.6673 3.57246 3.00787 3.34941
threshold=3.6732737391461519 39.985000000000007 40.295000000000009 3.6362733758457275 0.56408249158249169 24.625000000000004 0.55881880252296623 32.745000000000012 0.4806232481810937 20.855000000000004 0.68563333333333343 0.70379129497083293 0.52871969939971619 29.005000000000006 0.60260879629629638 29.995000000000005 0.3826747967479675 32.335000000000008 0.59304002936754652 33.945000000000007 35.915000000000006 0.50543560606060622 0.80190201324795329 38.025000000000013 0.53087922705314028 28.065000000000005 0.57292155089746155 0.38821049476047104 0.26417792792792799 0.24807071960297769
decision_type=2 2 2 2 2 2 2 2 2 2 2 2 2 2 2 2 2 2 2 2 2 2 2 2 2 2 2 2 2 2
left_child=1 3 16 4 20 9 12 8 -8 -6 -11 27 -7 -14 -10 25 28 18 -15 -9 -1 -22 -23 24 -24 -16 -27 -12 29 -3
right_child=-2 2 -4 -5 5 6 7 19 14 10 11 -13 13 17 15 -17 -18 -19 -20 -21 21 22 23 -25 -26 26 -28 -29 -30 -31
leaf_value=-0.31539505344801499 -0.11288148216753636 -0.21948885293052778 -0.11288148216753636 -0.25670681077086205 -0.31403372880095926 -0.12846255943289669 -0.18039948365076425 -0.20636794575969805 -0.31138440652822635 -0.31543548661722004 -0.12554110744564156 -0.27860748580818662 -0.31543548661721993 -0.14326458283498889 -0.30643308641945627 -0.18039948365076425 -0.16875844891227668 -0.12098364234552371 -0.24791748513399214 -0.11288148216753641 -0.31527931544956411 -0.11288148216753648 -0.30579005783390178 -0.14326458283498894 -0.19390308394740985 -0.1533922830574731 -0.31543548661721998 -0.19390308394740985 -0.2330406373495521 -0.14970948297656977
leaf_weight=6183.0424108505249 4862.160107254982 4.6901072263717714 922.22318935394287 41.717269539833069 713.38999390602112 9.6270622014999407 2.9621729850769034 3.2090207338333121 24.684774875640869 34.311837077140808 3.9495639801025373 5.4306504726409912 2.7153252363204983 4.9369549751281721 11.108148694038396 2.9621729850769034 7.1585847139358512 6.1711937189102173 2.9621729850769043 2.4684774875640869 320.16153013706207 3.702716231346133 5.1838027238845807 4.9369549751281738 2.4684774875640869 2.468477487564086 4.4432594776153564 3.7027162313461304 14.564017176628111 2.7153252363204956
leaf_count=25048 19697 19 3736 169 2890 39 12 13 100 139 16 22 11 20 45 12 29 25 12 10 1297 15 21 20 10 10 18 15 59 11
internal_value=-0.225531 -0.291094 -0.115772 -0.313625 -0.313948 -0.305097 -0.237387 -0.274004 -0.286646 -0.312281 -0.285896 -0.208426 -0.1621 -0.181392 -0.293538 -0.272542 -0.207292 -0.155524 -0.182509 -0.165722 -0.31509 -0.309491 -0.195744 -0.220116 -0.269697 -0.287688 -0.257563 -0.158619 -0.219848 -0.193903
internal_weight=13216.2 8354.07 951.351 7402.72 7361 841.504 80.7192 54.3065 48.629 760.785 47.3948 13.0829 26.4127 16.7856 45.6668 20.9821 29.128 14.0703 7.89913 5.6775 6519.5 336.453 16.292 12.5892 7.65228 18.0199 6.91174 7.65228 21.9694 7.40543
internal_count=53540 33843 3854 29989 29820 3409 327 220 197 3082 192 53 107 68 185 85 118 57 32 23 26411 1363 66 51 31 73 28 31 89 30
is_linear=0
shrinkage=1


Tree=1
num_leaves=31
num_cat=0
split_feature=2 0 0 2 3 0 1 0 2 0 3 1 3 0 0 2 1 0 0 2 0 3 3 2 0 2 3 3 1 1
split_gain=35147.9 11999.1 88.998 50.5444 27.8185 153.774 94.5526 31.6901 13.1431 11.1212 41.7538 32.839 7.74842 23.8544 6.05622 15.3011 7.0153 9.64032 5.87107 11.7011 7.03794 5.62471 5.04579 4.58835 3.38637 5.39334 2.70614 2.98978 2.31764 3.1449
threshold=3.6732737391461519 39.985000000000007 40.295000000000009 3.6362733758457275 0.54535897435897451 24.625000000000004 0.55881880252296623 34.645000000000003 0.4806232481810937 16.275000000000002 0.68563333333333343 0.81455568604736628 0.59519259259259272 33.155000000000008 28.065000000000005 0.57292155089746155 1.5548394458106831 32.145000000000003 30.335000000000004 0.50812064965197234 29.005000000000006 0.55438750000000014 0.3826747967479675 0.61342385305816471 23.295000000000005 0.34751273860919618 0.26417792792792799 0.24807071960297769 10.049949827406056 4.2763168878252662
decision_type=2 2 2 2 2 2 2 2 2 2 2 2 2 2 2 2 2 2 2 2 2 2 2 2 2 2 2 2 2 2
left_child=1 3 22 4 -1 9 12 8 -8 -6 -11 24 13 -7 -10 -16 17 23 19 -14 -21 -9 26 -17 25 -12 27 -3 29 -5
right_child=-2 2 -4 28 5 6 7 21 14 10 11 -13 18 -15 15 16 -18 -19 -20 20 -22 -23 -24 -25 -26 -27 -28 -29 -30 -31
leaf_value=-0.086268017941649067 0.10597495737383987 0.0057359721971020645 0.10597495737383987 -0.010126979178811463 -0.085952348104688492 -0.087753921918656497 0.042674247895246015 0.011654460928731614 -0.082935430751815975 -0.086492075870350085 0.055987782026684862 -0.074513166691008034 0.093897405637439202 0.080459487177026251 0.068053354556139242 -0.010682987481228451 -0.081408030483680976 0.021974059694932869 0.10785388178803837 -0.054385341410853494 0.050673948171024288 0.10906565507339301 0.053625540505996987 -0.081183193004833246 0.081028667854956937 -0.015891457158884497 -0.0071405594028766967 0.071507069815368404 0.012976775809439581 -0.041899753737875294
leaf_weight=6265.5517764687538 4908.5969156771898 4.693247899413115 931.03102385997772 10.820751547813414 797.88713583350182 3.4305714964866656 2.9757238626480094 2.953218162059783 26.848254203796387 80.975558549165726 5.8849592506885546 11.977093055844305 7.7181139439344424 5.4651395976543427 2.4853517115116111 3.1950427144765881 18.555813848972321 4.9271379560232154 7.2088347524404517 2.9418609738349915 3.4795781672000885 2.9745013117790222 7.1986249238252631 8.3117858767509443 3.4713649004697791 4.6890955865383148 14.551538258790968 2.7346484214067459 2.951114058494567 27.789657384157181
leaf_count=25690 19697 19 3736 44 3271 14 12 12 110 332 24 49 31 22 10 13 76 20 29 12 14 12 29 34 14 19 59 11 12 113
internal_value=-2.72623e-05 -0.0629009 0.10328 -0.0847134 -0.0850276 -0.0773199 -0.0195778 -0.0502951 -0.060057 -0.0839225 -0.0687858 -0.0136882 0.0547947 0.0155891 -0.0648095 -0.0518236 -0.0603386 -0.0365487 0.0711314 0.0524091 0.00254302 0.0605349 0.0172935 -0.0616078 0.0381797 0.0241127 0.00539417 0.0299502 -0.029731 -0.0329953
internal_weight=13184.3 8275.68 960.209 7315.47 7273.91 1008.36 103.471 73.2268 67.2991 904.885 106.998 26.0225 30.2441 8.89571 64.3234 37.4751 34.9898 16.434 21.3484 14.1396 6.42144 5.92772 29.1781 11.5068 14.0454 10.5741 21.9794 7.4279 41.5615 38.6104
internal_count=53540 33843 3854 29989 29820 4130 421 299 275 3709 438 106 122 36 263 153 143 67 86 57 26 24 118 47 57 43 89 30 169 157
is_linear=0
shrinkage=0.05


Tree=2
num_leaves=31
num_cat=0
split_feature=2 0 0 2 3 0 1 0 0 1 3 2 3 0 2 0 3 2 0 3 2 0 3 0 2 0 0 2 3 0
split_gain=31819 10953.9 79.8138 47.4238 26.1083 140.339 72.8367 24.9101 12.5863 37.0657 23.1464 11.891 6.0844 10.6904 5.53546 19.3494 4.52777 4.34136 4.15484 80.9198 10.2716 17.423 7.76975 3.89866 3.83239 5.12688 3.3032 14.0751 2.61272 2.58729
threshold=3.6732737391461519 39.985000000000007 40.295000000000009 3.6362733758457275 0.56408249158249169 24.625000000000004 0.55881880252296623 32.745000000000012 16.275000000000002 0.55881880252296623 0.68563333333333343 0.4806232481810937 0.60260879629629638 29.995000000000005 0.52871969939971619 29.005000000000006 0.3826747967479675 0.64750546395207775 35.915000000000006 0.50543560606060622 0.80190201324795329 38.025000000000013 0.53087922705314028 33.945000000000007 0.38821049476047104 20.855000000000004 28.065000000000005 0.57292155089746155 0.33576340326340331 30.335000000000004
decision_type=2 2 2 2 2 2 2 2 2 2 2 2 2 2 2 2 2 2 2 2 2 2 2 2 2 2 2 2 2 2
left_child=1 3 16 4 18 8 14 11 -6 10 -10 -8 -13 26 -7 -16 28 29 -1 -20 -21 22 -22 -9 25 -11 -14 -28 -3 -17
right_child=-2 2 -4 -5 5 6 7 23 9 24 -12 12 13 -15 15 17 -18 -19 19 20 21 -23 -24 -25 -26 -27 27 -29 -30 -31
leaf_value=-0.083422373145269776 0.10034652169372671 0.01191925508506702 0.10034652169372671 -0.028364276186042505 -0.08282762840346039 0.086899770660726794 0.040399703563663986 0.017853850276735424 -0.083470234924823389 -0.069984612108114783 0.048743653869796531 -0.079736343069964258 -0.074644154919752112 0.045187624122596075 -0.084337862858029647 0.047983571597004143 0.050745677077854351 0.023439852145144248 -0.083303678513999668 0.10401619408534296 -0.073888748796801643 0.082503719615290669 0.034587601445152744 0.10110309783085923 -0.082095486703800735 0.014500205214367118 0.064381432122745094 -0.084588441102365589 -0.038599704539367855 0.1021321671593733
leaf_weight=6016.1742602139711 4924.191298365593 19.024113759398467 933.98886585235596 41.391891956329346 653.27076211571693 9.7413190156221408 2.9858186244964591 3.2165453583002082 4.8039159774780265 6.7677486389875394 10.646999940276144 24.074446231126785 10.83415031433106 2.9610066115856162 2.6550065129995373 3.4906283915042859 7.2260273844003668 4.7003844231367102 311.52285368740559 3.7414176464080837 5.053314194083212 4.9347174167633057 2.4515748023986816 2.4989611208438873 62.993178561329842 2.444251075387001 2.4954538047313681 4.3488130420446396 2.9571474194526663 5.9944230169057846
leaf_count=25048 19697 77 3736 169 2719 39 12 13 20 28 43 100 45 12 11 14 29 19 1297 15 21 20 10 10 262 10 10 18 12 24
internal_value=-4.83148e-05 -0.0605624 0.0978013 -0.0817297 -0.082038 -0.0736476 -0.0107318 -0.0443882 -0.0804405 -0.0626501 0.00763642 -0.0562076 -0.0626587 -0.0427388 0.0568997 0.0395462 0.0164102 0.0627328 -0.0831237 -0.0776411 0.031377 0.00952953 -0.0384535 0.0542525 -0.0776904 -0.047568 -0.0574658 -0.0302733 0.00512292 0.0822047
internal_weight=13093.6 8169.39 963.196 7206.19 7164.8 820.924 79.997 53.4152 740.927 87.6561 15.4509 47.6997 44.7139 20.6394 26.5818 16.8404 29.2073 14.1854 6343.88 327.704 16.181 12.4396 7.50489 5.71551 72.2052 9.212 17.6784 6.84427 21.9813 9.48505
internal_count=53540 33843 3854 29989 29820 3409 327 220 3082 363 63 197 185 85 107 68 118 57 26411 1363 66 51 31 23 300 38 73 28 89 38
is_linear=0
shrinkage=0.05


Tree=3
num_leaves=31
num_cat=0
split_feature=2 0 0 2 3 0 1 0 2 0 3 1 2 0 3 0 2 0 3 0 2 3 2 2 3 0 3 0 3 0
split_gain=28943.4 10036.6 72.4944 44.873 24.6579 133.209 78.1564 27.1767 11.0517 10.0764 37.349 13.9029 6.25772 22.8209 5.49502 17.216 5.02014 11.9471 4.71705 4.26555 8.83028 4.07296 3.18847 2.71464 2.36525 2.21856 51.5945 6.3513 2.12727 3.04491
threshold=3.6732737391461519 39.985000000000007 40.295000000000009 3.6362733758457275 0.54535897435897451 24.625000000000004 0.55881880252296623 34.645000000000003 0.4806232481810937 20.855000000000004 0.68563333333333343 0.70379129497083293 0.52871969939971619 29.005000000000006 0.57577352472089327 31.395000000000003 0.59304002936754652 28.065000000000005 0.55438750000000014 32.335000000000008 0.61342385305816471 0.3826747967479675 0.38821049476047104 0.57292155089746155 0.33576340326340331 37.055000000000007 0.50543560606060622 38.025000000000013 0.1645584415584416 18.855000000000004
decision_type=2 2 2 2 2 2 2 2 2 2 2 2 2 2 2 2 2 2 2 2 2 2 2 2 2 2 2 2 2 2
left_child=1 3 21 4 25 9 12 8 -8 -6 -11 22 -7 -14 -10 16 17 -16 -9 20 -15 24 -12 -19 -3 -1 -27 -28 -5 -30
right_child=-2 2 -4 28 5 6 7 18 14 10 11 -13 13 19 15 -17 -18 23 -20 -21 -22 -23 -24 -25 -26 26 27 -29 29 -31
leaf_value=-0.08075966877552504 0.095539629317835884 0.011309204780264225 0.095539629317835884 -0.0021266487167174285 -0.079685458552377866 0.082550979043675365 0.038286294685878644 0.011336943842620996 -0.07801281610638941 -0.080804064783379106 0.090192854850526916 -0.046055871270222239 -0.081342007301211827 0.066010530806101697 -0.070889780294292673 0.051247234677164036 -0.07662207355505174 0.061054541019472955 0.10063956172829219 0.082395199413049347 -0.047465004760818962 0.048095645551385402 0.025917354634454118 -0.011478045492715696 -0.036857489655685402 -0.080550182458252198 -0.0091141505766208653 0.079057652309261844 -0.073794514756648541 -0.026871183315105185
leaf_weight=5841.8958625346422 4913.5172866731882 19.047198727726943 931.9642881155014 7.0827564001083365 821.87160786986351 9.741599842906 2.9929069876670829 2.9360226541757575 25.376076191663742 41.045051217079163 3.9954505860805494 5.2896900773048401 3.5523533225059536 5.744870603084566 9.4804733991622907 3.9217608124017707 18.754702746868134 2.4997255206108084 2.9791244715452194 8.7224258333444578 2.4436204433441162 7.2424912452697745 3.7313417196273804 2.6655436307191849 2.942457675933837 208.97596478462219 3.3541439771652204 5.2225102931261063 3.9037397801876059 30.230654716491699
leaf_count=24769 19697 77 3736 29 3482 39 12 12 107 174 16 22 15 23 40 16 79 10 12 35 10 29 15 11 12 886 14 21 16 124
internal_value=-6.48991e-05 -0.0584949 0.0931077 -0.0790815 -0.0793861 -0.0720181 -0.0178852 -0.0463375 -0.0555807 -0.0783101 -0.0574005 0.0163982 0.0495663 0.0338639 -0.0600614 -0.0478559 -0.0594923 -0.0375566 0.0563136 0.0580644 0.032147 0.015575 0.0591536 0.023624 0.00486397 -0.080575 -0.0756173 0.0445756 -0.0270633 -0.0322375
internal_weight=12953.1 8039.61 961.196 7078.41 7037.19 977.744 101.811 71.6063 65.6912 875.933 54.0615 13.0165 30.2049 20.4633 62.6983 37.3222 33.4004 14.6457 5.91515 16.9109 8.18849 29.2321 7.72679 5.16527 21.9897 6059.45 217.553 8.57665 41.2172 34.1344
internal_count=53540 33843 3854 29989 29820 4130 421 299 275 3709 227 53 122 83 263 156 140 61 24 68 33 118 31 21 89 25690 921 35 169 140
is_linear=0
shrinkage=0.05


Tree=4
num_leaves=31
num_cat=0
split_feature=2 0 0 2 3 0 1 0 0 2 1 2 0 3 3 0 3 0 0 2 0 0 2 3 1 0 2 3 3 3
split_gain=26435.7 9225.22 66.5359 42.7515 23.5025 127.436 55.9152 15.3748 8.65643 25.9292 20.4531 5.82967 5.45648 91.1296 9.02563 20.2207 8.13801 12.6397 5.37958 8.31648 8.23263 4.59093 10.8754 3.67089 3.63567 3.1965 3.11172 2.29729 2.68173 2.36023
threshold=3.6732737391461519 39.985000000000007 40.295000000000009 3.6362733758457275 0.59519259259259272 23.295000000000005 0.55881880252296623 30.495000000000005 16.275000000000002 0.38821049476047104 0.63511760757223279 0.45669544421082076 34.645000000000003 0.52175191815856781 0.50543560606060622 38.405000000000008 0.54969223484848495 35.915000000000006 30.335000000000004 0.52871969939971619 29.005000000000006 26.365000000000006 0.55321025358246223 0.3826747967479675 1.0393766272217804 20.005000000000006 0.83277497520245702 0.26417792792792799 0.24807071960297769 0.29864895697522825
decision_type=2 2 2 2 2 2 2 2 2 2 2 2 2 2 2 2 2 2 2 2 2 2 2 2 2 2 2 2 2 2
left_child=1 3 23 4 12 8 18 11 -6 10 -10 -8 -1 14 -14 -16 17 -15 19 -7 -21 -13 24 27 -23 -12 -19 28 -3 -29
right_child=-2 2 -4 -5 5 6 7 -9 9 -11 25 21 13 16 15 -17 -18 26 -20 20 -22 22 -24 -25 -26 -27 -28 29 -30 -31
leaf_value=-0.078313770000405653 0.091390165844264043 0.0042728961645939019 0.091390165844264043 -0.02583001608332209 -0.077536091217740938 0.066120170093315472 0.017459350803775753 0.05748816699262671 0.060395856442534236 -0.07915308277234144 -0.079569631988686829 -0.080283378742902159 -0.078283091796246596 -0.080433074992133563 -0.073973452446204513 0.085313895412605534 0.079328557078136908 0.07246618634910966 0.093994924427458826 -0.079180970289816632 0.042170295261086982 -0.027941847667367389 -0.068761595135462414 0.045645173026055641 0.051850642243997429 -0.013709746212338251 0.0091951595756549001 -0.031225957781244193 0.0664345321328179 0.0097669120900480758
leaf_weight=5860.5861918777227 4880.545165643096 4.7071537226438585 925.71034872531891 41.03262896835804 472.15657910704613 12.40520222485066 2.8798447251319876 3.6754988878965369 7.1532292068004599 35.529281914234161 5.1344769895076734 12.361709639430048 421.8555733859539 2.8135842680931109 7.2540271729230863 2.7468261569738388 7.1854056864976874 4.1948508471250534 7.2106555998325339 2.3270916044712058 3.4991952180862427 2.6130765825510052 11.30496735870838 7.2495190352201453 3.1466836631298065 2.8733847588300705 3.620409831404686 5.9299474954605094 2.7479233890771866 8.6093689948320371
leaf_count=25366 19697 19 3736 169 2042 50 12 15 29 153 22 53 1826 12 31 11 29 17 29 10 14 11 48 29 13 12 15 24 11 35
internal_value=-7.80576e-05 -0.0566542 0.0890444 -0.0767154 -0.0770182 -0.0674244 0.000703858 -0.0394107 -0.0754281 -0.055793 -0.00104982 -0.0504349 -0.0779065 -0.0725986 -0.0771701 -0.0302237 0.0382266 0.0104404 0.0574362 0.042977 -0.00629891 -0.0570794 -0.0402704 0.0147892 0.0156505 -0.0559378 0.043156 0.00461885 0.0271855 -0.00695228
internal_weight=12771.1 7890.51 954.954 6935.56 6894.53 584.271 61.4239 35.9818 522.847 50.6904 15.1611 32.3063 6310.26 449.671 431.856 10.0009 17.8143 10.6288 25.4421 18.2315 5.82629 29.4264 17.0647 29.2439 5.75976 8.00786 7.81526 21.9944 7.45508 14.5393
internal_count=53540 33843 3854 29989 29820 2513 255 152 2258 216 63 137 27307 1941 1868 42 73 44 103 74 24 125 72 118 24 34 32 89 30 59
is_linear=0
shrinkage=0.05


Tree=5
num_leaves=31
num_cat=0
split_feature=2 0 0 2 3 0 1 0 0 3 1 2 3 0 1 0 2 2 0 3 2 0 3 0 0 2 3 3 1 1
split_gain=24231.2 8503.03 61.5918 40.991 22.4434 115.516 55.1884 20.9283 10.8907 30.6501 24.307 9.74851 5.20781 9.27242 4.25829 5.42173 7.53263 7.17301 3.58444 65.9455 8.37537 20.051 3.31337 2.85756 2.74445 11.584 2.72957 2.16794 2.15352 2.86045
threshold=3.6732737391461519 39.985000000000007 40.295000000000009 3.6362733758457275 0.56408249158249169 24.625000000000004 0.55881880252296623 32.745000000000012 16.275000000000002 0.68563333333333343 0.81455568604736628 0.4806232481810937 0.60260879629629638 29.995000000000005 0.30662405965657807 29.485000000000003 0.64750546395207775 0.52871969939971619 35.915000000000006 0.50543560606060622 0.83277497520245702 38.025000000000013 0.3826747967479675 33.945000000000007 28.065000000000005 0.57292155089746155 0.70766304347826103 0.33576340326340331 10.049949827406056 4.2763168878252662
decision_type=2 2 2 2 2 2 2 2 2 2 2 2 2 2 2 2 2 2 2 2 2 2 2 2 2 2 2 2 2 2
left_child=1 3 22 4 18 8 14 11 -6 -10 26 -8 -13 24 -7 17 -17 -16 -1 -20 -21 -22 27 -9 -14 -26 -11 -3 29 -5
right_child=-2 2 -4 28 5 6 7 23 9 10 -12 12 13 -15 15 16 -18 -19 19 20 21 -23 -24 -25 25 -27 -28 -29 -30 -31
leaf_value=-0.076219411997307196 0.087775217096503516 0.01054557953917707 0.087775217096503516 -0.0059081391888003015 -0.075626392696757513 0.072578155050803617 0.036843680929767739 0.020396751999203839 -0.076385049337771294 0.002240611370613961 -0.065087627784930796 -0.072812786183910211 -0.068190955808443712 0.043766172987514701 0.055423759608207827 0.091020402395412092 -0.0077200142799612043 -0.05437409763679707 -0.076095185190440173 0.075131825114772732 -0.069358549534173558 0.071542635132730681 0.043369352222758832 0.092097200861690653 0.058076611012113061 -0.078238776343810379 0.049025715568145188 -0.035645450476110237 0.016721436441898874 -0.036436208731122667
leaf_weight=5655.1789315342903 4828.7333420664072 19.056236818432815 915.88301599025726 10.681431114673613 614.59011188149452 11.621386229991915 2.9942520111799231 3.1922426819801322 58.099562481045723 4.6733145564794567 11.292496949434279 22.785199373960495 10.332652956247335 2.9646232277154914 2.7270780056715003 5.6815575957298261 2.9263539165258408 3.2724566757678986 292.84753333032131 5.9405929744243648 5.1061504483222944 4.994733452796936 7.2484387010335913 2.4608123600482941 2.497189223766326 4.1461397856473923 9.3650897443294507 2.9309118390083304 2.920198827981948 27.245449557900429
leaf_count=25048 19697 77 3736 44 2719 47 12 13 257 19 49 100 45 12 11 23 12 14 1297 24 22 20 29 10 10 18 38 12 12 113
internal_value=-8.86501e-05 -0.0550058 0.0854947 -0.0745898 -0.0748924 -0.0668915 -0.00902014 -0.0391488 -0.0733253 -0.0563744 -0.0104773 -0.0503704 -0.0564824 -0.0378225 0.0499913 0.0320216 0.0574525 -0.00446567 -0.0759329 -0.0706881 0.0280217 0.000314943 0.0140529 0.0516084 -0.0520709 -0.0269986 0.0334512 0.00438826 -0.0246529 -0.0278385
internal_weight=12554.4 7725.66 945.119 6780.54 6739.69 775.623 77.6019 51.3731 698.021 83.4305 25.3309 45.7201 42.7258 19.9406 26.2288 14.6074 8.60791 5.99953 5964.07 308.889 16.0415 10.1009 29.2356 5.65306 16.976 6.64333 14.0384 21.9871 40.8471 37.9269
internal_count=53540 33843 3854 29989 29820 3409 327 220 3082 363 106 197 185 85 107 60 35 25 26411 1363 66 42 118 23 73 28 57 89 169 157
is_linear=0
shrinkage=0.05


Tree=6
num_leaves=31
num_cat=0
split_feature=2 0 0 2 3 0 1 0 2 0 3 1 3 0 3 0 3 2 0 0 2 0 3 2 1 1 1 0 2 1
split_gain=22279.8 7856.76 57.4881 39.497 21.4863 111.77 59.806 23.3898 9.27673 8.40189 31.5106 10.753 5.81645 17.7264 5.30315 15.5229 4.43419 4.42434 10.1571 3.90116 7.75317 4.75323 2.99557 2.52316 2.12271 5.05415 2.02277 9.38981 12.9444 2.49719
threshold=3.6732737391461519 39.985000000000007 40.295000000000009 3.6362733758457275 0.54054804804804812 24.625000000000004 0.55881880252296623 34.645000000000003 0.4806232481810937 20.855000000000004 0.68563333333333343 0.70379129497083293 0.59519259259259272 34.155000000000008 0.57577352472089327 31.395000000000003 0.55438750000000014 0.59304002936754652 28.065000000000005 30.335000000000004 0.50812064965197234 29.485000000000003 0.3826747967479675 0.38821049476047104 5.8451684033350384 3.077017273624286 0.81455568604736628 13.735000000000001 0.34751273860919618 0.4428835442569668
decision_type=2 2 2 2 2 2 2 2 2 2 2 2 2 2 2 2 2 2 2 2 2 2 2 2 2 2 2 2 2 2
left_child=1 3 22 4 -1 9 12 8 -8 26 -11 23 13 -7 -10 17 -9 18 -16 20 -14 -22 24 -12 25 -3 27 -6 29 -29
right_child=-2 2 -4 -5 5 6 7 16 14 10 11 -13 19 -15 15 -17 -18 -19 -20 -21 21 -23 -24 -25 -26 -27 -28 28 -30 -31
leaf_value=-0.074157005229580117 0.084600844429969707 0.0099146577853468296 0.084600844429969707 -0.023538787506822204 -0.071775640879565575 -0.060470538992143025 0.034968108290716775 0.011551627095403368 -0.071836886568594799 -0.074448267693604575 0.080558920631695646 -0.040652097261364033 0.075086225578587698 0.075824905513026342 -0.06501015590597313 0.051685126364190252 0.091258782180318659 -0.070635749721291205 0.023332231038074983 0.086819798419147276 -0.035417925535279372 0.053611019266034503 0.041247526734276771 0.023300591628675357 0.047763029049405242 -0.058765951476496076 -0.074351764395617748 0.062135863774320677 -0.076125686403094195 -0.005184313737876034
leaf_weight=5617.946171566844 4761.1008410006762 16.305407345294963 903.0549191236496 40.649010598659515 112.47259378433228 4.6463556736707705 2.9970287382602683 4.3333951085805884 26.919103562831879 40.350907400250435 3.9759762734174711 5.1170985251665115 7.6117679476737994 4.9029410630464554 9.0065265595912951 3.9011935740709296 2.9210096299648285 17.703552231192589 5.093786656856536 7.0709665566682807 3.7719171792268753 2.4882117956876755 7.240422621369361 3.7280515432357788 2.4776060134172431 3.2052361816167823 676.64944036304951 2.9484867304563505 5.8197385221719742 2.5854433476924896
leaf_count=25511 19697 66 3736 169 510 20 12 18 121 183 16 22 31 20 40 16 12 79 21 29 16 10 29 15 10 13 3069 12 26 11
internal_value=-9.72547e-05 -0.0535236 0.0823671 -0.0726735 -0.0729773 -0.0660521 -0.0169478 -0.0415488 -0.0509671 -0.0719981 -0.0527516 0.0155326 0.0418481 0.00950828 -0.0550797 -0.042446 0.043646 -0.0539925 -0.0330962 0.056594 0.0411869 -3.16146e-05 0.013353 0.0528511 0.00416776 -0.00136829 -0.0732766 -0.0674011 -0.0240652 0.030684
internal_weight=12309 7547.89 932.284 6615.61 6574.96 957.015 103.368 72.8756 65.6212 853.648 53.172 12.8211 30.4922 9.5493 62.6242 35.7051 7.2544 31.8039 14.1003 20.9429 13.8719 6.26013 29.2287 7.70403 21.9882 19.5106 800.476 123.826 11.3537 5.53393
internal_count=53540 33843 3854 29989 29820 4309 445 319 289 3864 236 53 126 40 277 156 30 140 61 86 57 26 118 31 89 79 3628 559 49 23
is_linear=0
shrinkage=0.05


Tree=7
num_leaves=31
num_cat=0
split_feature=2 0 0 2 3 0 1 0 2 0 3 1 3 0 3 0 2 0 3 0 2 0 3 0 2 3 1 3 2 1
split_gain=20541.5 7275.16 54.0231 38.2518 20.5733 105.355 54.8624 21.524 8.5767 8.01442 29.6129 20.4796 5.31528 16.1539 5.05046 14.2522 4.18976 9.39645 4.09007 3.62764 7.10573 4.31192 2.71171 2.5382 4.37266 2.01727 2.34109 2.24821 3.30108 2.05264
threshold=3.6732737391461519 39.985000000000007 40.295000000000009 3.6362733758457275 0.54054804804804812 24.625000000000004 0.55881880252296623 34.645000000000003 0.4806232481810937 16.275000000000002 0.68563333333333343 0.81455568604736628 0.59519259259259272 34.155000000000008 0.57577352472089327 31.395000000000003 0.59304002936754652 28.065000000000005 0.55438750000000014 30.335000000000004 0.50812064965197234 29.485000000000003 0.3826747967479675 23.295000000000005 0.34751273860919618 0.26417792792792799 4.4938375080166137 0.29864895697522825 1.8343847228814008 1.8824782344385496
decision_type=2 2 2 2 2 2 2 2 2 2 2 2 2 2 2 2 2 2 2 2 2 2 2 2 2 2 2 2 2 2
left_child=1 3 22 4 -1 9 12 8 -8 -6 -11 23 13 -7 -10 16 17 -16 -9 20 -14 -22 25 24 -12 26 -3 -27 -29 -30
right_child=-2 2 -4 -5 5 6 7 18 14 10 11 -13 19 -15 15 -17 -18 -19 -20 -21 21 -23 -24 -25 -26 27 -28 28 29 -31
leaf_value=-0.072410960238229155 0.081793988252737537 0.044883180250912105 0.081793988252737537 -0.02246966104085062 -0.072068770660251899 -0.058331034342180135 0.033210973151657379 0.010960647239492277 -0.069987207504036864 -0.072663516236543338 0.046449590730242213 -0.061243181692866647 0.072170665394250016 0.072461553677150875 -0.063128345280975232 0.048803976925017596 -0.068727576827590411 0.022127107903835139 0.087770166970178309 0.083765843839925413 -0.033849223836455437 0.051153982755867661 0.039262445023688496 0.067235152380448734 -0.018459635745354763 -0.030610319430885047 -0.014563996758275358 -0.033894333785444736 0.00022024374513497617 0.060299800935481797
leaf_weight=5469.5017281025648 4680.2851268798113 4.9755800962448182 887.72631537914276 40.458908721804619 731.86884404718876 4.5776901990175265 2.9977886527776709 4.338555544614791 26.26559816300869 74.891140192747116 5.9185319542884844 10.860759079456328 7.525464281439783 4.8746708929538727 8.8161028027534503 3.9242927283048621 17.295681461691856 5.1024189889430991 2.8861154317855835 6.9649665951728812 3.7499519735574722 2.4776023477315903 7.226507917046546 3.4816610217094413 4.6199465990066528 5.9204342365264884 2.4824078530073166 2.9114375263452512 2.7261679023504257 2.9710546284914017
leaf_count=25511 19697 20 3736 169 3409 20 12 18 121 349 24 49 31 20 40 16 79 21 12 29 16 10 29 14 19 24 10 12 11 12
internal_value=-0.000104199 -0.0521815 0.0795924 -0.0709339 -0.0712401 -0.0643795 -0.0163668 -0.0401896 -0.0493698 -0.0702565 -0.0569627 -0.00970329 0.0401903 0.00911992 -0.0534015 -0.0410038 -0.0522946 -0.0318744 0.0416446 0.0543658 0.0394767 -3.11095e-05 0.0126908 0.0302223 0.0179941 0.00395745 0.0250961 -0.00689329 0.00941763 0.0315512
internal_weight=12040.6 7360.34 916.94 6443.4 6402.94 933.438 101.797 71.6266 64.4019 831.641 99.772 24.8809 30.1703 9.45236 61.4041 35.1385 31.2142 13.9185 7.22467 20.718 13.753 6.22755 29.2136 14.0201 10.5385 21.9871 7.45799 14.5291 8.60866 5.69722
internal_count=53540 33843 3854 29989 29820 4309 445 319 289 3864 455 106 126 40 277 156 140 61 30 86 57 26 118 57 43 89 30 59 35 23
is_linear=0
shrinkage=0.05


Tree=8
num_leaves=31
num_cat=0
split_feature=2 0 0 2 3 0 1 0 0 2 1 3 0 2 0 1 0 2 2 0 3 0 2 1 0 2 0 3 0 1
split_gain=18984.9 6749.71 51.0319 37.1968 19.7719 96.3264 46.0626 17.6891 8.53841 24.3603 16.2151 7.60355 8.31688 5.20699 5.94659 4.04709 4.76297 5.86488 5.84234 3.55217 61.7765 6.79705 17.8065 3.3419 3.00247 2.7885 10.5488 2.45655 2.40922 1.98701
threshold=3.6732737391461519 39.985000000000007 40.295000000000009 3.6362733758457275 0.56408249158249169 24.385000000000005 0.55881880252296623 32.745000000000012 16.275000000000002 0.38821049476047104 0.63511760757223279 0.60260879629629638 29.995000000000005 0.55321025358246223 25.995000000000005 0.30662405965657807 29.485000000000003 0.50812064965197234 0.64750546395207775 35.915000000000006 0.50543560606060622 38.025000000000013 0.83277497520245702 1.0393766272217804 20.005000000000006 0.42751356006598429 23.165000000000003 0.3826747967479675 33.945000000000007 5.8451684033350384
decision_type=2 2 2 2 2 2 2 2 2 2 2 2 2 2 2 2 2 2 2 2 2 2 2 2 2 2 2 2 2 2
left_child=1 3 27 4 19 8 15 11 -6 10 -10 -8 13 14 -13 -7 17 -17 -18 -1 -21 22 -22 -16 -12 26 -11 29 -9 -3
right_child=-2 2 -4 -5 5 6 7 28 9 25 24 12 -14 -15 23 16 18 -19 -20 20 21 -23 -24 -25 -26 -27 -28 -29 -30 -31
leaf_value=-0.070976829571076552 0.079296945536127261 -0.0016075669059010152 0.079296945536127261 -0.02144985341305887 -0.070330957013861703 0.065855603226335699 -0.067981221854763518 0.018994164507767433 0.053596423246175862 -0.07650640469140052 -0.073230861421343954 -0.054772900070349573 0.047663848978738481 -0.07014504932927422 -0.026317698215198776 0.052230399044872644 0.082059893640523185 -0.044477457889962962 -0.0060957563090501266 -0.070837840591778597 0.069708564653052377 0.076432334883303032 -0.063026057941167377 0.047550996377507232 -0.0077456186767023054 -0.071280057502015576 0.047851162306848875 0.037399575562166998 0.085734592687757447 0.045889140513694963
leaf_weight=5219.1586600095034 4588.5925869196653 19.485426828265197 870.3346654176712 40.268308445811272 567.6970090419054 11.787055239081385 22.509657442569733 3.1759165078401557 7.9100824147462827 5.7891357690095884 4.7287737727165222 5.7891157120466286 3.1974992305040351 8.0961891412734968 2.6986871212720871 2.6297931820154181 5.4522798806428892 3.8819870501756668 2.8680746108293533 270.27460473775864 5.370026767253874 5.463756948709487 4.7719752639532089 3.5390667915344238 2.7790562063455582 50.95608015358448 2.4173610210418701 7.2076081186532965 2.3547700047492981 2.482525333762168
leaf_count=25048 19697 79 3736 169 2719 49 106 13 32 26 22 26 13 37 12 11 23 17 12 1297 22 22 22 15 12 244 10 29 10 10
internal_value=-0.000109886 -0.0509629 0.0771165 -0.0693505 -0.0696603 -0.0618701 -0.0093932 -0.0370584 -0.0682414 -0.0523361 0.00364086 -0.0472518 -0.0272432 -0.0391457 -0.0182777 0.0439859 0.0266061 -0.00542183 0.0516721 -0.0706796 -0.0652528 0.0314746 0.00725479 0.0155926 -0.0489912 -0.0669238 -0.0398748 0.0120703 0.0474099 0.00375988
internal_weight=11753.7 7165.08 899.51 6265.56 6225.3 720.258 77.9801 51.3609 642.277 74.5805 15.4179 45.8302 23.3206 20.1231 12.0269 26.6192 14.8321 6.51178 8.32035 5505.04 285.88 15.6058 10.142 6.23775 7.50783 59.1626 8.2065 29.1756 5.53069 21.968
internal_count=53540 33843 3854 29989 29820 3409 344 232 3065 346 66 209 103 90 53 112 63 28 35 26411 1363 66 44 27 34 280 36 118 23 89
is_linear=0
shrinkage=0.05


Tree=9
num_leaves=31
num_cat=0
split_feature=2 0 0 2 3 0 1 0 3 0 0 2 1 2 0 3 3 0 2 0 0 2 0 3 1 1 1 1 1 1
split_gain=17584.6 6273.33 48.5051 36.3045 19.1275 94.6177 46.3412 18.9581 8.28441 12.5265 7.55013 26.7894 8.20921 7.44432 5.21107 7.48679 4.43296 14.2301 4.02285 6.41037 3.22077 6.1658 4.58905 2.22805 1.98618 2.66442 5.45895 2.8785 3.77249 3.23165
threshold=3.6732737391461519 39.985000000000007 40.295000000000009 3.6362733758457275 0.54054804804804812 24.625000000000004 0.55881880252296623 33.945000000000007 0.57577352472089327 31.195000000000004 20.855000000000004 0.42751356006598429 0.70379129497083293 0.59304002936754652 28.065000000000005 0.65442222222222235 0.59519259259259272 34.155000000000008 0.73866545861055533 35.915000000000006 30.335000000000004 0.52871969939971619 29.485000000000003 0.3826747967479675 10.049949827406056 4.2763168878252662 3.9457673528336952 5.9866872869691639 6.4489762516895253 7.0040934526272203
decision_type=2 2 2 2 2 2 2 2 2 2 2 2 2 2 2 2 2 2 2 2 2 2 2 2 2 2 2 2 2 2
left_child=1 3 23 4 -1 10 16 8 -8 13 -6 12 -12 14 15 -10 17 -7 -9 -20 21 -18 -23 -3 25 26 -5 -27 -29 -30
right_child=-2 2 -4 24 5 6 7 18 9 -11 11 -13 -14 -15 -16 -17 20 -19 19 -21 -22 22 -24 -25 -26 27 -28 28 29 -31
leaf_value=-0.069386345025050519 0.077063503746872597 0.0035712770181082821 0.077063503746872597 -0.024321926178906904 -0.068486419987177596 -0.055673031378261177 -0.070516796587211356 0.085005389612327287 -0.072215405030046739 0.042424859137164123 0.051318796405853795 -0.068869068038349149 -0.03386378346374979 -0.068364283860159747 0.021850399166048712 0.011188028097697178 0.064034271685077554 0.068516108492998037 -0.034772210195863108 0.071389478500942405 0.078786379337256754 -0.046955269927633818 0.045718907205006078 0.035646627816299223 0.019419007849977118 -0.054206990295301599 0.056514834835967136 0.019618320518802527 -0.080829023201480873 -0.020256855117184131
leaf_weight=5159.3082625716925 4488.0390352457762 21.969899728894237 851.26231586933136 7.6647337675094587 736.13085144758224 4.452422112226488 23.600597649812698 2.562797009944914 6.7945635765790957 4.8361075073480597 7.1068167984485608 37.793807700276375 4.6981996148824692 15.793721467256544 5.0741238892078391 4.4548980593681335 8.0728217363357562 4.7862174063920975 3.3826528489589691 2.4532118886709213 6.7094248384237281 2.9519465714693061 2.4399252384901047 7.1845291554927817 2.8943796157836905 9.4277932196855563 2.8706914782524109 4.4814155399799374 2.8312377333641043 9.9079545289278013
leaf_count=25511 19697 89 3736 32 3628 20 115 11 32 20 29 186 21 76 21 19 34 20 15 10 29 13 10 29 12 40 12 19 12 42
internal_value=-0.000114688 -0.0498539 0.0748916 -0.0679074 -0.0682219 -0.0614267 -0.0151969 -0.0376112 -0.0473751 -0.0325955 -0.0672142 -0.048332 0.0174176 -0.0438918 -0.0202136 -0.0391868 0.0373492 0.00866504 0.0327865 0.00985479 0.050485 0.0363824 -0.00501843 0.0114756 -0.0204765 -0.023582 -0.00229553 -0.0319976 -0.0198386 -0.0337188
internal_weight=11451.9 6963.9 880.417 6083.48 6043.4 884.095 98.3654 68.9527 60.554 36.9534 785.73 49.5988 11.805 32.1173 16.3236 11.2495 29.4128 9.23864 8.39866 5.83586 20.1741 13.4647 5.39187 29.1544 40.0782 37.1838 10.5354 26.6484 17.2206 12.7392
internal_count=53540 33843 3854 29989 29820 4309 445 319 283 168 3864 236 50 148 72 51 126 40 36 25 86 57 23 118 169 157 44 113 73 54
is_linear=0
shrinkage=0.05


Tree=10
num_leaves=31
num_cat=0
split_feature=2 0 0 2 3 0 1 0 0 2 1 3 0 2 0 0 2 0 2 1 0 2 2 0 1 0 2 0 0 0
split_gain=16318.9 5839.44 46.3286 35.49 18.5205 86.2081 39.1274 15.178 8.17565 22.8623 14.2278 7.06542 7.4386 4.8903 5.47726 3.46538 57.9147 6.56414 13.2604 3.40653 4.07906 5.03415 4.99466 2.9895 2.91392 2.86775 2.49854 9.40386 2.35552 2.05011
threshold=3.6732737391461519 39.985000000000007 40.295000000000009 3.6362733758457275 0.56408249158249169 24.385000000000005 0.55881880252296623 32.745000000000012 16.275000000000002 0.38821049476047104 0.63511760757223279 0.60260879629629638 29.995000000000005 0.55321025358246223 25.995000000000005 35.915000000000006 0.94247399283370525 38.785000000000004 0.86108658930604587 0.30662405965657807 29.485000000000003 0.64750546395207775 0.50812064965197234 38.025000000000013 1.0393766272217804 20.005000000000006 0.42751356006598429 23.165000000000003 37.055000000000007 33.945000000000007
decision_type=2 2 2 2 2 2 2 2 2 2 2 2 2 2 2 2 2 2 2 2 2 2 2 2 2 2 2 2 2 2
left_child=1 3 -3 4 15 8 19 11 -6 10 -10 -8 13 14 -13 -1 17 18 28 -7 22 -22 -21 -20 -16 -12 27 -11 -17 -9
right_child=-2 2 -4 -5 5 6 7 29 9 26 25 12 -14 -15 24 16 -18 -19 23 20 21 -23 -24 -25 -26 -27 -28 -29 -30 -31
leaf_value=-0.068223281071396372 0.075056234026822682 0.010909890884363053 0.075056234026822682 -0.019565484613065665 -0.067543800600406739 0.06137721688981649 -0.065184509337365998 0.01808866018022778 0.051809298151882843 -0.074037423603323771 -0.070185923337836353 -0.052082860655972209 0.04563527260503307 -0.067528484981396034 -0.023615458445182924 0.036202558085690263 -0.068272273186280166 0.097434085345970728 -0.069976743331632507 0.048723449748358787 0.077531152240870538 -0.0052121207313229169 -0.041539778718396703 0.0044828746723600595 0.045904480254665099 -0.0052053509562024853 -0.068511138693608642 0.04426206636563057 0.09375668737433332 0.080403426022153321
leaf_weight=4908.9770113825798 4380.3858143985271 29.134939730167389 830.84334683418274 39.867349028587341 534.47293336689472 11.478294894099237 21.328369632363319 3.1623840183019629 7.8449591696262342 5.5560928583145133 4.4694089293479919 5.6191370040178352 3.1930579096078864 7.7501128613948813 2.6329198330640793 4.7153931409120577 253.24238592386246 2.8887436687946311 3.6648780703544617 2.5725074559450141 5.2367069423198682 2.8325304836034775 3.7912230938673019 2.1323436498641968 3.5256987065076828 2.7381022870540619 47.961571395397186 2.407927080988884 2.8536120653152466 2.2653933167457581
leaf_count=25048 19697 118 3736 169 2719 49 106 13 32 26 22 26 13 37 12 20 1292 12 18 11 23 12 17 9 15 12 244 10 12 10
internal_value=-0.000118545 -0.0488368 0.072883 -0.066581 -0.0669009 -0.0591483 -0.00872755 -0.0347951 -0.0654265 -0.0494826 0.00521505 -0.0445163 -0.0251147 -0.0366833 -0.0163862 -0.0679202 -0.0623999 0.0290877 0.0143165 0.041048 0.0248805 0.0484859 -0.0050513 -0.0425889 0.0161835 -0.0455001 -0.0642046 -0.0382695 0.0579012 0.044097
internal_weight=11139.5 6759.16 859.978 5899.18 5859.31 680.839 75.3883 49.4771 605.451 70.9781 15.0525 44.0493 22.7209 19.5279 11.7778 5178.47 269.497 16.255 13.3662 25.9113 14.433 8.06924 6.36373 5.79722 6.15862 7.20751 55.9256 7.96402 7.56901 5.42778
internal_count=53540 33843 3854 29989 29820 3409 344 232 3065 346 66 209 103 90 53 26411 1363 71 59 112 63 35 28 27 27 34 280 36 32 23
is_linear=0
shrinkage=0.05


Tree=11
num_leaves=31
num_cat=0
split_feature=2 0 0 2 3 0 1 0 0 3 1 2 0 2 2 0 0 2 3 2 0 0 2 0 2 3 3 0 3 0
split_gain=15171.2 5443.51 44.5009 34.8411 18.0351 85.1999 39.379 15.6186 7.42588 24.5802 15.616 7.1906 4.50065 10.6004 5.76482 7.99686 3.6571 13.554 2.82492 2.80728 7.68288 2.13778 41.3124 4.19435 8.34498 2.02705 1.96531 2.92605 2.10264 2.02107
threshold=3.6732737391461519 39.985000000000007 40.295000000000009 3.6362733758457275 0.54535897435897451 24.625000000000004 0.55881880252296623 34.645000000000003 16.275000000000002 0.68563333333333343 0.81455568604736628 0.4806232481810937 31.015000000000004 0.69757179814651071 0.59304002936754652 28.065000000000005 32.335000000000008 0.64750546395207775 0.55438750000000014 0.52871969939971619 29.485000000000003 37.055000000000007 0.94247399283370525 38.785000000000004 0.86108658930604587 0.3826747967479675 0.1645584415584416 18.855000000000004 0.17801960784313728 27.355000000000004
decision_type=2 2 2 2 2 2 2 2 2 2 2 2 2 2 2 2 2 2 2 2 2 2 2 2 2 2 2 2 2 2
left_child=1 3 25 4 21 8 16 11 -6 -10 -11 -8 14 -14 15 -13 17 19 -9 -7 -21 -1 23 24 -23 -3 -5 -28 -29 -30
right_child=-2 2 -4 26 5 6 7 18 9 10 -12 12 13 -15 -16 -17 -18 -19 -20 20 -22 22 -24 -25 -26 -27 27 28 29 -31
leaf_value=-0.067036312481432145 0.073244449824792862 0.0028431594939090964 0.073244449824792862 0.00563076284469148 -0.066447206383349139 0.061788605298397394 0.032775170293890481 0.01057288141142439 -0.067145104658713456 0.027036479162776017 -0.055208129697935197 -0.058456190180896865 0.033764909147480489 -0.05869340018844918 -0.068153918711679071 0.021571913742153854 0.065249949948827227 -0.073256985168303132 0.082399932789631591 -0.043940389382787992 0.05899759910710603 0.091404372934345196 -0.067067554571996132 0.091924735391054072 -0.027616431993533225 0.033490067912198711 -0.065576829341918608 0.011354478349182129 -0.041272027712098501 -0.012038050139585085
leaf_weight=4698.2070617079735 4267.1700266748667 21.997680917382244 809.36930596828461 6.8747906088829032 622.39889939129353 8.9351313412189572 2.9851780533790579 2.8017854392528525 63.099875152111053 13.772276833653452 9.9351246953010541 8.2011624127626401 5.2179959118366224 7.6377143263816833 27.489583626389503 5.0399010181426993 8.0125730186700803 2.9692114889621726 2.6766515821218491 2.8876596540212622 4.869042843580246 2.4242689311504346 167.33427965641022 2.9082101881504059 3.7520460337400436 7.1489796787500373 3.7118845731019965 4.9209528714418438 10.306039199233057 13.867188259959219
leaf_count=24769 19697 89 3736 29 3271 39 12 12 332 57 49 40 22 38 142 21 35 14 12 13 21 10 882 12 17 29 16 21 44 59
internal_value=-0.000121904 -0.0479056 0.0710586 -0.0653656 -0.0656921 -0.0587288 -0.0128229 -0.0349443 -0.0645365 -0.0508367 -0.00742999 -0.0427506 -0.046958 -0.0211656 -0.0550988 -0.0279954 0.0367777 0.0251742 0.0456661 0.0426835 0.0206759 -0.0668334 -0.0614299 0.0424136 0.0191005 0.0103601 -0.0186769 -0.0237707 -0.018437 -0.0245017
internal_weight=10818.9 6551.75 838.516 5713.24 5673.56 798.93 89.7236 62.05 709.206 86.8073 23.7074 56.5715 53.5864 12.8557 40.7306 13.2411 27.6736 19.661 5.47844 16.6918 7.7567 4874.63 176.419 9.08453 6.17631 29.1467 39.6809 32.8061 29.0942 24.1732
internal_count=53540 33843 3854 29989 29820 4130 421 299 3709 438 106 275 263 60 203 61 122 87 24 73 34 25690 921 39 27 118 169 140 124 103
is_linear=0
shrinkage=0.05


Tree=12
num_leaves=31
num_cat=0
split_feature=2 0 0 2 3 0 1 0 3 0 2 1 0 3 0 3 0 2 2 0 2 1 0 2 0 2 0 3 2 1
split_gain=14126.7 5081.06 42.8343 34.262 17.5537 81.5787 36.315 15.8835 7.5449 10.5713 7.3333 7.24807 19.361 21.6588 4.34803 6.81417 3.56084 11.895 3.22389 5.2794 2.38589 2.04072 2.76397 3.30184 1.94897 37.111 3.98742 4.37661 1.87958 1.85362
threshold=3.6732737391461519 39.985000000000007 40.295000000000009 3.6362733758457275 0.54054804804804812 24.625000000000004 0.55881880252296623 33.945000000000007 0.57577352472089327 31.015000000000004 0.59304002936754652 0.81455568604736628 13.735000000000001 0.68563333333333343 28.065000000000005 0.65442222222222235 35.645000000000003 0.68026752202681895 0.73866545861055533 35.385000000000012 0.64750546395207775 0.30662405965657807 20.965000000000003 0.28655908672193714 37.055000000000007 0.94247399283370525 38.785000000000004 0.52175191815856781 0.57292155089746155 10.049949827406056
decision_type=2 2 2 2 2 2 2 2 2 2 2 2 2 2 2 2 2 2 2 2 2 2 2 2 2 2 2 2 2 2
left_child=1 3 -3 4 24 11 16 8 -8 10 14 12 -6 -14 15 -10 17 -7 -9 -20 -11 -15 23 -23 -1 26 27 -26 -16 -5
right_child=-2 2 -4 29 5 6 7 18 9 20 -12 -13 13 21 28 -17 -18 -19 19 -21 -22 22 -24 -25 25 -27 -28 -29 -30 -31
leaf_value=-0.065953235895516577 0.071602780063124621 0.0098513875959063326 0.071602780063124621 -0.020875279528531635 -0.062922647116985794 0.042933776092738823 -0.066905896399377482 0.079822453890129708 -0.068994590206647388 0.07199917571519994 -0.067672886597864579 -0.065760994571361184 -0.066193736791464952 0.049283528599954586 0.051699724901948567 0.012003851188669888 0.079933413132614817 -0.049477467024490948 -0.05159062105722978 0.048192820191415152 0.0054877647613659564 0.02262229829513164 0.040150654796071078 -0.058985909565355189 -0.028766923978385352 -0.065960415717506549 0.087120604626673551 0.057222426166795584 -0.0093512014614760882 0.020790817887064585
leaf_weight=4509.2197203487158 4149.7312433719635 29.121682107448578 787.09427452087402 36.605897217988968 94.006033062934875 20.177205413579948 21.523522138595581 2.4101702272891981 6.3369154036045092 2.3887853324413291 13.844052985310553 594.56727677583694 11.434750854969026 5.5542806684970847 2.4645481854677191 4.3991211205720901 3.6507302224636069 4.2085053473711005 2.1213212162256241 3.5338224023580551 3.0956811308860779 2.7372705936431867 4.3545058965682983 2.2650938183069229 2.862027704715727 161.77670502662659 2.9149230122566223 3.0638489127159119 2.5809824764728546 2.8792428374290457
leaf_count=24591 19697 118 3736 157 510 90 115 11 32 10 73 3229 62 23 10 19 16 20 10 15 13 12 18 10 13 882 12 13 11 12
internal_value=-0.000124745 -0.0470491 0.0693996 -0.064246 -0.06458 -0.0577727 -0.0136511 -0.0342481 -0.0435971 -0.0293082 -0.0411128 -0.0634959 -0.052306 -0.0144244 -0.0178135 -0.0358053 0.0338799 0.0269854 0.0313999 0.0107627 0.0344571 0.0252754 0.0110241 -0.0143303 -0.0657548 -0.0605091 0.0392429 0.015692 0.0204698 -0.017837
internal_weight=10492.9 6343.19 816.216 5526.98 5487.49 807.655 92.7354 64.6989 56.6336 35.1101 29.6256 714.919 120.352 26.3459 15.7816 10.736 28.0364 24.3857 8.06531 5.65514 5.48447 14.9112 9.35687 5.00236 4679.84 170.618 8.8408 5.92588 5.04553 39.4851
internal_count=53540 33843 3854 29989 29820 4309 445 319 283 168 145 3864 635 125 72 51 126 110 36 25 23 63 40 22 25511 920 38 26 21 169
is_linear=0
shrinkage=0.05


Tree=13
num_leaves=31
num_cat=0
split_feature=2 0 0 2 3 0 1 0 3 0 1 0 3 2 0 3 2 0 3 0 3 2 0 2 0 3 1 0 2 3
split_gain=13173 4748.26 41.4279 33.7736 17.1245 77.8175 33.4674 14.7188 7.26449 9.7535 7.07694 18.4708 20.1904 7.01697 3.99833 6.42244 3.37532 11.6923 3.05313 2.93544 7.29519 2.13792 1.901 34.967 3.60899 3.92965 1.85448 2.50261 3.02264 1.84525
threshold=3.6732737391461519 39.985000000000007 40.295000000000009 3.6362733758457275 0.54054804804804812 24.625000000000004 0.55881880252296623 33.945000000000007 0.57577352472089327 31.015000000000004 0.81455568604736628 13.735000000000001 0.68563333333333343 0.59304002936754652 28.065000000000005 0.65442222222222235 0.52871969939971619 29.005000000000006 0.55438750000000014 35.645000000000003 0.58150997150997163 0.64750546395207775 37.055000000000007 0.94247399283370525 38.785000000000004 0.52175191815856781 0.30662405965657807 20.965000000000003 0.28655908672193714 0.3826747967479675
decision_type=2 2 2 2 2 2 2 2 2 2 2 2 2 2 2 2 2 2 2 2 2 2 2 2 2 2 2 2 2 2
left_child=1 3 29 4 22 10 16 8 -8 13 11 -6 -13 14 15 -10 -7 -18 -9 20 -19 -11 -1 24 25 -24 -14 28 -28 -3
right_child=-2 2 -4 -5 5 6 7 18 9 21 -12 12 26 -15 -16 -17 17 19 -20 -21 -22 -23 23 -25 -26 -27 27 -29 -30 -31
leaf_value=-0.064935065873230099 0.070110044940772207 0.0022058452033773112 0.070110044940772207 -0.017028953073523399 -0.061832980784009429 0.058447986425278597 -0.065820571679769832 0.0033344756519592409 -0.067735815929796842 0.068081069552921369 -0.064725091589481129 -0.065158088047317653 0.047063421571925175 -0.066536396594831668 0.019516125530569261 0.011383735772359207 -0.069792008781007497 -0.040968200046364207 0.065866668739489917 0.077714922674222919 0.04799624979182826 0.0052099715535329771 -0.027545697487766835 -0.064941630490219435 0.082883820559492297 0.053954211913343167 0.021403084051238488 0.038243998164432906 -0.056945066117264131 0.031504112779569333
leaf_weight=4354.8406274467707 4029.2349854409695 22.020201429724697 764.23932099342346 39.297270506620407 90.95698070526123 8.6575382947921771 20.802778005599976 4.5408470928668967 6.1370127052068728 2.3996372669935218 574.39054098725319 11.045540869235994 5.5261853933334342 13.388055488467215 5.0282607376575461 4.4066206812858582 3.0010142326355007 3.0474512279033688 3.423797145485878 3.5692581087350836 9.4496885389089567 3.0976525694131851 2.8400394767522794 156.23925206065178 2.9107930958271027 3.0863504707813263 2.7482454627752286 4.343300387263298 2.2298588007688522 7.1092112809419623
leaf_count=24591 19697 89 3736 169 510 39 115 20 32 10 3229 62 23 73 21 19 15 14 16 16 42 13 13 882 12 13 12 18 10 29
internal_value=-0.000127176 -0.046258 0.0678794 -0.0632111 -0.0635533 -0.0567227 -0.013245 -0.03333 -0.0424889 -0.0284029 -0.0624432 -0.0512265 -0.0139681 -0.0399929 -0.0171719 -0.0346685 0.0325575 0.0208019 0.0302155 0.0377238 0.0263021 0.032654 -0.0647354 -0.0594687 0.0372911 0.0148979 0.0241135 0.0105077 -0.0136917 0.00935627
internal_weight=10164 6134.77 793.369 5341.4 5302.11 782.19 90.9496 63.2247 55.26 34.4572 691.241 116.85 25.8931 28.9599 15.5719 10.5436 27.725 19.0674 7.96464 16.0664 12.4971 5.49729 4519.92 165.076 8.83718 5.92639 14.8476 9.3214 4.9781 29.1294
internal_count=53540 33843 3854 29989 29820 4309 445 319 283 168 3864 635 125 145 72 51 126 87 36 72 56 23 25511 920 38 26 63 40 22 118
is_linear=0
shrinkage=0.05


Tree=14
num_leaves=31
num_cat=0
split_feature=2 0 0 2 3 0 1 0 3 0 1 0 3 2 0 3 2 0 2 0 0 2 0 2 0 3 3 0 3 0
split_gain=12299.8 4442.12 40.1198 33.3656 16.7133 74.2406 30.8896 13.65 7.01144 9.07906 6.92505 17.6386 18.8433 6.10226 3.67776 6.06271 3.12533 10.7997 2.89657 5.02107 2.76698 6.65875 1.85563 32.9942 3.28318 3.53393 1.81044 2.77144 1.9503 1.87858
threshold=3.6732737391461519 39.985000000000007 40.295000000000009 3.6362733758457275 0.54054804804804812 24.625000000000004 0.55881880252296623 33.945000000000007 0.57577352472089327 31.195000000000004 0.81455568604736628 13.735000000000001 0.68563333333333343 0.59304002936754652 28.065000000000005 0.65442222222222235 0.52871969939971619 29.005000000000006 0.73866545861055533 35.915000000000006 35.645000000000003 0.69757179814651071 37.055000000000007 0.94247399283370525 38.785000000000004 0.52175191815856781 0.1645584415584416 18.855000000000004 0.17801960784313728 27.355000000000004
decision_type=2 2 2 2 2 2 2 2 2 2 2 2 2 2 2 2 2 2 2 2 2 2 2 2 2 2 2 2 2 2
left_child=1 3 -3 4 22 10 16 8 -8 13 11 -6 -13 14 15 -10 -7 -18 -9 -20 21 -19 -1 24 25 -24 -5 -28 -29 -30
right_child=-2 2 -4 26 5 6 7 18 9 -11 -12 12 -14 -15 -16 -17 17 20 19 -21 -22 -23 23 -25 -26 -27 27 28 29 -31
leaf_value=-0.063996120441424567 0.068748411948667265 0.0088982176559648431 0.068748411948667265 0.0071415645221803341 -0.060812400412834026 0.056660153367525182 -0.064820739976917605 0.076097871788555774 -0.066581010240320704 0.035873112488687894 -0.063768191974523464 -0.064203318766414968 0.023020095558945398 -0.062512554353252148 0.018528147608805542 0.010797256532425747 -0.068474095955165473 0.046126893112738876 -0.030910509421621053 0.064757283786968864 0.075715345254406763 -0.039253506340520349 -0.02637597663874864 -0.064002127503382369 0.079109911582961295 0.050964251826450813 -0.062505063933856075 0.012763706422249594 -0.038277720577411557 -0.0098538662896320087
leaf_weight=4201.6796862334013 3906.69297555089 29.100289031863213 740.996342420578 6.826886072754859 87.9359992146492 8.4884978979825991 20.085647568106651 2.3024578839540473 5.9363697469234484 4.8391418457031241 554.36691844463348 10.659104049205782 14.774882689118384 13.598559021949766 5.0314754843711844 4.4134963899850845 2.9081894904375103 9.34374091029167 3.2458049356937408 2.3751665502786636 3.4825386255979529 3.0221951454877845 2.8182556778192502 150.74532812833786 2.8974780142307281 3.1035756766796112 3.607119768857955 4.887722477316859 10.096268072724344 13.70239098370075
leaf_count=24591 19697 118 3736 29 510 39 115 11 32 20 3229 62 63 76 21 19 15 42 15 10 16 14 13 882 12 13 16 21 44 59
internal_value=-0.000129229 -0.0455268 0.0664868 -0.0622533 -0.0626049 -0.0557459 -0.0128687 -0.0324146 -0.0414217 -0.0275247 -0.0614655 -0.0502058 -0.0135343 -0.038111 -0.0165377 -0.0335846 0.0314871 0.0200948 0.0288628 0.00951434 0.0363472 0.0252602 -0.0637951 -0.0585027 0.0354967 0.0141573 -0.0162526 -0.0211981 -0.016004 -0.0219123
internal_weight=9833.96 5927.27 770.097 5157.17 5118.05 756.81 89.0733 61.8281 53.9047 33.819 667.737 113.37 25.434 28.9799 15.3813 10.3499 27.2452 18.7567 7.92343 5.62097 15.8485 12.3659 4361.24 159.565 8.81931 5.92183 39.1204 32.2935 28.6864 23.7987
internal_count=53540 33843 3854 29989 29820 4309 445 319 283 168 3864 635 125 148 72 51 126 87 36 25 72 56 25511 920 38 26 169 140 124 103
is_linear=0
shrinkage=0.05


Tree=15
num_leaves=31
num_cat=0
split_feature=2 0 0 2 3 0 1 0 3 0 1 0 2 2 0 3 3 0 2 3 3 0 0 3 1 2 0 2 0 2
split_gain=11498.3 4159.78 39.0132 32.9795 16.3436 70.8618 31.2322 13.1851 6.5645 8.81541 6.02257 15.5075 16.4142 6.00373 3.88945 5.37329 3.26771 4.61336 6.70825 2.77527 2.44599 8.16686 2.3957 4.29871 2.29937 1.97722 1.81287 31.1748 2.99979 5.96911
threshold=3.6732737391461519 39.985000000000007 40.295000000000009 3.6362733758457275 0.54054804804804812 24.385000000000005 0.55881880252296623 33.945000000000007 0.57577352472089327 31.015000000000004 0.81455568604736628 13.735000000000001 0.38821049476047104 0.59304002936754652 28.065000000000005 0.65442222222222235 0.68563333333333343 29.005000000000006 0.52871969939971619 0.54969223484848495 0.59519259259259272 34.155000000000008 23.415000000000003 0.68563333333333343 0.4428835442569668 0.64750546395207775 37.055000000000007 0.94247399283370525 38.785000000000004 0.86108658930604587
decision_type=2 2 2 2 2 2 2 2 2 2 2 2 2 2 2 2 2 2 2 2 2 2 2 2 2 2 2 2 2 2
left_child=1 3 -3 4 26 10 16 8 -8 13 11 -6 24 14 15 -10 17 18 -7 -9 21 -19 -14 -24 -13 -11 -1 28 29 -28
right_child=-2 2 -4 -5 5 6 7 19 9 25 -12 12 22 -15 -16 -17 -18 20 -20 -21 -22 -23 23 -25 -26 -27 27 -29 -30 -31
leaf_value=-0.063128522114284935 0.067502800872692975 0.0084519096058916481 0.067502800872692975 -0.015522628740395018 -0.059853407349162537 0.031379872367846201 -0.06385056534582155 -0.0066981191067612316 -0.065283365788882317 0.063924707673827796 -0.062880440423487005 0.051657670731303111 -0.067008640872234168 -0.06451595472394285 0.017593575634766198 0.0048519113589538523 0.074368106520303609 -0.046664407413847628 -0.06706972349193073 0.053602998702807859 0.054644317167115319 0.059907705963939566 -0.063380134424863607 0.034518718935121782 0.002817894117800231 0.0034570118331396825 0.078434649562757405 -0.063134039464438713 0.07571822012342333 -0.025380091466426377
leaf_weight=4050.2899520248175 3782.97986805439 29.104965776205063 717.53123760223389 38.927133411169052 84.953430742025375 4.1176737099886003 20.694423571228981 3.3283058255910865 6.3981318920850807 2.3961577713489524 532.40917061269283 6.4391556084156054 8.406864181160925 12.998769789934157 5.0337473005056372 4.7645564377307892 3.6932929158210746 3.0349501371383694 2.9843686670064926 4.4715586453676224 9.6057529449462873 4.4094981551170349 2.6606888622045508 1.9380699396133421 3.8512860983610153 3.1021426022052765 2.212460130453108 145.31477889418602 2.8764182329177856 3.7005067467689514
leaf_count=24591 19697 118 3736 169 510 19 123 15 36 10 3216 27 48 76 21 21 17 14 16 21 45 20 16 8 17 13 9 882 12 17
internal_value=-0.000130976 -0.0448484 0.0652009 -0.0613643 -0.0617258 -0.0548291 -0.0135505 -0.0329921 -0.0415631 -0.0282688 -0.0606945 -0.0499433 -0.0138042 -0.0392065 -0.0188938 -0.0353476 0.0305669 0.023869 -0.0099899 0.0278717 0.0379725 0.0164604 -0.0511369 -0.0221223 0.033379 0.0298088 -0.062926 -0.0576032 0.0338376 0.0134644
internal_weight=9504.63 5721.65 746.636 4975.01 4936.09 731.692 91.0333 63.1878 55.3879 34.6935 640.659 108.249 23.2961 29.1952 16.1964 11.1627 27.8455 24.1522 7.10204 7.79986 17.0502 7.44445 13.0056 4.59876 10.2904 5.4983 4204.39 154.104 8.78939 5.91297
internal_count=53540 33843 3854 29989 29820 4309 467 336 300 177 3842 626 116 154 78 57 131 114 35 36 79 34 72 24 44 23 25511 920 38 26
is_linear=0
shrinkage=0.05


Tree=16
num_leaves=31
num_cat=0
split_feature=2 0 0 2 3 0 1 0 1 0 2 3 0 2 2 0 0 2 3 3 0 3 2 0 1 0 3 1 0 3
split_gain=10760.9 3898.93 38.023 32.6785 15.997 67.7652 28.8749 12.3414 5.91835 14.8356 15.2101 5.12121 3.8673 7.44511 4.43825 6.43205 3.86426 6.69601 3.53893 3.06464 4.28197 7.91918 2.89858 6.30377 2.4279 2.28261 4.01696 2.10434 1.76781 29.5336
threshold=3.6732737391461519 39.985000000000007 40.295000000000009 3.6362733758457275 0.54054804804804812 24.385000000000005 0.55881880252296623 34.855000000000011 0.81455568604736628 13.735000000000001 0.38821049476047104 0.66728735632183922 29.995000000000005 0.64750546395207775 0.55321025358246223 26.505000000000003 32.745000000000012 0.73866545861055533 0.54969223484848495 0.68563333333333343 30.335000000000004 0.62050245098039236 0.64750546395207775 34.155000000000008 0.30662405965657807 23.415000000000003 0.68563333333333343 0.4428835442569668 37.055000000000007 0.50543560606060622
decision_type=2 2 2 2 2 2 2 2 2 2 2 2 2 2 2 2 2 2 2 2 2 2 2 2 2 2 2 2 2 2
left_child=1 3 -3 4 28 8 19 11 9 -6 27 12 14 -14 15 -8 -15 -18 -9 20 21 -7 -22 -24 -23 -12 -27 -11 -1 -30
right_child=-2 2 -4 -5 5 6 7 18 -10 10 25 -13 13 16 -16 -17 17 -19 -20 -21 22 24 23 -25 -26 26 -28 -29 29 -31
leaf_value=-0.062325394219354652 0.066360304882284712 0.0080283460197712736 0.066360304882284712 -0.014812307410342848 -0.058949399020792818 -0.07014459014972399 -0.06738323142182881 0.00082633154538118729 -0.062058654910942826 0.049457157009600294 -0.065987813575410795 0.028597317454145565 0.034168227635369912 -0.06542543846667262 -0.06281283879326359 0.020174018604036319 0.031785976247486969 -0.065934132650470975 0.080198472650226962 0.072648422109582583 0.069066688157888648 0.057913051197706504 -0.04083242536159086 0.057882124318333034 0.0024520615833726902 -0.062559094340830054 0.032994160778381361 0.0026755847759904268 -0.062045974578956935 0.037356031787757607
leaf_weight=3901.1369289308786 3658.8511529862881 29.108382984995842 693.98730301856995 38.758581936359406 82.017946124076843 2.9289135187864366 3.9627569764852506 2.9647742658853522 512.97882397472858 6.3906082063913363 8.1174114793539029 2.6526124328374854 4.2114921063184765 7.7892335653305036 25.975111320614815 4.4562330543994904 3.7168748527765274 3.3178635835647583 2.6682385057210922 3.5941934287548056 5.7722711414098722 3.4078069478273374 2.5787633955478668 4.3374601602554321 4.6878024637699127 2.563295602798461 1.9265380501747129 3.8532702922821045 140.80283772945404 7.8912872523069373
leaf_count=24591 19697 118 3736 169 510 15 22 13 3216 27 48 11 18 46 157 21 16 19 13 17 29 16 12 20 22 16 8 17 886 34
internal_value=-0.000132458 -0.0442177 0.0640121 -0.0605375 -0.06091 -0.0539696 -0.0131852 -0.0321271 -0.0598461 -0.0490229 -0.0133942 -0.0392133 -0.0425799 -0.024498 -0.0525873 -0.0210385 -0.0411651 -0.0143027 0.0384232 0.0296241 0.0231029 0.000308752 0.0429078 0.0210757 0.0257981 -0.0501651 -0.0215582 0.0318601 -0.0621214 -0.0567706
internal_weight=9177.41 5518.56 723.096 4795.46 4756.7 706.87 89.0224 61.7152 617.848 104.869 22.8511 56.0822 53.4296 19.0355 34.3941 8.41899 14.824 7.03474 5.63301 27.3072 23.713 11.0245 12.6885 6.91622 8.09561 12.6072 4.48983 10.2439 4049.83 148.694
internal_count=53540 33843 3854 29989 29820 4309 467 336 3842 626 116 310 299 99 200 43 81 35 26 131 114 53 61 32 38 72 24 44 25511 920
is_linear=0
shrinkage=0.05


Tree=17
num_leaves=31
num_cat=0
split_feature=2 0 0 2 3 0 1 0 1 0 3 2 0 2 0 2 0 2 3 0 2 0 2 0 0 2 0 3 1 1
split_gain=10080.8 3657.41 37.1329 32.4171 15.6782 64.8978 24.4305 11.0205 6.57029 15.4204 15.3794 5.25448 3.61153 6.34905 4.00206 6.88318 3.69956 6.2289 3.32461 2.69288 8.26799 1.86548 3.38462 2.09863 1.74579 28.0885 2.84421 2.82507 1.74126 2.43381
threshold=3.6732737391461519 39.985000000000007 40.295000000000009 3.6362733758457275 0.54054804804804812 24.625000000000004 0.55881880252296623 34.855000000000011 0.81455568604736628 13.735000000000001 0.68563333333333343 0.4806232481810937 28.065000000000005 0.57292155089746155 29.995000000000005 0.64750546395207775 32.745000000000012 0.73866545861055533 0.54969223484848495 35.645000000000003 0.68026752202681895 32.335000000000008 0.57292155089746155 30.495000000000005 37.055000000000007 0.94247399283370525 38.785000000000004 0.52175191815856781 10.049949827406056 4.2763168878252662
decision_type=2 2 2 2 2 2 2 2 2 2 2 2 2 2 2 2 2 2 2 2 2 2 2 2 2 2 2 2 2 2
left_child=1 3 -3 4 24 8 19 11 9 -6 -11 -8 -13 -14 -15 -16 -17 -18 -9 20 21 22 -7 -24 -1 26 27 -26 29 -5
right_child=-2 2 -4 28 5 6 7 18 -10 10 -12 12 13 14 15 16 17 -19 -20 -21 -22 -23 23 -25 25 -27 -28 -29 -30 -31
leaf_value=-0.061580698519730165 0.065309869654160829 0.0076263039060548363 0.065309869654160829 0.0034483962447078714 -0.058094524807811965 0.044139654968187524 0.027584175424538337 0.00078496965336173142 -0.061297540296921638 -0.061793109396031831 0.019911259604197346 -0.058052132846894311 0.047309905925548117 -0.064344831626932636 0.032374672239442098 -0.064501136268386577 0.030165747546224406 -0.064956168417163326 0.078246178938387534 0.071330016747331526 -0.044014746551154421 0.073856795303048187 -0.043229545800269775 0.025643962358227568 -0.025286969290961282 -0.061588661607503009 0.07230451963689094 0.044028585453101898 0.023494050961357579 -0.025401868345660678
leaf_weight=3754.6095011085272 3534.9554834067822 29.110704302787781 670.48757100105286 10.248266622424124 79.13676443696022 11.36929953098298 2.9647430032491675 2.9649426639080039 495.90327030420303 9.5284192711114901 14.561350107192991 18.964638039469719 2.4291164726018932 9.0189495831727999 4.2222745269536999 7.5128176808357221 3.7205815017223358 3.2023539990186691 2.5998080521821976 3.2388274371623984 3.8618958890438071 2.817286789417266 2.1245013475418082 2.3072007745504379 2.7877538949251157 134.73188772797585 2.8211779892444611 3.1096846461296082 2.8478190898895255 25.49837338924408
leaf_count=24591 19697 118 3736 44 510 55 12 13 3229 62 63 117 10 55 18 46 16 19 13 16 20 14 10 11 13 882 12 13 12 113
internal_value=-0.000133691 -0.0436293 0.0629096 -0.0597654 -0.0601499 -0.0531587 -0.0118123 -0.029904 -0.0589086 -0.0474323 -0.0124059 -0.037056 -0.0409614 -0.0301956 -0.036998 -0.023779 -0.0402032 -0.013835 0.0369742 0.0287057 0.0225646 0.0363748 0.0296919 -0.00737312 -0.0613739 -0.0559604 0.0310147 0.0112627 -0.0141331 -0.0171307
internal_weight=8853.66 5318.7 699.598 4619.1 4580.51 682.449 83.3192 57.6002 599.13 103.227 24.0898 52.0355 49.0707 30.1061 27.677 18.658 14.4358 6.92294 5.56475 25.719 22.4802 18.6183 15.801 4.4317 3898.06 143.451 8.71862 5.89744 38.5945 35.7466
internal_count=53540 33843 3854 29989 29820 4309 445 319 3864 635 125 293 281 164 154 99 81 35 26 126 110 90 76 21 25511 920 38 26 169 157
is_linear=0
shrinkage=0.05


Tree=18
num_leaves=31
num_cat=0
split_feature=2 0 0 2 3 0 1 0 2 0 2 1 0 2 0 2 0 0 2 0 3 0 2 2 0 2 0 2 1 3
split_gain=9452.38 3433.41 36.329 32.159 15.4461 59.9836 25.4831 10.0395 6.69254 4.38428 16.1095 6.47194 4.27523 7.52238 3.59283 6.96628 2.95461 2.91603 7.45279 2.86372 39.0946 4.01421 10.9301 2.19843 3.40322 3.63672 3.94119 2.07957 1.97479 1.77227
threshold=3.6732737391461519 39.985000000000007 40.295000000000009 3.6362733758457275 0.56408249158249169 23.295000000000005 0.55881880252296623 32.955000000000005 0.45669544421082076 16.275000000000002 0.38821049476047104 0.63511760757223279 26.365000000000006 0.55321025358246223 29.655000000000005 0.64750546395207775 20.005000000000006 32.335000000000008 0.64750546395207775 35.915000000000006 0.50543560606060622 38.025000000000013 0.83277497520245702 0.42751356006598429 29.325000000000003 0.52871969939971619 25.385000000000005 0.88734902877497646 1.0393766272217804 0.19048809523809526
decision_type=2 2 2 2 2 2 2 2 2 2 2 2 2 2 2 2 2 2 2 2 2 2 2 2 2 2 2 2 2 2
left_child=1 3 -3 4 19 9 17 8 -8 -6 11 -11 -10 28 -15 -16 -13 18 23 -1 -21 22 -22 -7 25 26 -25 -23 -14 -5
right_child=-2 2 -4 29 5 6 7 -9 12 10 -12 16 13 14 15 -17 -18 -19 -20 20 21 27 -24 24 -26 -27 -28 -29 -30 -31
leaf_value=-0.060846813002927824 0.064341934229553949 0.0072446395341380677 0.064341934229553949 -0.0092028785292407583 -0.059934129838786258 0.06257572981315386 0.038960279995175345 0.045467954123185966 -0.064101230805158615 0.036760988334934075 -0.061936566975066623 -0.063761231677448155 -0.011947528546064021 -0.065073495724453909 0.016873427984570484 -0.060226611499014961 0.0078513055141359572 0.064739157423432545 -0.070716052411444005 -0.060689301731592975 0.055818534799366631 0.089877221121325027 -0.05596551466101457 -0.026922711441646298 0.052998681319876444 -0.043148983173034693 0.058323129821537582 0.026160788398847813 0.051291086920328424 -0.040378101353795944
leaf_weight=3679.6435537785292 3411.8475897610188 29.112074345350266 647.13725924491882 33.128297761082649 402.81588587164879 4.4741742163896658 2.6733186393976203 3.9444514811038962 14.938487082719801 6.9146247357130033 33.585288658738136 3.5083809494972229 2.1544999629259136 10.23263266682625 5.4493980854749662 6.3363900184631348 2.4434677809476852 5.0354938805103293 1.9498756676912297 190.76985239982605 4.8492183536291105 2.8159568160772315 3.9828387945890427 2.1955357044935209 5.5244060009717932 2.8776063919067383 3.54535311460495 2.3486819714307785 2.8911027014255524 5.2862517535686484
leaf_count=25048 19697 118 3736 146 2719 21 13 19 96 29 223 22 11 64 25 38 12 25 10 1297 22 12 22 11 27 14 17 10 13 23
internal_value=-0.000134755 -0.043079 0.0618839 -0.059043 -0.05944 -0.0513775 -0.00973696 -0.0309968 -0.0377479 -0.0582568 -0.0437117 0.00386074 -0.0426301 -0.0307787 -0.0433974 -0.0245778 -0.0343615 0.0306364 0.0222869 -0.0605266 -0.0547715 0.0258853 0.00540923 0.0320277 0.0223636 0.00272676 0.0257219 0.0609014 0.0242879 -0.0134929
internal_weight=8534.41 5122.56 676.249 4446.32 4407.9 523.49 74.2227 48.6203 44.6758 449.268 46.4518 12.8665 42.0025 27.064 22.0184 11.7858 5.95185 25.6024 20.567 3884.41 204.767 13.9967 8.83206 18.6171 14.1429 8.6185 5.74089 5.16464 5.0456 38.4145
internal_count=53540 33843 3854 29989 29820 3409 404 279 260 3005 286 63 247 151 127 63 34 125 100 26411 1363 66 44 90 69 42 28 22 24 169
is_linear=0
shrinkage=0.05


Tree=19
num_leaves=31
num_cat=0
split_feature=2 0 0 2 3 0 1 0 3 0 1 0 2 2 0 3 3 0 2 3 3 0 0 3 1 3 1 1 0 2
split_gain=8870.71 3225.41 35.5999 31.9638 15.2124 60.0376 22.9898 10.3996 6.06304 7.32522 5.74495 13.0746 12.7009 4.95056 3.30723 4.80069 2.80897 3.92894 5.21197 2.33727 2.10804 3.85682 2.03583 3.28043 1.78292 1.69284 1.78711 4.50449 1.6861 25.5477
threshold=3.6732737391461519 39.985000000000007 40.295000000000009 3.6362733758457275 0.54054804804804812 24.385000000000005 0.55881880252296623 33.945000000000007 0.57577352472089327 31.195000000000004 0.81455568604736628 13.735000000000001 0.38821049476047104 0.59304002936754652 28.065000000000005 0.65442222222222235 0.68563333333333343 29.005000000000006 0.52871969939971619 0.55438750000000014 0.62050245098039236 32.335000000000008 23.415000000000003 0.68563333333333343 0.4428835442569668 0.3826747967479675 5.8451684033350384 3.077017273624286 37.055000000000007 0.94247399283370525
decision_type=2 2 2 2 2 2 2 2 2 2 2 2 2 2 2 2 2 2 2 2 2 2 2 2 2 2 2 2 2 2
left_child=1 3 25 4 28 10 16 8 -8 13 11 -6 24 14 15 -10 17 18 -7 -9 21 -19 -14 -24 -13 26 27 -3 -1 -30
right_child=-2 2 -4 -5 5 6 7 19 9 -11 -12 12 22 -15 -16 -17 -18 20 -20 -21 -22 -23 23 -25 -26 -27 -28 -29 29 -31
leaf_value=-0.060246795279336122 0.063448208952893714 0.0056112582932158483 0.063448208952893714 -0.0128716504276714 -0.056476840649169337 0.025607740126389247 -0.061191731463158386 0.002110440396987232 -0.062768156261320082 0.032446078610574712 -0.0599305568469823 0.045197892691440783 -0.063953816715292308 -0.058891083253091031 0.017902636177296049 0.0057436843501812752 0.069694278329772277 -0.014563894596790517 -0.06462578422837581 0.059179180931890007 0.062856856468154559 0.045723804746262586 -0.060473315504655435 0.028651472496004877 0.0018823920108737326 0.028252055173360061 0.039977212632434984 -0.059201457230155644 0.029042803331065244 -0.060254837709688251
leaf_weight=3470.7839553207159 3289.9991396814585 16.387656897306453 624.02583062648773 38.261664360761642 73.432977765798569 3.8796738237142625 17.884295240044594 4.355622634291648 5.688189581036573 4.7515302449464789 457.06105078756809 6.2544147372245806 7.34268671274185 11.976452142000197 4.9003112763166419 4.6447561234235764 3.3772732913494101 4.2994733154773694 2.7238881438970566 3.0507686883211136 4.589151367545127 6.9267904460430145 2.2850252985954285 1.88349974155426 3.8307312428951263 7.0296334326267234 2.4902134835720053 3.2051190435886374 8.5600595921277982 124.56140524148941
leaf_count=24591 19697 66 3736 169 510 19 123 20 36 20 3216 27 48 79 21 21 17 21 16 16 23 35 16 8 17 29 10 13 38 882
internal_value=-0.00013563 -0.042564 0.0609269 -0.0583669 -0.0587776 -0.0516427 -0.0120069 -0.0296655 -0.0378798 -0.0248353 -0.0576049 -0.0464191 -0.0122203 -0.0348382 -0.0159277 -0.0319714 0.0271844 0.0207805 -0.0116125 0.0256176 0.0343059 0.0226346 -0.0481106 -0.0202033 0.028745 0.00688227 7.96745e-05 -0.00499124 -0.060035 -0.0545128
internal_weight=8220.44 4930.44 653.138 4277.31 4239.04 635.139 83.0482 57.2519 49.8455 31.9612 552.09 95.0293 21.5964 27.2097 15.2333 10.3329 25.7963 22.419 6.60356 7.40639 15.8154 11.2263 11.5112 4.16853 10.0851 29.1126 22.083 19.5928 3603.91 133.121
internal_count=53540 33843 3854 29989 29820 4309 467 336 300 177 3842 626 116 157 78 57 131 114 35 36 79 56 72 24 44 118 89 79 25511 920
is_linear=0
shrinkage=0.05


Tree=20
num_leaves=31
num_cat=0
split_feature=2 0 0 2 3 0 1 0 3 3 0 1 0 2 2 0 2 0 0 2 2 0 0 2 0 0 2 0 2 3
split_gain=8331.33 3031.92 34.8576 31.7901 15.0105 57.8568 25.459 10.554 6.62584 4.36743 7.91594 3.99545 9.74337 12.4415 2.95448 6.55022 2.9658 4.63995 2.51014 7.5715 2.23833 4.01559 1.75293 2.48284 3.64546 1.67291 24.3277 2.63275 4.93488 1.63621
threshold=3.6732737391461519 39.985000000000007 40.295000000000009 3.6362733758457275 0.54054804804804812 23.295000000000005 0.55881880252296623 33.945000000000007 0.68563333333333343 0.57577352472089327 31.395000000000003 0.81455568604736628 13.735000000000001 0.38821049476047104 0.59304002936754652 25.995000000000005 0.50812064965197234 28.065000000000005 35.645000000000003 0.68026752202681895 0.73866545861055533 35.915000000000006 32.335000000000008 0.52871969939971619 29.485000000000003 37.055000000000007 0.94247399283370525 38.785000000000004 0.86108658930604587 0.19048809523809526
decision_type=2 2 2 2 2 2 2 2 2 2 2 2 2 2 2 2 2 2 2 2 2 2 2 2 2 2 2 2 2 2
left_child=1 3 -3 4 25 11 18 8 9 -8 14 12 -6 -14 15 -11 -17 -18 19 22 -9 -22 23 -7 -25 -1 27 28 -27 -5
right_child=-2 2 -4 29 5 6 7 20 -10 10 -12 -13 13 -15 -16 16 17 -19 -20 -21 21 -23 -24 24 -26 26 -28 -29 -30 -31
leaf_value=-0.059647725952287192 0.06262144516575878 0.0065503184888596319 0.06262144516575878 -0.0081572891864804247 -0.055741880929145338 0.04171655186659845 -0.060402723075842303 0.069859803764026757 0.063833095262642942 -0.060700045730775191 0.036457055652572144 -0.059409212127504066 0.024624741258684565 -0.063162590045731243 -0.056276183484796599 0.055760114961264401 -0.063011326305354651 0.017004326662896682 0.068331720462127793 -0.043723238323276618 -0.029047454687110813 0.058544552974018171 0.070169468044810474 -0.041196542941663306 0.030393112377058957 0.068486455097907031 -0.059655179875776836 0.068055080934917273 -0.026728568113081844 -0.038327485940100936
leaf_weight=3333.8276509940624 3169.8090107738972 29.057394102215767 601.22894167900085 32.90709500014782 70.749259918928146 10.914672240614903 20.307546764612198 1.9862006157636631 1.5219081938266743 7.5185885578393998 3.8406852781772605 432.2255322188139 9.4049927890300768 7.069848120212554 14.403309375047682 1.9952922761440257 2.8742691427469254 4.901200532913208 2.9963611364364615 3.9415688663721076 3.1156453192234039 2.2558268457651138 2.60267649590969 2.7753330171108237 4.9496414512395859 2.1633149534463865 119.64722442626953 2.7341067343950272 3.6685280054807663 5.2046626955270758
leaf_count=24591 19697 118 3736 146 510 55 146 11 7 48 16 3166 41 48 98 9 18 21 16 22 15 10 14 14 24 9 882 12 17 23
internal_value=-0.000136408 -0.0420802 0.0600365 -0.0577307 -0.0581558 -0.0509397 -0.0145977 -0.0318693 -0.0391006 -0.0419059 -0.0313349 -0.0574393 -0.0476778 -0.0130474 -0.0395503 -0.0256164 0.00138043 -0.0125741 0.0250693 0.019922 0.0245078 0.00773807 0.0317315 0.0263644 0.00467327 -0.0594322 -0.0538276 0.0275712 0.00859133 -0.0122774
internal_weight=7912.6 4742.79 630.286 4112.5 4074.39 612.35 92.9007 64.7205 57.3628 55.8409 35.5333 519.45 87.2241 16.4748 31.6927 17.2894 9.77076 7.77547 28.1803 25.1839 7.35767 5.37147 21.2423 18.6396 7.72497 3462.04 128.213 8.56595 5.83184 38.1118
internal_count=53540 33843 3854 29989 29820 4309 544 399 363 356 210 3765 599 89 194 96 48 39 145 129 36 25 107 93 38 25511 920 38 26 169
is_linear=0
shrinkage=0.05


Tree=21
num_leaves=31
num_cat=0
split_feature=2 0 0 2 3 0 1 0 2 0 2 0 3 0 2 0 3 0 3 3 0 3 0 0 2 1 1 1 1 1
split_gain=7830.51 2851.79 34.2522 31.6397 14.8272 53.552 18.0939 6.87668 5.07711 3.65534 42.9581 7.45866 8.53142 5.74441 5.65163 4.1345 6.7515 3.21667 6.71429 2.7541 8.07023 2.32004 9.72661 1.87442 7.26528 3.8539 1.85286 1.6256 2.28932 5.06845
threshold=3.6732737391461519 39.985000000000007 40.295000000000009 3.6362733758457275 0.59519259259259272 20.855000000000004 0.55881880252296623 29.995000000000005 0.38821049476047104 33.155000000000008 0.88734902877497646 38.025000000000013 0.54969223484848495 35.915000000000006 0.83277497520245702 34.855000000000011 0.56906926406926417 30.335000000000004 0.62050245098039236 0.6301686176142699 25.995000000000005 0.5022227822580646 38.785000000000004 13.735000000000001 0.28655908672193714 1.1761833481323434 1.0393766272217804 10.049949827406056 4.2763168878252662 3.9457673528336952
decision_type=2 2 2 2 2 2 2 2 2 2 2 2 2 2 2 2 2 2 2 2 2 2 2 2 2 2 2 2 2 2
left_child=1 3 -3 4 9 23 17 8 -8 -1 11 12 13 -11 -15 16 -14 18 -7 -10 -21 -12 -23 -6 25 -25 -22 28 29 -5
right_child=-2 2 -4 27 5 6 7 -9 19 10 21 -13 15 14 -16 -17 -18 -19 -20 20 26 22 -24 24 -26 -27 -28 -29 -30 -31
leaf_value=-0.059073382837417115 0.06185531413276938 0.0062229652575349105 0.06185531413276938 -0.016481520835095048 -0.057912977896402144 -0.067164183971266653 0.035683348897993482 0.031482675202584284 -0.059831763633699714 -0.062202783113562136 -0.059090881825194765 0.083039771651430755 -0.041479917756284145 0.047301309663307423 -0.050536293094957697 0.07514912630043187 0.07090370126222334 0.064946194766460158 0.030433923192671099 -0.050897141838413519 -0.013064262953875095 -0.063675186986639529 0.062750188437987992 0.036514188417525746 -0.056613607799913604 -0.059380662179071224 0.046229201663517301 0.024720076285035995 -0.022779848882482835 0.06251495813531896
leaf_weight=3205.9728329628706 3051.6106283217669 29.056645452976227 578.80983436107635 7.3353204280137998 261.8725478053093 1.9741789400577605 2.3511447012424496 4.4383823275566092 11.430115073919298 6.0904177278280311 326.74479168653488 3.0668276250362387 3.0626300573348981 3.5412725061178207 2.5310210734605789 3.8768911063671112 2.3709856271743774 5.0676426142454138 16.412215366959572 12.245059013366701 2.2168724983930579 6.0736810863018018 2.029794842004776 3.6932393759489086 22.066350057721138 1.462674632668495 3.2478406727313995 2.8336277753114691 24.989920184016228 2.8076774328947067
leaf_count=24614 19697 118 3736 32 1988 11 11 20 79 42 2510 14 16 16 14 20 10 29 82 80 12 42 9 16 159 11 15 12 113 12
internal_value=-0.000137056 -0.0416261 0.059196 -0.0571346 -0.0575752 -0.0477314 -0.00448428 -0.0267834 -0.0349954 -0.0585374 -0.0537557 0.0100996 -0.00031777 -0.027892 0.00652116 0.0357036 0.00755924 0.0296758 0.0199546 -0.0406981 -0.0283491 -0.0584355 -0.0320076 -0.0566149 -0.0441277 0.0093099 0.0221756 -0.0117102 -0.0146484 0.00538545
internal_weight=7611.28 4559.67 607.866 3951.81 3913.84 348.478 59.3835 35.9294 31.491 3565.36 359.388 24.54 21.4732 12.1627 6.07229 9.31051 5.43362 23.454 18.3864 29.1399 17.7098 334.848 8.10348 289.095 27.2223 5.15591 5.46471 37.9665 35.1329 10.143
internal_count=53540 33843 3854 29989 29820 2513 339 217 197 27307 2693 132 118 72 30 46 26 122 93 186 107 2561 51 2174 186 27 27 169 157 44
is_linear=0
shrinkage=0.05


Tree=22
num_leaves=31
num_cat=0
split_feature=2 0 0 2 3 0 1 0 2 0 2 0 3 0 2 0 3 0 3 3 0 0 3 0 0 2 1 1 1 3
split_gain=7364.68 2683.79 33.6961 31.4626 14.7238 51.4295 16.6534 6.35129 4.70635 3.54743 40.9371 6.94702 8.40984 4.84268 6.62182 3.89535 6.16199 3.1065 6.13849 2.67459 8.20458 2.47114 2.25199 9.08226 1.89187 6.89296 3.55549 1.72585 1.57791 2.57284
threshold=3.6732737391461519 39.985000000000007 40.295000000000009 3.6362733758457275 0.59519259259259272 20.855000000000004 0.55881880252296623 29.995000000000005 0.38821049476047104 33.155000000000008 0.88734902877497646 37.695000000000007 0.54969223484848495 35.915000000000006 0.83277497520245702 34.855000000000011 0.56906926406926417 30.335000000000004 0.62050245098039236 0.6301686176142699 28.065000000000005 25.995000000000005 0.5022227822580646 38.785000000000004 13.735000000000001 0.28655908672193714 1.1761833481323434 1.0393766272217804 0.30662405965657807 0.68563333333333343
decision_type=2 2 2 2 2 2 2 2 2 2 2 2 2 2 2 2 2 2 2 2 2 2 2 2 2 2 2 2 2 2
left_child=1 3 -3 4 9 24 17 8 -8 -1 11 12 13 -11 -15 16 -14 18 -7 -10 21 -21 -12 -24 -6 26 -26 -23 -20 -30
right_child=-2 2 -4 -5 5 6 7 -9 19 10 22 -13 15 14 -16 -17 -18 -19 28 20 -22 27 23 -25 25 -27 -28 -29 29 -31
leaf_value=-0.058549173371696829 0.061144223235193057 0.0059120816449927827 0.061144223235193057 -0.011180421938172104 -0.057337627376173789 -0.064908827198639191 0.033685578813337717 0.029926773681706372 -0.058976425324063421 -0.061503466037685917 -0.058569255754309636 0.075763155592620757 -0.039868952784662487 0.04537411256194876 -0.067726399027044179 0.073587548737394787 0.068077949818321326 0.064014304169328823 0.044850089337785226 -0.049758123413318381 0.079665811177203782 -0.040882710595159237 -0.062939518741730358 0.060452143668553206 0.034613868648566859 -0.055776154270338579 -0.058839916582423504 0.026541120900724607 -0.0084926335855349255 0.048984086843848695
leaf_weight=3076.2263292372227 2935.6813575476408 29.055382281541824 556.82111752033234 37.795168235898018 251.53705674409866 1.9414764940738738 2.3656649589538601 4.4357409477233878 11.026350334286692 5.8575823456049019 313.50708265602589 3.4234354197978965 3.0279586911201459 3.5079551190137863 2.0507134944200516 3.7640666663646698 2.3465443700551987 4.888875186443328 8.0704614818096179 11.907725498080255 1.619749754667281 1.7176441848278039 5.8432776331901541 2.0023097395896912 3.7009871751070049 21.297340773046017 1.4038009047508238 2.1212135553359985 5.0383805036544782 3.1732850521802902
leaf_count=24614 19697 118 3736 169 1988 11 11 20 79 42 2510 16 16 16 12 20 10 29 41 80 7 10 42 9 16 159 11 10 26 15
internal_value=-0.000137589 -0.0411977 0.0584051 -0.0565721 -0.0570286 -0.0470448 -0.00435109 -0.0260057 -0.0340719 -0.0580098 -0.0532046 0.00981749 -0.00116585 -0.0297802 0.00364888 0.0345803 0.00726139 0.0286231 0.0191287 -0.0397174 -0.0274894 -0.0385118 -0.0579071 -0.0314481 -0.0560012 -0.0432684 0.00891437 -0.00362675 0.0291493 0.0137185
internal_weight=7317.16 4381.47 585.876 3795.6 3757.8 336.246 58.3066 35.1941 30.7583 3421.56 345.331 23.9783 20.5548 11.4163 5.55867 9.13857 5.3745 23.1125 18.2236 28.3927 17.3663 15.7466 321.353 7.84559 277.939 26.4021 5.10479 3.83886 16.2821 8.21167
internal_count=53540 33843 3854 29989 29820 2513 339 217 197 27307 2693 132 116 70 28 46 26 122 93 186 107 100 2561 51 2174 186 27 20 82 41
is_linear=0
shrinkage=0.05


Tree=23
num_leaves=31
num_cat=0
split_feature=2 0 0 2 3 0 1 0 2 0 2 0 3 0 2 0 2 0 3 3 0 0 3 0 0 2 1 0 3 0
split_gain=6930.94 2527.02 33.1834 31.3487 14.5853 49.3154 15.3692 5.877 4.37312 3.4435 38.8184 6.69776 7.68113 5.3552 4.79688 3.86683 5.82982 2.98716 5.62903 2.58242 7.58197 2.34198 2.11927 8.55535 1.91011 6.54187 3.28388 1.60804 1.5773 2.79038
threshold=3.6732737391461519 39.985000000000007 40.295000000000009 3.6362733758457275 0.59519259259259272 20.855000000000004 0.55881880252296623 29.995000000000005 0.38821049476047104 32.955000000000005 0.88734902877497646 38.025000000000013 0.54969223484848495 35.915000000000006 0.83277497520245702 34.855000000000011 0.73866545861055533 30.335000000000004 0.62050245098039236 0.6301686176142699 28.065000000000005 25.995000000000005 0.5022227822580646 38.785000000000004 13.735000000000001 0.28655908672193714 1.1761833481323434 26.665000000000003 0.1645584415584416 18.855000000000004
decision_type=2 2 2 2 2 2 2 2 2 2 2 2 2 2 2 2 2 2 2 2 2 2 2 2 2 2 2 2 2 2
left_child=1 3 -3 4 9 24 17 8 -8 -1 11 12 13 -11 -15 16 -14 18 -7 -10 21 -21 -12 -24 -6 26 -26 -23 -5 -30
right_child=-2 2 -4 28 5 6 7 -9 19 10 22 -13 15 14 -16 -17 -18 -19 -20 20 -22 27 23 -25 25 -27 -28 -29 29 -31
leaf_value=-0.058070918067762482 0.060483226683389547 0.0056168128602588387 0.060483226683389547 0.011379529596810829 -0.05679341265495827 -0.062750389896132311 0.03182389226137361 0.028456490967395304 -0.058156011805049181 -0.060584903855830964 -0.058081642245297327 0.078628532713741359 0.040081557440581325 0.043544026793915197 -0.048228679196458804 0.072149501338546085 -0.067428106993795409 0.063152427484941626 0.028071308617517901 -0.048645634684977096 0.077421565671837153 0.026589538920562275 -0.062079475455893068 0.058295330388526551 0.032832732948160526 -0.054963412154362484 -0.05833484753986045 -0.038520192266625945 -0.058056269134382492 -0.010131349923354682
leaf_weight=2937.1281570345163 2822.2483737766743 29.053684487938881 535.30588030815125 6.6781299561262122 241.50410598516464 1.9086879938840926 2.3785090297460583 4.4317775070667258 10.632803276181223 6.2295548394322449 312.39161325991154 2.9356084465980521 4.053884342312811 3.4735064804553986 2.4130402803421021 3.6500297784805298 1.8302561640739439 4.7122914195060721 16.07051993906498 11.579446062445642 1.5842633843421925 2.0535216778516765 5.8577882647514334 1.9733130782842634 3.7065196037292507 20.550643302500248 1.3466047123074529 1.761943846940994 3.4132917821407345 27.568521112203598
leaf_count=24506 19697 118 3736 29 1988 11 11 20 79 47 2608 14 18 16 14 20 11 29 82 80 7 10 44 9 16 159 11 10 16 124
internal_value=-0.000137997 -0.0407941 0.0576587 -0.0560426 -0.0565165 -0.0463996 -0.00422866 -0.0252876 -0.0332295 -0.057516 -0.0527891 0.00775654 -0.00185315 -0.0282718 0.00592414 0.0317199 0.00664078 0.0277171 0.0184296 -0.0388333 -0.0267328 -0.0374512 -0.0574376 -0.0317469 -0.0554167 -0.042431 0.00853753 -0.00347748 -0.0106605 -0.0154113
internal_weight=7030.43 4208.18 564.36 3643.82 3606.16 324.222 57.1138 34.4223 29.9905 3281.94 344.809 24.5859 21.6503 12.1161 5.88655 9.53417 5.88414 22.6915 17.9792 27.612 16.9792 15.3949 320.223 7.8311 267.108 25.6038 5.05312 3.81547 37.6599 30.9818
internal_count=53540 33843 3854 29989 29820 2513 339 217 197 27307 2801 140 126 77 30 49 29 122 93 186 107 100 2661 53 2174 186 27 20 169 140
is_linear=0
shrinkage=0.05


Tree=24
num_leaves=31
num_cat=0
split_feature=2 0 0 2 3 0 1 0 2 0 2 0 3 0 2 0 2 0 3 1 0 2 0 2 0 2 0 2 2 0
split_gain=6526.5 2380.5 32.7086 31.2224 14.5162 47.1461 17.4687 6.85214 4.37246 4.88024 3.62658 3.31641 35.7966 4.30511 9.50281 3.43342 6.54232 3.13725 5.62317 2.03681 5.37852 5.25728 1.93509 2.57697 1.97765 3.59734 2.05548 3.4899 1.67414 4.84358
threshold=3.6732737391461519 39.985000000000007 40.295000000000009 3.6362733758457275 0.58150997150997163 20.855000000000004 0.55881880252296623 31.015000000000004 0.59304002936754652 29.655000000000005 0.38821049476047104 34.645000000000003 0.50543560606060622 38.025000000000013 0.83277497520245702 36.185000000000009 0.78609406331652198 25.995000000000005 0.6301686176142699 0.81455568604736628 13.735000000000001 0.34751273860919618 32.335000000000008 0.59304002936754652 29.995000000000005 0.50812064965197234 25.105000000000004 0.42751356006598429 0.45669544421082076 23.415000000000003
decision_type=2 2 2 2 2 2 2 2 2 2 2 2 2 2 2 2 2 2 2 2 2 2 2 2 2 2 2 2 2 2
left_child=1 3 -3 4 11 19 22 8 9 10 -8 -1 -13 14 15 16 -14 28 -19 20 -6 -22 23 24 25 26 27 -7 29 -12
right_child=-2 2 -4 -5 5 6 7 -9 -10 -11 17 12 13 -15 -16 -17 -18 18 -20 -21 21 -23 -24 -25 -26 -27 -28 -29 -30 -31
leaf_value=-0.0575931663091808 0.05986796378481013 0.0053363608777720582 0.05986796378481013 -0.010171060152610151 -0.052929647858147126 0.040267325047690809 0.030085314172182132 0.028443497098909445 -0.059313851457814842 0.066728419720767443 -0.061642190681337833 -0.057466204313723505 0.044857415404044615 0.052353341225380434 -0.053539441183452566 0.072233513571096711 -0.060026322372151192 -0.070698056982391233 0.019482435788933952 -0.057511116542210722 0.019462089277998137 -0.062038689945102844 0.065325657126395181 -0.029566005216458136 0.065823551512403503 -0.018090488270330229 0.065215142511187749 -0.03505647847685877 -0.061499010650711367 0.048340496681016892
leaf_weight=2873.0630423948169 2711.4939455837011 29.051622286438942 514.29869425296783 37.512398511171341 59.76945498585701 5.7687714993953829 2.3898575007915559 4.822429731488227 12.306186005473135 1.4301109462976445 2.9380091726779964 210.01779153943062 4.2703947871923464 5.0286146849393836 5.4929858818650237 3.0963614881038666 2.280968576669693 2.5570015162229529 5.3356752842664719 221.26490926742554 5.3898788690566999 3.1264429092407227 2.7392006367444983 2.2784576788544646 2.7612160146236411 4.4704758003354064 3.7397786378860474 2.0966602116823196 9.21045223623514 1.5184176564216612
leaf_count=25009 19697 118 3736 169 505 28 11 22 101 6 21 1826 22 24 40 16 12 15 27 1907 23 24 17 13 16 23 21 11 72 8
internal_value=-0.00013837 -0.0404121 0.0569523 -0.0555416 -0.0560336 -0.0464694 -0.0084574 -0.0276745 -0.0348556 -0.0229962 -0.028354 -0.0571305 -0.0513558 0.0122699 -0.00104286 0.0288464 0.00834036 -0.0348319 -0.00973346 -0.0551815 -0.0476327 -0.0104578 0.025787 0.0206578 0.0267327 0.0200183 0.0346984 0.0201885 -0.0493264 -0.0241683
internal_weight=6751.52 4040.03 543.35 3496.68 3459.16 355.913 66.3627 42.5081 37.6857 25.3795 23.9494 3103.25 230.187 20.1693 15.1407 9.64772 6.55136 21.5596 7.89268 289.551 68.2858 8.51632 23.8546 21.1154 18.8369 16.0757 11.6052 7.86543 13.6669 4.45643
internal_count=53540 33843 3854 29989 29820 2871 412 283 261 160 154 26949 1940 114 90 50 34 143 42 2459 552 47 129 112 99 83 60 39 101 29
is_linear=0
shrinkage=0.05


Tree=25
num_leaves=31
num_cat=0
split_feature=2 0 0 2 3 0 1 0 2 0 2 0 3 3 0 0 3 2 0 2 1 0 2 0 2 0 2 0 2 3
split_gain=6148.9 2243.4 32.2673 31.1302 14.3963 45.3966 16.1621 6.36557 4.25675 4.46924 3.35761 3.23715 34.1625 3.97553 6.97842 3.01981 5.232 2.39042 6.29009 2.19186 2.06246 5.22438 4.9258 1.85528 2.36415 2.42733 1.6357 4.50042 1.60665 1.54887
threshold=3.6732737391461519 39.985000000000007 40.295000000000009 3.6362733758457275 0.58150997150997163 20.855000000000004 0.55881880252296623 31.015000000000004 0.59304002936754652 29.655000000000005 0.38821049476047104 34.645000000000003 0.50543560606060622 0.54969223484848495 36.465000000000011 25.995000000000005 0.6301686176142699 0.83277497520245702 37.695000000000007 0.88734902877497646 0.81455568604736628 13.735000000000001 0.34751273860919618 32.335000000000008 0.57292155089746155 30.335000000000004 0.45669544421082076 23.415000000000003 0.64750546395207775 0.3826747967479675
decision_type=2 2 2 2 2 2 2 2 2 2 2 2 2 2 2 2 2 2 2 2 2 2 2 2 2 2 2 2 2 2
left_child=1 3 29 4 11 20 23 8 9 10 -8 -1 -13 14 -14 26 -17 -16 -19 -20 21 -6 -23 24 -7 -26 27 -12 -9 -3
right_child=-2 2 -4 -5 5 6 7 28 -10 -11 15 12 13 -15 17 16 -18 18 19 -21 -22 22 -24 -25 25 -27 -28 -29 -30 -31
leaf_value=-0.05716294857620622 0.059294525356868438 -0.0014067404539385591 0.059294525356868438 -0.0096958143188543428 -0.052321612480073748 0.028714729155986836 0.028458613732324268 0.053582819196922808 -0.058809067791672678 0.06363684208269399 -0.060983675542010056 -0.057027997618267302 -0.044417547404050295 0.050539669782934088 0.073526545614634189 -0.069470436432696778 0.018460470873120177 -0.065358054038813326 0.073113741151285827 0.0073966918028568725 -0.0570689200071193 0.018476305093891889 -0.061423321806363895 0.064437769623993765 -0.049151125031763096 0.024882426351780659 -0.06090703106983178 0.045289266474425299 -0.0043616412646463529 0.025650992971728334
leaf_weight=2752.98901630193 2603.5630660057068 22.095847040414814 493.82706069946289 37.386825129389763 57.49848248064518 16.369401007890708 2.3998714685440126 2.6116341054439536 11.803934834897516 1.4247374236583699 2.8241317123174694 201.27126322686672 5.7067816630005863 4.9806682616472235 2.0600949525833112 2.4741792455315581 5.3491462916135788 1.9007954224944112 2.6180682182312012 2.4619611501693726 212.06317403167486 5.3934789001941663 3.0030028149485588 2.6405964791774741 2.2341061010956755 2.1948873847723007 8.8442465141415578 1.5391247570514677 2.2074392735958099 6.9534106701612464
leaf_count=25009 19697 89 3736 169 505 87 11 12 101 6 21 1826 40 28 10 15 27 12 12 12 1907 23 24 17 13 12 72 8 10 29
internal_value=-0.000138653 -0.0400491 0.056282 -0.0550657 -0.0555771 -0.0458757 -0.00822944 -0.0269836 -0.0340853 -0.0223439 -0.0275721 -0.0566956 -0.0508733 0.0119172 -0.0011266 -0.0339659 -0.00934827 0.0261994 0.0122328 0.0412649 -0.0546681 -0.0469416 -0.0100998 0.0249585 0.0199462 -0.0124621 -0.0485479 -0.0234962 0.0270406 0.00506997
internal_weight=6480.69 3877.13 522.876 3354.25 3316.86 342.876 64.9174 41.4784 36.6594 24.8554 23.4307 2973.99 221 19.7284 14.7477 21.0308 7.82333 9.04092 6.98082 5.08003 277.958 65.895 8.39648 23.439 20.7984 4.42899 13.2075 4.36326 4.81907 29.0493
internal_count=53540 33843 3854 29989 29820 2871 412 283 261 160 154 26949 1940 114 86 143 42 46 36 24 2459 552 47 129 112 25 101 29 22 118
is_linear=0
shrinkage=0.05


Tree=26
num_leaves=31
num_cat=0
split_feature=2 0 0 2 3 0 1 0 3 0 2 0 3 2 0 0 3 0 2 2 0 1 0 2 2 0 3 3 0 2
split_gain=5795.95 2114.96 31.8105 31.0427 14.3571 44.8132 17.3899 7.55042 4.6655 4.37558 3.28964 2.42614 26.2928 3.36746 5.74498 2.32676 6.4534 2.26726 4.79476 2.24159 5.81339 2.17863 4.91709 4.79595 2.03056 1.93337 4.62539 1.88461 4.04689 1.61199
threshold=3.6732737391461519 39.985000000000007 40.295000000000009 3.6362733758457275 0.56408249158249169 20.855000000000004 0.55881880252296623 32.745000000000012 0.60260879629629638 29.995000000000005 0.38821049476047104 35.385000000000012 0.50543560606060622 0.78609406331652198 36.465000000000011 25.995000000000005 0.65442222222222235 32.335000000000008 0.64750546395207775 0.83277497520245702 37.695000000000007 0.81455568604736628 13.735000000000001 0.34751273860919618 0.88734902877497646 30.335000000000004 0.62050245098039236 0.6301686176142699 27.515000000000004 0.45669544421082076
decision_type=2 2 2 2 2 2 2 2 2 2 2 2 2 2 2 2 2 2 2 2 2 2 2 2 2 2 2 2 2 2
left_child=1 3 -3 4 11 21 17 8 -8 10 -10 -1 -13 -14 -15 29 27 18 25 -16 -21 22 -6 -24 -22 26 -7 -17 -29 -12
right_child=-2 2 -4 -5 5 6 7 -9 9 -11 15 12 13 14 19 16 -18 -19 -20 20 24 -23 23 -25 -26 -27 -28 28 -30 -31
leaf_value=-0.056780695954018384 0.058759427753497254 0.0048236513074344511 0.058759427753497254 -0.0092416895143527383 -0.051761356296580067 -0.059029097196228966 -0.054377236870552403 0.033920999411611974 0.026934010751266352 0.035578739600120153 -0.022848761320915636 -0.056580272072579534 0.071351333628174626 -0.047895777242994118 0.071917968801424828 -0.055399528702641671 0.074624678095361538 0.056089413562508961 -0.06496608608679226 -0.064456442200815187 0.070530454627377032 -0.056691134789321286 0.017543676515844514 -0.060564345800116486 0.0070331595086999855 0.062788829356080003 0.024974842371731271 -0.064604451521945702 0.040034266995601045 -0.060140876912757241
leaf_weight=2614.0763435140252 2498.5660941153765 29.01087261736393 473.91191184520721 37.265931561589241 55.62884321808815 1.8311927169561517 18.307967767119408 4.3877645656466475 2.4086947888135972 2.9532974064350119 4.2709145918488529 160.99770573526621 2.1194286346435538 3.8314169794321051 2.0023289471864683 4.6065460667014104 1.6352504193782795 4.0173086524009696 1.7176527753472317 1.8327398374676702 2.5792481303215027 248.36086593568325 5.3961159884929639 3.0910399034619331 2.4598119258880615 2.5461241602897635 15.585457131266592 1.6953832656145098 2.0308580249547958 9.0132417604327184
leaf_count=24802 19697 118 3736 169 508 11 161 23 11 13 29 1524 12 27 10 33 7 25 11 12 12 2333 23 26 12 16 82 10 10 77
internal_value=-0.000138913 -0.039703 0.0556482 -0.0546111 -0.0551429 -0.0461504 -0.0119863 -0.0288013 -0.0346666 -0.0220553 -0.0286884 -0.0563983 -0.050713 0.0130053 0.00327248 -0.0344503 -0.0161913 0.0215878 0.0151948 0.0253644 0.0117995 -0.0545699 -0.0463529 -0.0109034 0.0395343 0.0220921 0.0161426 -0.0340133 -0.00757476 -0.0481513
internal_weight=6218.14 3719.57 502.923 3216.65 3179.38 389.485 77.0077 51.3099 46.9222 28.6142 25.6609 2789.9 175.823 14.825 12.7055 23.2522 9.96804 25.6977 21.6804 8.87413 6.8718 312.477 64.116 8.48716 5.03906 19.9628 17.4166 8.33279 3.72624 13.2842
internal_count=53540 33843 3854 29989 29820 3409 519 374 351 190 177 26411 1609 85 73 166 60 145 120 46 36 2890 557 49 24 109 93 53 20 106
is_linear=0
shrinkage=0.05


Tree=27
num_leaves=31
num_cat=0
split_feature=2 0 0 2 3 0 1 0 3 0 2 0 3 2 0 1 0 2 0 3 0 2 2 0 0 3 0 2 2 0
split_gain=5465.83 1994.64 31.4256 30.9649 14.2813 43.323 16.1161 7.00981 4.50314 4.03417 3.05925 2.37511 25.1137 3.15451 5.30413 2.2118 4.78095 4.50334 2.20471 5.90735 2.14015 4.44994 2.1062 5.42915 1.8605 4.23106 1.84283 5.11149 1.60833 4.24487
threshold=3.6732737391461519 39.985000000000007 40.295000000000009 3.6362733758457275 0.56408249158249169 20.855000000000004 0.55881880252296623 32.745000000000012 0.60260879629629638 29.995000000000005 0.38821049476047104 35.385000000000012 0.50543560606060622 0.78609406331652198 36.465000000000011 0.81455568604736628 13.735000000000001 0.34751273860919618 25.995000000000005 0.65442222222222235 32.335000000000008 0.64750546395207775 0.83277497520245702 38.025000000000013 30.335000000000004 0.62050245098039236 28.065000000000005 0.57292155089746155 0.45669544421082076 23.415000000000003
decision_type=2 2 2 2 2 2 2 2 2 2 2 2 2 2 2 2 2 2 2 2 2 2 2 2 2 2 2 2 2 2
left_child=1 3 -3 4 11 15 20 8 -8 10 -10 -1 -13 -14 -15 16 -6 -18 28 26 21 24 -16 -24 25 -7 -20 -28 29 -12
right_child=-2 2 -4 -5 5 6 7 -9 9 -11 18 12 13 14 22 -17 17 -19 19 -21 -22 -23 23 -25 -26 -27 27 -29 -30 -31
leaf_value=-0.056403469181537207 0.058259561858428822 0.0045829190631114609 0.058259561858428822 -0.0088078108791238389 -0.051185468225638776 -0.05710437388880716 -0.053727042780376801 0.032406305277493386 0.025502936285120431 0.03388599503519487 -0.060145979975233167 -0.056190032703528674 0.070085140149504219 -0.046601631045713764 0.070448785872897365 -0.0563023750218428 0.016660780827737483 -0.060032924808675281 -0.061287113796935994 0.071080805662255095 0.054917423082839027 -0.064085089105798035 -0.04663809429063754 0.045983240632993028 0.062018136155118753 0.023909335412830027 0.041734245566942808 -0.062423532236900184 -0.059625874109235658 0.043897220268618656
leaf_weight=2502.79519674927 2396.5840381681919 29.008096218109131 454.56861281394958 37.149638667702675 53.49612770229578 1.7990942001342904 17.620509713888168 4.3638307824730864 2.4164560586214128 2.945971652865409 2.6719711720943478 154.18240548670292 2.0515558570623389 3.7431946843862525 1.9433774501085261 237.83808768540621 5.3979157209396345 2.9656560644507408 3.3961377665400487 1.6310346722602833 3.9008629024028769 1.6557712480425824 2.5254655107855797 4.2358257174491882 2.4512792080640784 15.469046980142592 2.2415756583213806 2.4822390899062157 8.6458360701799375 1.548472464084625
leaf_count=24802 19697 118 3736 169 508 11 161 23 11 13 21 1524 12 27 10 2333 23 26 25 7 25 11 16 20 16 82 10 18 77 8
internal_value=-0.000139101 -0.0393742 0.0550397 -0.0541806 -0.0547339 -0.0455958 -0.011675 -0.0281339 -0.0339274 -0.0214584 -0.0279714 -0.0560164 -0.0502737 0.0126382 0.00317032 -0.0541118 -0.0456893 -0.0105342 -0.0336846 -0.0157526 0.02086 0.0146446 0.0245733 0.0113875 0.0212553 0.0154689 -0.0331947 -0.0129979 -0.0472748 -0.0219727
internal_weight=5963.73 3567.14 483.577 3083.56 3046.41 374.938 75.2401 49.964 45.6002 27.9797 25.0337 2671.48 168.682 14.4994 12.4479 299.698 61.8597 8.36357 22.6173 9.75099 25.2761 21.3752 8.70467 6.76129 19.7194 17.2681 8.11995 4.72381 12.8663 4.22044
internal_count=53540 33843 3854 29989 29820 3409 519 374 351 190 177 26411 1609 85 73 2890 557 49 166 60 145 120 46 36 109 93 53 28 106 29
is_linear=0
shrinkage=0.05


Tree=28
num_leaves=31
num_cat=0
split_feature=2 0 0 2 3 0 1 0 2 0 0 3 3 0 3 0 3 0 2 1 0 1 0 2 0 3 3 1 1 1
split_gain=5156.77 1881.84 31.0635 30.8946 14.2171 40.8919 12.7247 5.67979 4.06121 3.88745 3.07912 30.2233 3.41781 5.43939 2.80697 5.16951 3.02782 4.74176 3.48638 2.54125 2.34721 2.15444 4.79066 4.07005 1.71292 5.8022 1.5519 4.83836 2.69586 5.64289
threshold=3.6732737391461519 39.985000000000007 40.295000000000009 3.6362733758457275 0.58150997150997163 20.855000000000004 0.55881880252296623 31.015000000000004 0.59304002936754652 29.655000000000005 34.645000000000003 0.50543560606060622 0.55438750000000014 35.915000000000006 0.6301686176142699 28.065000000000005 0.65442222222222235 25.995000000000005 0.42751356006598429 1.3366122958072648 21.385000000000005 0.81455568604736628 13.735000000000001 0.34751273860919618 29.325000000000003 0.6301686176142699 0.19048809523809526 9.4624120216854326 4.2763168878252662 3.9457673528336952
decision_type=2 2 2 2 2 2 2 2 2 2 2 2 2 2 2 2 2 2 2 2 2 2 2 2 2 2 2 2 2 2
left_child=1 3 -3 4 10 21 24 8 9 14 -1 -12 13 -13 -8 16 -16 18 20 -15 -18 22 -6 -24 25 -7 27 28 29 -5
right_child=-2 2 -4 26 5 6 7 -9 -10 -11 11 12 -14 19 15 -17 17 -19 -20 -21 -22 -23 23 -25 -26 -27 -28 -29 -30 -31
leaf_value=-0.05603092528790421 0.057792110658891983 0.0043542250661600564 0.057792110658891983 -0.014325853417786031 -0.050588471599099932 -0.068204788346878764 -0.062034546217779041 0.026605689420788843 -0.057946546820362203 0.06055088180853227 -0.055862853665482506 -0.050380108762168974 0.056510737692686601 0.035148145272247744 -0.059437531825795802 0.072569376137644484 -0.047156792794952808 0.067841921836391816 -0.054222863029091267 -0.015630070945250187 0.027827510031408514 -0.055893944939538615 0.01582450127803163 -0.059789147586095159 0.041754794633993911 0.024627725680940252 -0.034243035760443179 0.05642505459912546 -0.020121196177274727 0.074989959444789173
leaf_weight=2416.4500984102488 2297.6726647168398 29.005160942673683 435.80774104595184 5.6348852664232272 51.138456165790558 1.9346424192190195 4.2607502490282121 4.6878283619880667 10.493138149380682 1.3920140415430058 176.75774194300175 3.8261544257402447 3.4150440841913214 7.5821964368224126 4.5743109062314096 1.4817568361759175 1.4941020309925059 1.6236372441053379 4.9112276658415794 3.6501131504774094 3.4615639597177505 186.25065816938877 5.3989896625280362 2.6547544077038765 7.5855699479579917 12.950060397386549 5.0193639397621146 2.971751242876052 20.834609925746918 2.5772463232278824
leaf_count=25009 19697 118 3736 25 505 13 36 22 101 6 1826 30 21 42 38 7 8 7 38 21 20 1907 23 24 47 69 23 13 97 11
internal_value=-0.000139272 -0.0390615 0.0544575 -0.0537717 -0.0543477 -0.0441565 -0.0074653 -0.0249602 -0.0321348 -0.0204601 -0.0555429 -0.0495029 0.0113499 0.00110812 -0.0256313 -0.0167916 -0.0250339 -0.0113381 -0.0243675 0.018647 0.00522022 -0.0532531 -0.0449435 -0.00910001 0.0224168 0.0125618 -0.00839334 -0.00434102 -0.010558 0.0137045
internal_weight=5717.5 3419.83 464.813 2955.01 2917.97 306.293 60.8506 38.3803 33.6925 23.1994 2611.68 195.231 18.4735 15.0585 21.8073 17.5466 16.0648 11.4905 9.86689 11.2323 4.95567 245.443 59.1922 8.05374 22.4703 14.8847 37.0379 32.0185 29.0467 8.21213
internal_count=53540 33843 3854 29989 29820 2871 412 283 261 160 26949 1940 114 93 154 118 111 73 66 63 28 2459 552 47 129 82 169 146 133 36
is_linear=0
shrinkage=0.05


Tree=29
num_leaves=31
num_cat=0
split_feature=2 0 2 0 3 0 1 0 3 0 2 0 2 2 0 2 0 1 0 2 2 0 2 0 3 0 3 0 2 1
split_gain=4867.05 1775.88 30.762 30.7215 14.1348 40.544 13.8174 6.44425 4.24493 3.5854 2.84214 2.33037 23.2989 3.11757 4.85168 2.95549 5.68149 2.28568 4.52095 3.97799 2.23622 1.97802 4.01462 1.96275 5.02154 1.76117 3.73666 1.65052 4.48991 1.54271
threshold=3.6732737391461519 39.985000000000007 3.6362733758457275 40.295000000000009 0.56408249158249169 20.855000000000004 0.55881880252296623 32.745000000000012 0.60260879629629638 29.995000000000005 0.38821049476047104 35.385000000000012 0.94247399283370525 0.78609406331652198 36.185000000000009 0.83277497520245702 37.695000000000007 0.81455568604736628 13.735000000000001 0.34751273860919618 0.88734902877497646 32.335000000000008 0.64750546395207775 25.995000000000005 0.65442222222222235 30.335000000000004 0.62050245098039236 28.065000000000005 0.57292155089746155 5.8451684033350384
decision_type=2 2 2 2 2 2 2 2 2 2 2 2 2 2 2 2 2 2 2 2 2 2 2 2 2 2 2 2 2 2
left_child=1 2 4 29 11 17 21 8 -8 10 -10 -1 13 -13 -15 -16 -17 18 -6 -20 -18 22 25 -12 27 26 -7 -25 -29 -3
right_child=-2 3 -4 -5 5 6 7 -9 9 -11 23 12 -14 14 15 16 20 -19 19 -21 -22 -23 -24 24 -26 -27 -28 28 -30 -31
